0.0182481 0.0189594 0.019647 0.0203086 0.0209422 0.0215458 0.0221174 0.0226551 0.023157 0.0236214 0.0240467 0.0244315 0.0247744 0.0250741 0.0253296 0.0255399 0.0257042 0.0258221 0.0258976 0.0259183 0.0258916 0.0258176 0.0256966 0.025529 0.0253154 0.0250567 0.0247536 0.0244074 0.0240193 0.0235905 0.0231227 0.0226174 0.0220764 0.0215014 0.0208945 0.0202575 0.0195926 0.0189019 0.0181873 0.0174513 0.0166959 0.0159233 0.0151357 0.0143353 0.0135241 0.0127044 0.0118781 0.0110473 0.0102139 0.00937976 0.00854669 0.00771641 0.00689062 0.00607071 0.00525834 0.00445481 0.00366138 0.00287922 0.00211618 0.00136678 0.00063178 -7.03125e-05 -6.25425e-05 -5.44734e-05 -4.61234e-05 -3.75082e-05 -2.86396e-05 -1.95434e-05 -1.02324e-05 -7.27856e-07 8.94269e-06 1.87579e-05 2.86945e-05 3.873e-05 4.8836e-05 5.89816e-05 6.91394e-05 7.92861e-05 8.93832e-05 9.94132e-05 0.000109332 0.000119127 0.000128758 0.000138198 0.00014742 0.000156393 0.000165093 0.000173492 0.000181567 0.000189296 0.000196651 0.00020361 0.00021016 0.000216281 0.000221951 0.000227165 0.000231907 0.00023616 0.000239922 0.000243186 0.000245948 0.000240684 0.000239585 0.000238054 0.000236093 0.000233712 0.000230919 0.000227725 0.00022414 0.000220172 0.000215847 0.000211169 0.00020616 0.000200833 0.000195208 0.000189304 0.000183136 0.000176728 0.0001701 0.000163272 0.000156259 0.000149087 0.000141774 0.000134339 0.000126805 0.000119191 0.000111512 0.00010379 9.60419e-05 8.82873e-05 8.0539e-05 7.28166e-05 6.51324e-05 5.75032e-05 4.99443e-05 4.24625e-05 3.50737e-05 2.77897e-05 2.06206e-05 1.3572e-05 6.65449e-06 -4.45217e-10 -5.80729e-10 -7.18253e-10 -8.57483e-10 -9.98307e-10 -1.14044e-09 -1.2836e-09 -1.42754e-09 -1.57197e-09 -1.7166e-09 -1.86115e-09 -2.00521e-09 -2.14848e-09 -2.2906e-09 -2.43127e-09 -2.57006e-09 -2.70663e-09 -2.84058e-09 -2.97154e-09 -3.09916e-09 -3.22299e-09 -3.34268e-09 -3.45787e-09 -3.56824e-09 -3.67334e-09 -3.7729e-09 -3.86657e-09 -3.95397e-09 -4.03486e-09 -4.10896e-09 -4.17602e-09 -4.23574e-09 -4.28793e-09 -4.33246e-09 -4.36909e-09 -4.39772e-09 -4.41826e-09 -4.20951e-09 -3.65367e-09 -3.07875e-09 -2.4853e-09 -1.87433e-09 -1.24655e-09 -6.02963e-10 5.51989e-11 7.26533e-10 1.41035e-09 2.10452e-09 2.80817e-09 3.5193e-09 4.23652e-09 4.95798e-09 5.6821e-09 6.40669e-09 7.12987e-09 7.85002e-09 8.56484e-09 9.27255e-09 9.97073e-09 1.06577e-08 1.13315e-08 1.19897e-08 1.26307e-08 1.32521e-08 1.38523e-08 1.44296e-08 1.49817e-08 1.55071e-08 1.60043e-08 1.64717e-08 1.69079e-08 1.73113e-08 1.76808e-08 1.80157e-08 1.83146e-08 1.8577e-08 1.88019e-08 1.9582e-08 1.94451e-08 1.92638e-08 1.89653e-08 1.85729e-08 1.81403e-08 1.76681e-08 1.71581e-08 1.66107e-08 1.60277e-08 1.54115e-08 1.47623e-08 1.40827e-08 1.3375e-08 1.26406e-08 1.18822e-08 1.11019e-08 1.03018e-08 9.4846e-09 8.65245e-09 7.8084e-09 6.95435e-09 6.09311e-09 5.2273e-09 4.35958e-09 3.49228e-09 2.62732e-09 1.76881e-09 9.16581e-10 7.55774e-11 -7.54142e-10 -1.56885e-09 -2.36755e-09 -3.14749e-09 -3.90816e-09 -4.64682e-09 -5.36198e-09 -6.05209e-09 -6.71699e-09 -7.35469e-09 0.000709542 0.00145165 0.00220784 0.00297727 0.00375894 0.00455163 0.00535435 0.00616568 0.00698426 0.00780872 0.00863741 0.00946871 0.010301 0.0111323 0.0119609 0.0127848 0.013602 0.0144107 0.0152083 0.015993 0.0167628 0.0175151 
0.0182037 0.0189133 0.0195992 0.0202592 0.0208913 0.0214935 0.0220637 0.0226001 0.0231008 0.0235641 0.0239883 0.0243723 0.0247143 0.0250133 0.0252681 0.0254779 0.0256419 0.0257595 0.0258347 0.0258553 0.0258286 0.0257548 0.025634 0.0254667 0.0252536 0.0249954 0.0246931 0.0243476 0.0239603 0.0235325 0.0230658 0.0225616 0.0220219 0.0214482 0.0208427 0.0202072 0.0195438 0.0188547 0.0181418 0.0174075 0.0166539 0.0158831 0.0150973 0.0142988 0.0134896 0.0126718 0.0118474 0.0110186 0.0101871 0.00935497 0.00852388 0.00769558 0.00687176 0.0060538 0.00524337 0.00444177 0.00365025 0.00286996 0.00210883 0.00136129 0.000628138 -7.18602e-05 -6.40321e-05 -5.59009e-05 -4.74851e-05 -3.88007e-05 -2.98593e-05 -2.06869e-05 -1.12967e-05 -1.71015e-06 8.04517e-06 1.79476e-05 2.79737e-05 3.81007e-05 4.82998e-05 5.85401e-05 6.87937e-05 7.90372e-05 8.92317e-05 9.93593e-05 0.000109376 0.000119268 0.000128996 0.000138533 0.000147851 0.000156917 0.000165709 0.000174199 0.000182362 0.000190177 0.000197615 0.000204654 0.000211282 0.000217477 0.000223218 0.0002285 0.000233305 0.00023762 0.000241438 0.000244754 0.000247564 0.000242341 0.000241236 0.000239693 0.000237719 0.000235322 0.00023251 0.000229293 0.000225683 0.000221689 0.000217334 0.000212623 0.00020758 0.000202216 0.000196552 0.000190607 0.000184397 0.000177945 0.000171271 0.000164396 0.000157334 0.000150113 0.00014275 0.000135263 0.000127677 0.00012001 0.000112279 0.000104503 9.6702e-05 8.8894e-05 8.10922e-05 7.33165e-05 6.55793e-05 5.78975e-05 5.02866e-05 4.27532e-05 3.53134e-05 2.79792e-05 2.07606e-05 1.36635e-05 6.69824e-06 -4.55412e-10 -5.94027e-10 -7.34701e-10 -8.77119e-10 -1.02117e-09 -1.16656e-09 -1.313e-09 -1.46023e-09 -1.60797e-09 -1.75591e-09 -1.90377e-09 -2.05113e-09 -2.19768e-09 -2.34306e-09 -2.48694e-09 -2.62892e-09 -2.76861e-09 -2.90563e-09 -3.03959e-09 -3.17013e-09 -3.29679e-09 -3.41923e-09 -3.53706e-09 -3.64995e-09 -3.75746e-09 -3.8593e-09 -3.95511e-09 -4.04452e-09 -4.12726e-09 -4.20305e-09 -4.27165e-09 -4.33274e-09 -4.38612e-09 -4.43167e-09 -4.46914e-09 -4.49843e-09 -4.51944e-09 -4.30591e-09 -3.73733e-09 -3.14925e-09 -2.54221e-09 -1.91725e-09 -1.2751e-09 -6.16771e-10 5.6463e-11 7.4317e-10 1.44265e-09 2.15272e-09 2.87248e-09 3.59989e-09 4.33353e-09 5.07151e-09 5.81222e-09 6.5534e-09 7.29314e-09 8.02979e-09 8.76098e-09 9.48489e-09 1.01991e-08 1.09018e-08 1.1591e-08 1.22643e-08 1.29199e-08 1.35555e-08 1.41695e-08 1.476e-08 1.53248e-08 1.58622e-08 1.63707e-08 1.68489e-08 1.72951e-08 1.77077e-08 1.80857e-08 1.84283e-08 1.8734e-08 1.90024e-08 1.92325e-08 2.00304e-08 1.98904e-08 1.9705e-08 1.93996e-08 1.89983e-08 1.85557e-08 1.80727e-08 1.75511e-08 1.69911e-08 1.63947e-08 1.57644e-08 1.51003e-08 1.44052e-08 1.36813e-08 1.29301e-08 1.21543e-08 1.13561e-08 1.05377e-08 9.7018e-09 8.85059e-09 7.98721e-09 7.11361e-09 6.23264e-09 5.34701e-09 4.45941e-09 3.57225e-09 2.68749e-09 1.80931e-09 9.37571e-10 7.73081e-11 -7.71412e-10 -1.60477e-09 -2.42177e-09 -3.21957e-09 -3.99765e-09 -4.75323e-09 -5.48477e-09 -6.19069e-09 -6.87081e-09 -7.52311e-09 0.000707502 0.00144782 0.00220218 0.00296975 0.00374953 0.00454031 0.00534109 0.00615046 0.00696707 0.00778953 0.00861622 0.00944552 0.0102757 0.0111051 0.0119317 0.0127536 0.0135688 0.0143755 0.0151712 0.0159541 0.016722 0.0174725 
0.0181271 0.0188337 0.0195168 0.020174 0.0208035 0.0214031 0.0219709 0.0225051 0.0230037 0.0234651 0.0238875 0.0242699 0.0246104 0.0249082 0.025162 0.0253709 0.0255342 0.0256513 0.0257262 0.0257466 0.0257199 0.0256462 0.0255259 0.0253592 0.0251468 0.0248896 0.0245884 0.0242443 0.0238585 0.0234324 0.0229675 0.0224653 0.0219277 0.0213564 0.0207533 0.0201203 0.0194596 0.0187732 0.0180632 0.0173319 0.0165813 0.0158136 0.0150311 0.0142358 0.0134298 0.0126154 0.0117944 0.010969 0.0101409 0.00931219 0.00848451 0.00765962 0.00683919 0.00602462 0.00521754 0.00441927 0.00363103 0.00285399 0.00209613 0.00135183 0.000621864 -7.45212e-05 -6.65932e-05 -5.83556e-05 -4.98269e-05 -4.10233e-05 -3.19569e-05 -2.26539e-05 -1.31278e-05 -3.40024e-06 6.50069e-06 1.6553e-05 2.67328e-05 3.70168e-05 4.7376e-05 5.77789e-05 6.8197e-05 7.86067e-05 8.89685e-05 9.9264e-05 0.000109448 0.000119509 0.000129403 0.000139105 0.000148586 0.000157814 0.000166765 0.00017541 0.000183724 0.000191687 0.000199268 0.000206446 0.000213207 0.00021953 0.000225393 0.000230791 0.000235706 0.000240124 0.000244039 0.000247446 0.000250339 0.000245187 0.000244069 0.000242508 0.000240511 0.000238085 0.00023524 0.000231985 0.000228333 0.000224292 0.000219885 0.000215119 0.000210017 0.00020459 0.000198859 0.000192845 0.000186561 0.000180033 0.000173281 0.000166325 0.00015918 0.000151874 0.000144425 0.00013685 0.000129175 0.000121418 0.000113595 0.000105728 9.78352e-05 8.99354e-05 8.20419e-05 7.41748e-05 6.63466e-05 5.85745e-05 5.0874e-05 4.32521e-05 3.57249e-05 2.83044e-05 2.1001e-05 1.38204e-05 6.77332e-06 -4.73003e-10 -6.16973e-10 -7.6308e-10 -9.10999e-10 -1.06061e-09 -1.21162e-09 -1.36371e-09 -1.51663e-09 -1.67008e-09 -1.82374e-09 -1.97731e-09 -2.13036e-09 -2.28257e-09 -2.43356e-09 -2.583e-09 -2.73047e-09 -2.87555e-09 -3.01787e-09 -3.157e-09 -3.29258e-09 -3.42414e-09 -3.5513e-09 -3.67368e-09 -3.79094e-09 -3.9026e-09 -4.00837e-09 -4.10789e-09 -4.20075e-09 -4.28668e-09 -4.36541e-09 -4.43665e-09 -4.5001e-09 -4.55554e-09 -4.60285e-09 -4.64177e-09 -4.67219e-09 -4.69402e-09 -4.47223e-09 -3.8817e-09 -3.27089e-09 -2.64041e-09 -1.99131e-09 -1.32435e-09 -6.40595e-10 5.8644e-11 7.71877e-10 1.49837e-09 2.23587e-09 2.98343e-09 3.73895e-09 4.50093e-09 5.26741e-09 6.03673e-09 6.80654e-09 7.57485e-09 8.33996e-09 9.09939e-09 9.85126e-09 1.0593e-08 1.13229e-08 1.20387e-08 1.2738e-08 1.3419e-08 1.40791e-08 1.47169e-08 1.53301e-08 1.59167e-08 1.64749e-08 1.70031e-08 1.74997e-08 1.79631e-08 1.83917e-08 1.87843e-08 1.91401e-08 1.94577e-08 1.97364e-08 1.99754e-08 2.08041e-08 2.06587e-08 2.04661e-08 2.01489e-08 1.97321e-08 1.92724e-08 1.87707e-08 1.8229e-08 1.76474e-08 1.7028e-08 1.63733e-08 1.56836e-08 1.49616e-08 1.42097e-08 1.34296e-08 1.26238e-08 1.17947e-08 1.09448e-08 1.00766e-08 9.19247e-09 8.29573e-09 7.38838e-09 6.47339e-09 5.55354e-09 4.63167e-09 3.71023e-09 2.7913e-09 1.8792e-09 9.73786e-10 8.02943e-11 -8.01209e-10 -1.66676e-09 -2.51532e-09 -3.34393e-09 -4.15207e-09 -4.93683e-09 -5.69663e-09 -6.42981e-09 -7.13621e-09 -7.8137e-09 0.000703981 0.0014412 0.00219241 0.00295677 0.00373329 0.00452076 0.00531819 0.00612418 0.00693737 0.0077564 0.00857963 0.00940547 0.0102322 0.0110581 0.0118812 0.0126997 0.0135115 0.0143149 0.0151072 0.0158869 0.0166515 0.0173989 
0.018018 0.0187205 0.0193995 0.0200528 0.0206785 0.0212746 0.021839 0.02237 0.0228656 0.0233242 0.0237442 0.0241242 0.0244628 0.0247588 0.025011 0.0252187 0.025381 0.0254974 0.0255718 0.0255919 0.0255652 0.0254919 0.0253721 0.0252062 0.024995 0.0247392 0.0244396 0.0240974 0.0237138 0.02329 0.0228278 0.0223284 0.0217938 0.0212257 0.0206261 0.0199967 0.0193398 0.0186574 0.0179515 0.0172244 0.0164781 0.0157149 0.0149369 0.0141462 0.0133449 0.0125352 0.011719 0.0108984 0.0100752 0.00925135 0.00842853 0.00760849 0.0067929 0.00598313 0.00518082 0.00438727 0.00360371 0.00283129 0.00207809 0.0013384 0.000612953 -7.8295e-05 -7.02256e-05 -6.1837e-05 -5.31483e-05 -4.4176e-05 -3.49324e-05 -2.54441e-05 -1.57253e-05 -5.79794e-06 4.30937e-06 1.45741e-05 2.49717e-05 3.54784e-05 4.60645e-05 5.66978e-05 6.73493e-05 7.79946e-05 8.85935e-05 9.9127e-05 0.00010955 0.000119847 0.000129978 0.000139915 0.000149628 0.000159084 0.000168259 0.000177124 0.000185654 0.000193825 0.00020161 0.000208984 0.000215934 0.000222438 0.000228475 0.000234037 0.000239108 0.000243672 0.000247725 0.000251259 0.000254271 0.00024922 0.000248083 0.000246497 0.000244467 0.000242001 0.000239109 0.000235801 0.000232089 0.000227981 0.000223502 0.000218657 0.00021347 0.000207954 0.000202129 0.000196015 0.000189629 0.000182993 0.00017613 0.000169059 0.000161797 0.00015437 0.000146798 0.000139099 0.000131297 0.000123412 0.000115461 0.000107464 9.94411e-05 9.14111e-05 8.33877e-05 7.5391e-05 6.74339e-05 5.95339e-05 5.17065e-05 4.39591e-05 3.63079e-05 2.87653e-05 2.13416e-05 1.40428e-05 6.8797e-06 -4.97987e-10 -6.4956e-10 -8.03385e-10 -9.59117e-10 -1.11663e-09 -1.27561e-09 -1.43574e-09 -1.59674e-09 -1.75829e-09 -1.92007e-09 -2.08174e-09 -2.24288e-09 -2.40314e-09 -2.5621e-09 -2.71944e-09 -2.87469e-09 -3.02743e-09 -3.17727e-09 -3.32374e-09 -3.46649e-09 -3.605e-09 -3.73888e-09 -3.86772e-09 -3.99117e-09 -4.10873e-09 -4.22009e-09 -4.32486e-09 -4.42262e-09 -4.5131e-09 -4.59598e-09 -4.67099e-09 -4.73779e-09 -4.79616e-09 -4.84597e-09 -4.88694e-09 -4.91897e-09 -4.94195e-09 -4.70845e-09 -4.08672e-09 -3.44366e-09 -2.77987e-09 -2.09649e-09 -1.3943e-09 -6.74431e-10 6.17415e-11 8.12646e-10 1.57751e-09 2.35397e-09 3.14101e-09 3.93643e-09 4.73866e-09 5.54563e-09 6.35558e-09 7.16605e-09 7.97495e-09 8.78046e-09 9.58001e-09 1.03716e-08 1.11525e-08 1.19209e-08 1.26746e-08 1.34108e-08 1.41278e-08 1.48228e-08 1.54942e-08 1.61399e-08 1.67574e-08 1.73451e-08 1.79012e-08 1.84241e-08 1.89119e-08 1.93631e-08 1.97765e-08 2.01511e-08 2.04854e-08 2.07788e-08 2.10305e-08 2.1903e-08 2.17498e-08 2.15471e-08 2.12132e-08 2.07743e-08 2.02904e-08 1.97622e-08 1.91918e-08 1.85795e-08 1.79274e-08 1.72381e-08 1.6512e-08 1.57519e-08 1.49603e-08 1.41389e-08 1.32906e-08 1.24177e-08 1.15229e-08 1.06088e-08 9.678e-09 8.7339e-09 7.77863e-09 6.81531e-09 5.84687e-09 4.8763e-09 3.9062e-09 2.93873e-09 1.97846e-09 1.02522e-09 8.45353e-11 -8.43528e-10 -1.75479e-09 -2.64817e-09 -3.52055e-09 -4.37138e-09 -5.19759e-09 -5.99752e-09 -6.76943e-09 -7.51313e-09 -8.22641e-09 0.000698976 0.00143179 0.00217851 0.0029383 0.00371018 0.00449295 0.00528562 0.0060868 0.00689514 0.00770927 0.00852759 0.0093485 0.0101703 0.0109913 0.0118095 0.0126231 0.0134301 0.0142286 0.0150162 0.0157912 0.0165513 0.0172943 
0.0178768 0.0185738 0.0192475 0.0198957 0.0205166 0.021108 0.0216681 0.0221949 0.0226867 0.0231418 0.0235585 0.0239355 0.0242715 0.0245651 0.0248154 0.0250215 0.0251826 0.025298 0.0253717 0.0253915 0.0253648 0.0252919 0.0251728 0.0250081 0.0247983 0.0245443 0.0242468 0.0239071 0.0235262 0.0231055 0.0226467 0.022151 0.0216204 0.0210565 0.0204613 0.0198366 0.0191847 0.0185073 0.0178067 0.0170851 0.0163444 0.015587 0.0148148 0.0140302 0.013235 0.0124314 0.0116214 0.0108071 0.00999011 0.00917255 0.00835603 0.00754227 0.00673294 0.0059294 0.00513328 0.00434585 0.00356835 0.00280191 0.00205475 0.00132101 0.000601437 -8.31621e-05 -7.49103e-05 -6.63273e-05 -5.74324e-05 -4.82425e-05 -3.87706e-05 -2.90437e-05 -1.90765e-05 -8.89164e-06 1.48164e-06 1.20201e-05 2.26984e-05 3.34921e-05 4.43706e-05 5.5301e-05 6.62532e-05 7.72021e-05 8.81068e-05 9.89469e-05 0.000109676 0.00012028 0.000130716 0.000140955 0.000150966 0.000160717 0.000170182 0.000179331 0.000188137 0.000196579 0.000204625 0.000212252 0.000219445 0.000226183 0.000232443 0.000238218 0.00024349 0.000248243 0.000252473 0.000256172 0.000259336 0.000254416 0.000253255 0.000251636 0.000249563 0.000247046 0.000244094 0.000240716 0.000236927 0.000232733 0.00022816 0.000223215 0.00021792 0.000212288 0.000206342 0.0002001 0.00019358 0.000186806 0.0001798 0.000172581 0.000165167 0.000157586 0.000149855 0.000141995 0.000134031 0.000125981 0.000117864 0.0001097 0.00010151 9.33124e-05 8.51215e-05 7.69578e-05 6.88347e-05 6.07698e-05 5.2779e-05 4.48699e-05 3.70591e-05 2.9359e-05 2.17804e-05 1.43292e-05 7.01673e-06 -5.30222e-10 -6.91608e-10 -8.55389e-10 -1.0212e-09 -1.18891e-09 -1.35818e-09 -1.52868e-09 -1.7001e-09 -1.87211e-09 -2.04436e-09 -2.2165e-09 -2.38807e-09 -2.55869e-09 -2.72795e-09 -2.89547e-09 -3.06077e-09 -3.2234e-09 -3.38294e-09 -3.53889e-09 -3.69088e-09 -3.83835e-09 -3.9809e-09 -4.11809e-09 -4.24952e-09 -4.37469e-09 -4.49326e-09 -4.60481e-09 -4.70891e-09 -4.80524e-09 -4.89348e-09 -4.97335e-09 -5.04448e-09 -5.10662e-09 -5.15965e-09 -5.20328e-09 -5.23738e-09 -5.26185e-09 -5.01323e-09 -4.35126e-09 -3.66657e-09 -2.95982e-09 -2.23219e-09 -1.48456e-09 -7.18088e-10 6.57381e-11 8.6525e-10 1.67963e-09 2.50634e-09 3.34434e-09 4.19124e-09 5.0454e-09 5.9046e-09 6.76699e-09 7.62992e-09 8.49118e-09 9.34883e-09 1.02001e-08 1.1043e-08 1.18744e-08 1.26926e-08 1.3495e-08 1.42789e-08 1.50423e-08 1.57823e-08 1.64971e-08 1.71846e-08 1.78421e-08 1.84679e-08 1.90599e-08 1.96167e-08 2.01361e-08 2.06165e-08 2.10566e-08 2.14555e-08 2.18114e-08 2.21239e-08 2.23918e-08 2.33208e-08 2.31577e-08 2.29419e-08 2.25863e-08 2.21191e-08 2.16038e-08 2.10414e-08 2.04341e-08 1.97822e-08 1.90879e-08 1.8354e-08 1.75809e-08 1.67715e-08 1.59287e-08 1.50541e-08 1.41509e-08 1.32215e-08 1.22687e-08 1.12955e-08 1.03045e-08 9.29926e-09 8.28215e-09 7.25647e-09 6.22535e-09 5.19195e-09 4.15906e-09 3.12896e-09 2.10653e-09 1.09158e-09 9.00074e-11 -8.98131e-10 -1.86839e-09 -2.81959e-09 -3.74845e-09 -4.65434e-09 -5.53403e-09 -6.38574e-09 -7.20762e-09 -7.99947e-09 -8.75892e-09 0.000692496 0.0014196 0.00216051 0.00291438 0.00368026 0.00445693 0.00524343 0.00603837 0.00684042 0.00764822 0.00846018 0.0092747 0.0100901 0.0109047 0.0117165 0.0125238 0.0133245 0.0141169 0.0148984 0.0156673 0.0164215 0.0171587 
0.0177033 0.0183936 0.0190608 0.0197028 0.0203177 0.0209034 0.0214581 0.0219798 0.0224669 0.0229176 0.0233302 0.0237037 0.0240364 0.0243272 0.0245751 0.0247792 0.0249387 0.0250531 0.0251259 0.0251453 0.0251187 0.0250462 0.024928 0.0247646 0.0245566 0.0243048 0.0240099 0.0236732 0.0232958 0.0228789 0.0224242 0.021933 0.0214073 0.0208486 0.0202589 0.0196399 0.018994 0.018323 0.0176289 0.0169139 0.0161802 0.0154298 0.0146649 0.0138876 0.0130999 0.0123039 0.0115015 0.0106948 0.00988558 0.00907575 0.00826697 0.00746093 0.0066593 0.0058634 0.00507488 0.00429498 0.00352492 0.00276584 0.00202609 0.00129968 0.000587308 -8.9126e-05 -8.0651e-05 -7.18298e-05 -6.26824e-05 -5.32262e-05 -4.34746e-05 -3.34555e-05 -2.31841e-05 -1.26839e-05 -1.98487e-06 8.88883e-06 1.9911e-05 3.10561e-05 4.22929e-05 5.3587e-05 6.49076e-05 7.62284e-05 8.75074e-05 9.87232e-05 0.000109829 0.000120808 0.000131617 0.000142226 0.000152603 0.000162715 0.000172534 0.000182031 0.000191177 0.000199948 0.000208315 0.000216252 0.000223744 0.000230768 0.000237301 0.000243336 0.000248854 0.000253839 0.000258286 0.000262187 0.000265537 0.000260778 0.000259588 0.000257928 0.000255803 0.000253223 0.000250197 0.000246735 0.000242851 0.000238552 0.000233865 0.000228795 0.000223368 0.000217595 0.0002115 0.000205102 0.000198419 0.000191475 0.000184293 0.000176894 0.000169294 0.000161523 0.000153599 0.000145542 0.000137378 0.000129127 0.000120807 0.000112439 0.000104043 9.56403e-05 8.72444e-05 7.88764e-05 7.05499e-05 6.22831e-05 5.40922e-05 4.59851e-05 3.79789e-05 3.0086e-05 2.23176e-05 1.468e-05 7.18452e-06 -5.69731e-10 -7.43143e-10 -9.19129e-10 -1.0973e-09 -1.27751e-09 -1.45939e-09 -1.64259e-09 -1.82678e-09 -2.01161e-09 -2.19669e-09 -2.38166e-09 -2.56602e-09 -2.74936e-09 -2.93122e-09 -3.11122e-09 -3.28884e-09 -3.46359e-09 -3.63502e-09 -3.80259e-09 -3.96591e-09 -4.12437e-09 -4.27753e-09 -4.42495e-09 -4.56617e-09 -4.70067e-09 -4.82808e-09 -4.94794e-09 -5.05979e-09 -5.1633e-09 -5.25812e-09 -5.34394e-09 -5.42037e-09 -5.48714e-09 -5.54412e-09 -5.591e-09 -5.62764e-09 -5.65393e-09 -5.38679e-09 -4.6755e-09 -3.93979e-09 -3.18037e-09 -2.39853e-09 -1.59518e-09 -7.71596e-10 7.06366e-11 9.29724e-10 1.80479e-09 2.6931e-09 3.59354e-09 4.50355e-09 5.42136e-09 6.34459e-09 7.27123e-09 8.19846e-09 9.1239e-09 1.00455e-08 1.09602e-08 1.18658e-08 1.27593e-08 1.36384e-08 1.45006e-08 1.53429e-08 1.61632e-08 1.69583e-08 1.77264e-08 1.84651e-08 1.91717e-08 1.9844e-08 2.04802e-08 2.10784e-08 2.16366e-08 2.21528e-08 2.26257e-08 2.30542e-08 2.34367e-08 2.37724e-08 2.40603e-08 2.50585e-08 2.48833e-08 2.46514e-08 2.42694e-08 2.37673e-08 2.32136e-08 2.26093e-08 2.19568e-08 2.12563e-08 2.05102e-08 1.97216e-08 1.88909e-08 1.80213e-08 1.71156e-08 1.61759e-08 1.52054e-08 1.42068e-08 1.3183e-08 1.21372e-08 1.10723e-08 9.99219e-09 8.89929e-09 7.79719e-09 6.68923e-09 5.57883e-09 4.46897e-09 3.36211e-09 2.26349e-09 1.17292e-09 9.67143e-11 -9.65055e-10 -2.00761e-09 -3.02969e-09 -4.02776e-09 -5.00116e-09 -5.9464e-09 -6.86158e-09 -7.7447e-09 -8.59555e-09 -9.41159e-09 0.000684538 0.00140463 0.00213839 0.002885 0.00364349 0.00441268 0.0051916 0.00597888 0.0067732 0.00757321 0.00837735 0.00918402 0.0099916 0.0107983 0.0116023 0.0124019 0.0131948 0.0139796 0.0147535 0.0155151 0.016262 0.0169921 
0.0174975 0.0181798 0.0188393 0.0194739 0.0200817 0.0206607 0.0212089 0.0217247 0.0222061 0.0226516 0.0230595 0.0234287 0.0237575 0.024045 0.0242901 0.0244918 0.0246495 0.0247625 0.0248343 0.0248532 0.0248266 0.0247547 0.0246376 0.0244758 0.0242699 0.0240207 0.0237289 0.0233958 0.0230224 0.02261 0.0221603 0.0216745 0.0211545 0.0206019 0.0200187 0.0194066 0.0187679 0.0181043 0.0174179 0.016711 0.0159854 0.0152434 0.0144871 0.0137185 0.0129396 0.0121526 0.0113592 0.0105617 0.0097616 0.00896095 0.00816134 0.00736447 0.00657196 0.00578515 0.00500563 0.00423466 0.00347343 0.00272307 0.00199213 0.0012744 0.000570574 -9.61782e-05 -8.74394e-05 -7.83368e-05 -6.8891e-05 -5.912e-05 -4.9038e-05 -3.86734e-05 -2.80426e-05 -1.71697e-05 -6.08575e-06 5.18417e-06 1.66127e-05 2.81732e-05 3.98332e-05 5.15573e-05 6.33132e-05 7.50736e-05 8.67951e-05 9.84549e-05 0.000110005 0.000121427 0.000132677 0.000143723 0.000154534 0.000165071 0.00017531 0.000185217 0.000194765 0.000203927 0.000212672 0.000220976 0.00022882 0.000236183 0.000243039 0.000249381 0.00025519 0.000260449 0.000265153 0.000269292 0.000272863 0.000268294 0.00026707 0.000265362 0.000263176 0.000260522 0.000257408 0.000253846 0.00024985 0.000245427 0.000240604 0.000235389 0.000229804 0.000223866 0.000217594 0.000211012 0.000204136 0.000196992 0.000189602 0.000181989 0.000174171 0.000166175 0.000158022 0.000149733 0.000141333 0.000132844 0.000124283 0.000115674 0.000107036 9.83908e-05 8.97526e-05 8.1143e-05 7.25764e-05 6.4071e-05 5.56438e-05 4.73028e-05 3.90655e-05 3.09449e-05 2.29524e-05 1.50944e-05 7.38274e-06 -6.16476e-10 -8.04115e-10 -9.9454e-10 -1.18733e-09 -1.38232e-09 -1.57913e-09 -1.77736e-09 -1.97666e-09 -2.17666e-09 -2.37692e-09 -2.57707e-09 -2.77655e-09 -2.97493e-09 -3.17172e-09 -3.36649e-09 -3.55868e-09 -3.74777e-09 -3.93326e-09 -4.11458e-09 -4.2913e-09 -4.46276e-09 -4.62849e-09 -4.788e-09 -4.94081e-09 -5.08635e-09 -5.22421e-09 -5.3539e-09 -5.47493e-09 -5.58693e-09 -5.68953e-09 -5.78239e-09 -5.86509e-09 -5.93734e-09 -5.999e-09 -6.04972e-09 -6.08937e-09 -6.11782e-09 -5.82876e-09 -5.0591e-09 -4.26303e-09 -3.4413e-09 -2.59532e-09 -1.72606e-09 -8.34903e-10 7.64321e-11 1.006e-09 1.95286e-09 2.91406e-09 3.88838e-09 4.87305e-09 5.86616e-09 6.86514e-09 7.86781e-09 8.87112e-09 9.87248e-09 1.08697e-08 1.18594e-08 1.28394e-08 1.38061e-08 1.47574e-08 1.56903e-08 1.66017e-08 1.74893e-08 1.83497e-08 1.91808e-08 1.99801e-08 2.07446e-08 2.14722e-08 2.21605e-08 2.28078e-08 2.34118e-08 2.39703e-08 2.4482e-08 2.49457e-08 2.53596e-08 2.57229e-08 2.60344e-08 2.71145e-08 2.69249e-08 2.6674e-08 2.62606e-08 2.57173e-08 2.51182e-08 2.44643e-08 2.37583e-08 2.30003e-08 2.2193e-08 2.13397e-08 2.04408e-08 1.94999e-08 1.85199e-08 1.75031e-08 1.64529e-08 1.53724e-08 1.42646e-08 1.3133e-08 1.19808e-08 1.0812e-08 9.62945e-09 8.43692e-09 7.23806e-09 6.03656e-09 4.83563e-09 3.63796e-09 2.4492e-09 1.26916e-09 1.04649e-10 -1.04423e-09 -2.17233e-09 -3.27827e-09 -4.35822e-09 -5.41149e-09 -6.43429e-09 -7.42455e-09 -8.38012e-09 -9.30078e-09 -1.01838e-08 0.000675101 0.00138688 0.00211216 0.00285015 0.00359988 0.00436019 0.00513011 0.0059083 0.00669345 0.00748424 0.00827909 0.00907645 0.00987471 0.0106721 0.0114669 0.0122572 0.013041 0.0138167 0.0145817 0.0153345 0.0160728 0.0167944 
0.0172594 0.0179325 0.0185832 0.0192092 0.0198088 0.0203799 0.0209208 0.0214296 0.0219045 0.022344 0.0227464 0.0231106 0.023435 0.0237186 0.0239604 0.0241594 0.0243149 0.0244264 0.0244971 0.0245154 0.0244888 0.0244176 0.0243018 0.0241418 0.0239383 0.0236921 0.023404 0.023075 0.0227063 0.0222991 0.0218551 0.0213755 0.0208621 0.0203167 0.019741 0.0191368 0.0185063 0.0178514 0.0171739 0.0164762 0.0157601 0.0150278 0.0142814 0.0135229 0.0127543 0.0119776 0.0111948 0.0104077 0.00961825 0.00882821 0.00803922 0.00725294 0.00647099 0.00569467 0.00492558 0.00416493 0.00341392 0.00267365 0.00195288 0.00124519 0.000551254 -0.000104307 -9.52641e-05 -8.58374e-05 -7.60479e-05 -6.59144e-05 -5.54518e-05 -4.46894e-05 -3.36445e-05 -2.23424e-05 -1.0815e-05 9.11385e-07 1.2808e-05 2.48469e-05 3.69947e-05 4.92139e-05 6.14714e-05 7.37381e-05 8.59694e-05 9.81406e-05 0.000110203 0.000122136 0.000133894 0.000145444 0.000156753 0.000167782 0.000178503 0.000188884 0.000198894 0.000208506 0.000217688 0.000226413 0.000234664 0.000242417 0.000249645 0.000256342 0.000262485 0.000268061 0.00027306 0.000277474 0.0002813 0.00027695 0.000275686 0.000273923 0.000271667 0.000268926 0.000265712 0.000262035 0.00025791 0.000253344 0.000248366 0.000242982 0.000237217 0.000231086 0.000224612 0.000217817 0.000210719 0.000203344 0.000195716 0.000187857 0.000179786 0.000171531 0.000163115 0.000154558 0.000145887 0.000137124 0.000128287 0.000119399 0.000110483 0.000101558 9.26409e-05 8.37533e-05 7.491e-05 6.61299e-05 5.74304e-05 4.88201e-05 4.03169e-05 3.1934e-05 2.36833e-05 1.55716e-05 7.61098e-06 -6.70365e-10 -8.74407e-10 -1.08148e-09 -1.29112e-09 -1.50316e-09 -1.71717e-09 -1.93273e-09 -2.14945e-09 -2.36693e-09 -2.5847e-09 -2.80234e-09 -3.01926e-09 -3.23498e-09 -3.44897e-09 -3.66077e-09 -3.86976e-09 -4.07538e-09 -4.27708e-09 -4.47426e-09 -4.66642e-09 -4.85287e-09 -5.03309e-09 -5.20654e-09 -5.37272e-09 -5.53097e-09 -5.68088e-09 -5.82191e-09 -5.95352e-09 -6.07531e-09 -6.18689e-09 -6.28786e-09 -6.37779e-09 -6.45636e-09 -6.52341e-09 -6.57856e-09 -6.62167e-09 -6.65261e-09 -6.33828e-09 -5.50135e-09 -4.63569e-09 -3.74213e-09 -2.82219e-09 -1.87694e-09 -9.07886e-10 8.31134e-11 1.09394e-09 2.12357e-09 3.16879e-09 4.22828e-09 5.29903e-09 6.37895e-09 7.46525e-09 8.55558e-09 9.64659e-09 1.07355e-08 1.18198e-08 1.28961e-08 1.39617e-08 1.5013e-08 1.60474e-08 1.70619e-08 1.8053e-08 1.90181e-08 1.99537e-08 2.08575e-08 2.17267e-08 2.2558e-08 2.33492e-08 2.40977e-08 2.48016e-08 2.54583e-08 2.60657e-08 2.66221e-08 2.71264e-08 2.75764e-08 2.79715e-08 2.83102e-08 2.94847e-08 2.92786e-08 2.90057e-08 2.85561e-08 2.79654e-08 2.73139e-08 2.66029e-08 2.58351e-08 2.50108e-08 2.4133e-08 2.32051e-08 2.22277e-08 2.12044e-08 2.01388e-08 1.90331e-08 1.78911e-08 1.67161e-08 1.55115e-08 1.4281e-08 1.30281e-08 1.17572e-08 1.04712e-08 9.17444e-09 7.87078e-09 6.56424e-09 5.25834e-09 3.95598e-09 2.6633e-09 1.3801e-09 1.13797e-10 -1.13552e-09 -2.36222e-09 -3.56484e-09 -4.7392e-09 -5.88454e-09 -6.99674e-09 -8.07356e-09 -9.11267e-09 -1.01138e-08 -1.1074e-08 0.000664192 0.00136635 0.00208183 0.00280984 0.00354944 0.00429948 0.005059 0.00582668 0.00660123 0.00738133 0.00816545 0.00895205 0.00973953 0.0105262 0.0113102 0.0120898 0.0128631 0.0136283 0.014383 0.0151256 0.015854 0.0165659 
0.0169892 0.0176518 0.0182923 0.0189086 0.0194989 0.0200612 0.0205937 0.0210946 0.0215621 0.0219948 0.022391 0.0227495 0.0230689 0.0233481 0.0235861 0.023782 0.0239351 0.0240449 0.0241143 0.0241319 0.0241054 0.0240348 0.0239205 0.0237626 0.0235619 0.0233191 0.023035 0.0227107 0.0223474 0.0219461 0.0215086 0.021036 0.0205302 0.0199929 0.0194257 0.0188305 0.0182094 0.0175643 0.016897 0.0162097 0.0155044 0.0147831 0.014048 0.0133009 0.0125439 0.011779 0.0110081 0.010233 0.00945553 0.00867754 0.0079006 0.00712636 0.00635639 0.005592 0.00483474 0.00408581 0.0033464 0.00261758 0.00190836 0.00121208 0.000529359 -0.000113503 -0.000104117 -9.4324e-05 -8.4146e-05 -7.36026e-05 -6.27097e-05 -5.14976e-05 -3.99847e-05 -2.81973e-05 -1.61685e-05 -3.92616e-06 8.49966e-06 2.10795e-05 3.37786e-05 4.65578e-05 5.93823e-05 7.22216e-05 8.50292e-05 9.77788e-05 0.00011042 0.00012293 0.000135263 0.000147383 0.000159255 0.00017084 0.000182107 0.000193023 0.000203556 0.000213677 0.000223352 0.000232555 0.000241265 0.000249459 0.000257108 0.000264206 0.000270729 0.000276661 0.000281995 0.00028672 0.000290833 0.000286733 0.000285424 0.000283598 0.000281262 0.000278425 0.000275097 0.00027129 0.000267019 0.000262292 0.000257137 0.000251563 0.000245594 0.000239246 0.000232543 0.000225508 0.000218159 0.000210523 0.000202625 0.000194488 0.000186132 0.000177585 0.000168872 0.000160012 0.000151035 0.000141961 0.000132812 0.00012361 0.000114378 0.000105138 9.59052e-05 8.67033e-05 7.75473e-05 6.84568e-05 5.94497e-05 5.05349e-05 4.17311e-05 3.30518e-05 2.45094e-05 1.61109e-05 7.86892e-06 -7.31355e-10 -9.5396e-10 -1.17987e-09 -1.40858e-09 -1.63991e-09 -1.87339e-09 -2.10857e-09 -2.34501e-09 -2.58227e-09 -2.81986e-09 -3.0573e-09 -3.29395e-09 -3.5293e-09 -3.76276e-09 -3.99383e-09 -4.22183e-09 -4.44616e-09 -4.66621e-09 -4.88133e-09 -5.09097e-09 -5.29438e-09 -5.491e-09 -5.68023e-09 -5.86152e-09 -6.03418e-09 -6.19773e-09 -6.35159e-09 -6.49517e-09 -6.62805e-09 -6.74977e-09 -6.85993e-09 -6.95804e-09 -7.04376e-09 -7.1169e-09 -7.17708e-09 -7.22411e-09 -7.25786e-09 -6.91494e-09 -6.00186e-09 -5.05744e-09 -4.08258e-09 -3.07895e-09 -2.04771e-09 -9.90485e-10 9.0675e-11 1.19347e-09 2.31678e-09 3.45709e-09 4.61297e-09 5.78114e-09 6.95931e-09 8.14444e-09 9.33396e-09 1.05242e-08 1.17122e-08 1.28952e-08 1.40694e-08 1.5232e-08 1.63789e-08 1.75074e-08 1.86142e-08 1.96954e-08 2.07484e-08 2.17691e-08 2.27551e-08 2.37034e-08 2.46103e-08 2.54735e-08 2.62901e-08 2.7058e-08 2.77745e-08 2.84371e-08 2.90442e-08 2.95943e-08 3.00853e-08 3.05163e-08 3.08858e-08 3.21672e-08 3.19423e-08 3.16446e-08 3.11542e-08 3.05097e-08 2.97989e-08 2.90232e-08 2.81856e-08 2.72863e-08 2.63286e-08 2.53163e-08 2.42499e-08 2.31336e-08 2.1971e-08 2.07647e-08 1.95189e-08 1.8237e-08 1.69227e-08 1.55803e-08 1.42133e-08 1.28268e-08 1.14239e-08 1.00091e-08 8.58686e-09 7.16146e-09 5.73674e-09 4.31589e-09 2.90561e-09 1.50566e-09 1.24151e-10 -1.23883e-09 -2.57713e-09 -3.88917e-09 -5.17037e-09 -6.41991e-09 -7.6333e-09 -8.8081e-09 -9.94174e-09 -1.1034e-08 -1.20815e-08 0.000651812 0.00134304 0.0020474 0.00276409 0.00349218 0.00423056 0.00497827 0.00573403 0.00649653 0.00726451 0.00803645 0.00881082 0.00958607 0.0103605 0.0111323 0.0118999 0.0126611 0.0134144 0.0141574 0.0148885 0.0156055 0.0163064 
0.0166867 0.0173376 0.0179669 0.0185723 0.0191522 0.0197045 0.0202276 0.0207197 0.021179 0.021604 0.0219932 0.0223454 0.0226591 0.0229334 0.0231672 0.0233596 0.02351 0.0236179 0.0236858 0.0237027 0.0236763 0.0236065 0.0234937 0.0233382 0.0231406 0.0229017 0.0226222 0.0223032 0.0219457 0.0215511 0.0211208 0.0206562 0.0201588 0.0196305 0.0190729 0.0184878 0.0178772 0.017243 0.0165871 0.0159115 0.0152182 0.0145093 0.0137868 0.0130526 0.0123086 0.0115569 0.0107992 0.0100375 0.00927349 0.00850899 0.00774554 0.00698476 0.00622821 0.00547716 0.00473314 0.00399733 0.00327089 0.00255489 0.0018586 0.00117508 0.000504915 -0.000123746 -0.000113978 -0.000103777 -9.3167e-05 -8.21676e-05 -7.07959e-05 -5.90832e-05 -4.70494e-05 -3.47219e-05 -2.21352e-05 -9.31854e-06 3.69627e-06 1.68782e-05 3.0191e-05 4.35934e-05 5.7049e-05 7.05255e-05 8.39747e-05 9.73679e-05 0.000110653 0.000123806 0.000136778 0.000149533 0.000162033 0.000174236 0.000186111 0.000197623 0.000208737 0.000219425 0.00022965 0.000239384 0.000248606 0.000257291 0.000265409 0.000272952 0.000279897 0.000286228 0.000291933 0.000297006 0.000301439 0.000297616 0.000296257 0.000294362 0.000291938 0.000288993 0.000285538 0.000281587 0.000277153 0.000272246 0.000266895 0.000261109 0.000254913 0.000248325 0.000241367 0.000234064 0.000226436 0.00021851 0.000210312 0.000201866 0.000193192 0.000184321 0.000175276 0.00016608 0.000156761 0.000147343 0.000137846 0.000128294 0.000118711 0.00010912 9.95368e-05 8.99852e-05 8.04814e-05 7.10456e-05 6.16961e-05 5.24427e-05 4.33045e-05 3.42954e-05 2.54284e-05 1.67109e-05 8.15586e-06 -7.99285e-10 -1.04257e-09 -1.28946e-09 -1.53942e-09 -1.79223e-09 -2.0474e-09 -2.30442e-09 -2.56282e-09 -2.82212e-09 -3.08177e-09 -3.34127e-09 -3.59991e-09 -3.85711e-09 -4.11226e-09 -4.36479e-09 -4.61397e-09 -4.85913e-09 -5.09962e-09 -5.33472e-09 -5.56383e-09 -5.78614e-09 -6.00102e-09 -6.20783e-09 -6.40596e-09 -6.59465e-09 -6.77339e-09 -6.94154e-09 -7.09846e-09 -7.24368e-09 -7.3767e-09 -7.4971e-09 -7.60432e-09 -7.698e-09 -7.77794e-09 -7.8437e-09 -7.89511e-09 -7.93199e-09 -7.55722e-09 -6.55933e-09 -5.52719e-09 -4.46179e-09 -3.36493e-09 -2.2379e-09 -1.08248e-09 9.90972e-11 1.30432e-09 2.53196e-09 3.77819e-09 5.04144e-09 6.31811e-09 7.60571e-09 8.90092e-09 1.02009e-08 1.15018e-08 1.28001e-08 1.40929e-08 1.53762e-08 1.66468e-08 1.79002e-08 1.91335e-08 2.03431e-08 2.15248e-08 2.26756e-08 2.37911e-08 2.48687e-08 2.5905e-08 2.68962e-08 2.78395e-08 2.8732e-08 2.95712e-08 3.03543e-08 3.10785e-08 3.17419e-08 3.23431e-08 3.28797e-08 3.33507e-08 3.37546e-08 3.5155e-08 3.49092e-08 3.45839e-08 3.40479e-08 3.33435e-08 3.25667e-08 3.1719e-08 3.08035e-08 2.98208e-08 2.87741e-08 2.76678e-08 2.65023e-08 2.52823e-08 2.40118e-08 2.26934e-08 2.13318e-08 1.99309e-08 1.84946e-08 1.70275e-08 1.55335e-08 1.40182e-08 1.2485e-08 1.09388e-08 9.38443e-09 7.82663e-09 6.26959e-09 4.71676e-09 3.17549e-09 1.64551e-09 1.35682e-10 -1.35389e-09 -2.81651e-09 -4.25041e-09 -5.65061e-09 -7.01621e-09 -8.3423e-09 -9.62622e-09 -1.08652e-08 -1.20588e-08 -1.32037e-08 0.000637965 0.00131697 0.00200887 0.00271289 0.00342812 0.00415344 0.00488794 0.00563034 0.00637937 0.00713378 0.00789208 0.00865277 0.00941433 0.0101751 0.0109333 0.0116873 0.0124351 0.0131751 0.0139049 0.0146231 0.0153275 0.016016 
0.0163522 0.0169902 0.0176069 0.0182003 0.0187687 0.0193101 0.0198227 0.020305 0.0207552 0.0211718 0.0215532 0.0218984 0.0222059 0.0224747 0.0227039 0.0228925 0.0230399 0.0231456 0.0232119 0.023228 0.0232016 0.0231328 0.0230218 0.0228689 0.0226747 0.02244 0.0221656 0.0218524 0.0215015 0.0211142 0.020692 0.020236 0.0197481 0.0192297 0.0186827 0.0181087 0.0175098 0.0168877 0.0162443 0.0155818 0.0149018 0.0142066 0.0134979 0.0127779 0.0120483 0.0113112 0.0105682 0.00982134 0.00907221 0.00832262 0.00757409 0.00682821 0.0060865 0.0053502 0.00462083 0.00389953 0.00318745 0.00248563 0.00180363 0.00113422 0.000477942 -0.000135024 -0.000124835 -0.000114186 -0.000103101 -9.15996e-05 -7.97013e-05 -6.74381e-05 -5.48314e-05 -4.19097e-05 -2.87093e-05 -1.52609e-05 -1.59816e-06 1.22461e-05 2.6234e-05 4.0322e-05 5.44719e-05 6.86495e-05 8.28045e-05 9.69059e-05 0.0001109 0.00012476 0.000138436 0.000151889 0.000165078 0.000177962 0.000190507 0.000202674 0.000214429 0.00022574 0.000236569 0.000246888 0.000256673 0.000265898 0.000274532 0.000282566 0.000289976 0.000296744 0.00030286 0.000308314 0.000313099 0.000309582 0.000308169 0.000306198 0.000303676 0.000300612 0.000297019 0.000292908 0.000288295 0.000283192 0.000277625 0.000271606 0.000265161 0.000258307 0.000251069 0.000243473 0.000235537 0.000227292 0.000218764 0.000209978 0.000200955 0.000191727 0.000182318 0.000172751 0.000163058 0.00015326 0.000143381 0.000133445 0.000123476 0.000113499 0.00010353 9.35938e-05 8.37076e-05 7.3892e-05 6.41661e-05 5.45404e-05 4.50344e-05 3.56628e-05 2.64389e-05 1.73706e-05 8.47134e-06 -8.741e-10 -1.14015e-09 -1.41016e-09 -1.68351e-09 -1.95999e-09 -2.23904e-09 -2.52012e-09 -2.80271e-09 -3.08628e-09 -3.37024e-09 -3.65402e-09 -3.93687e-09 -4.21815e-09 -4.49717e-09 -4.77334e-09 -5.04585e-09 -5.31396e-09 -5.57696e-09 -5.83406e-09 -6.08462e-09 -6.32774e-09 -6.56273e-09 -6.7889e-09 -7.00557e-09 -7.21192e-09 -7.4074e-09 -7.59129e-09 -7.7629e-09 -7.9217e-09 -8.06718e-09 -8.19885e-09 -8.3161e-09 -8.41855e-09 -8.50598e-09 -8.57789e-09 -8.63411e-09 -8.67445e-09 -8.26459e-09 -7.1733e-09 -6.04455e-09 -4.87942e-09 -3.6799e-09 -2.44738e-09 -1.18381e-09 1.08373e-10 1.42641e-09 2.76896e-09 4.13184e-09 5.51333e-09 6.9095e-09 8.31762e-09 9.73407e-09 1.11558e-08 1.25783e-08 1.39982e-08 1.54121e-08 1.68155e-08 1.82049e-08 1.95757e-08 2.09244e-08 2.22473e-08 2.35396e-08 2.47981e-08 2.6018e-08 2.71965e-08 2.83298e-08 2.94138e-08 3.04454e-08 3.14214e-08 3.23392e-08 3.31955e-08 3.39875e-08 3.4713e-08 3.53705e-08 3.59574e-08 3.64724e-08 3.69141e-08 3.84456e-08 3.81768e-08 3.7821e-08 3.72348e-08 3.64646e-08 3.56151e-08 3.4688e-08 3.36868e-08 3.26121e-08 3.14674e-08 3.02576e-08 2.8983e-08 2.76488e-08 2.62593e-08 2.48176e-08 2.33286e-08 2.17965e-08 2.02257e-08 1.86213e-08 1.69875e-08 1.53303e-08 1.36536e-08 1.19627e-08 1.02628e-08 8.55923e-09 6.85644e-09 5.15826e-09 3.47272e-09 1.79954e-09 1.48382e-10 -1.48062e-09 -3.08014e-09 -4.64826e-09 -6.17952e-09 -7.67294e-09 -9.12317e-09 -1.05273e-08 -1.18822e-08 -1.31876e-08 -1.44396e-08 0.000622659 0.00128815 0.00196627 0.00265627 0.00335726 0.00406815 0.00478803 0.00551566 0.00624979 0.00698919 0.00773241 0.00847798 0.00922439 0.00997002 0.0107131 0.0114521 0.012185 0.0129103 0.0136257 0.0143296 0.01502 0.0156948 
0.0159858 0.0166096 0.0172127 0.0177929 0.0183486 0.018878 0.0193793 0.0198508 0.020291 0.0206984 0.0210713 0.0214088 0.0217095 0.0219724 0.0221964 0.0223809 0.022525 0.0226284 0.0226929 0.0227082 0.0226818 0.022614 0.0225049 0.0223548 0.0221644 0.0219344 0.0216655 0.0213587 0.0210151 0.0206358 0.0202224 0.0197759 0.0192983 0.0187909 0.0182554 0.0176936 0.0171075 0.0164986 0.015869 0.0152206 0.0145553 0.013875 0.0131816 0.0124771 0.0117633 0.0110421 0.0103153 0.00958466 0.00885184 0.00811859 0.0073864 0.00665683 0.00593137 0.00521124 0.00449791 0.00379251 0.00309615 0.00240985 0.00174351 0.00108955 0.000448478 -0.00014731 -0.000136665 -0.000125528 -0.000113925 -0.000101878 -8.94066e-05 -7.65443e-05 -6.33139e-05 -4.97456e-05 -3.58772e-05 -2.17412e-05 -7.37317e-06 7.19208e-06 2.19147e-05 3.67491e-05 5.16548e-05 6.65956e-05 8.15189e-05 9.63912e-05 0.000111157 0.000125787 0.000140229 0.000154442 0.000168383 0.000182007 0.00019528 0.000208161 0.000220613 0.000232603 0.000244091 0.000255046 0.000265444 0.000275257 0.000284453 0.000293022 0.000300938 0.000308183 0.000314745 0.000320614 0.000325784 0.000322602 0.000321129 0.000319075 0.000316446 0.000313254 0.000309509 0.000305225 0.000300419 0.0002951 0.000289299 0.000283027 0.00027631 0.000269168 0.000261625 0.000253709 0.000245439 0.000236847 0.00022796 0.000218803 0.000209401 0.000199784 0.000189979 0.00018001 0.000169908 0.000159698 0.000149403 0.000139048 0.00012866 0.000118263 0.000107874 9.75198e-05 8.72175e-05 7.69888e-05 6.68534e-05 5.68225e-05 4.69165e-05 3.71504e-05 2.75382e-05 1.80882e-05 8.81455e-06 -9.55623e-10 -1.24649e-09 -1.54168e-09 -1.84052e-09 -2.14279e-09 -2.44787e-09 -2.75516e-09 -3.0641e-09 -3.37412e-09 -3.68456e-09 -3.99481e-09 -4.30404e-09 -4.61156e-09 -4.9166e-09 -5.21853e-09 -5.51645e-09 -5.80957e-09 -6.0971e-09 -6.37818e-09 -6.65211e-09 -6.91789e-09 -7.17481e-09 -7.42206e-09 -7.65895e-09 -7.88454e-09 -8.09825e-09 -8.29929e-09 -8.4869e-09 -8.66052e-09 -8.81957e-09 -8.96352e-09 -9.0917e-09 -9.20371e-09 -9.29929e-09 -9.37791e-09 -9.43937e-09 -9.48347e-09 -9.03539e-09 -7.84232e-09 -6.60829e-09 -5.3345e-09 -4.0231e-09 -2.67563e-09 -1.29422e-09 1.1848e-10 1.55945e-09 3.02721e-09 4.5172e-09 6.02753e-09 7.55391e-09 9.09337e-09 1.06419e-08 1.21962e-08 1.37515e-08 1.53037e-08 1.68495e-08 1.83838e-08 1.99028e-08 2.14014e-08 2.2876e-08 2.43222e-08 2.5735e-08 2.71109e-08 2.84446e-08 2.97329e-08 3.0972e-08 3.2157e-08 3.32848e-08 3.43519e-08 3.53553e-08 3.62915e-08 3.71573e-08 3.79505e-08 3.86694e-08 3.93109e-08 3.98741e-08 4.03569e-08 4.20313e-08 4.17374e-08 4.13484e-08 4.07075e-08 3.98654e-08 3.89367e-08 3.79231e-08 3.68286e-08 3.56536e-08 3.44022e-08 3.30795e-08 3.16861e-08 3.02275e-08 2.87084e-08 2.71322e-08 2.55043e-08 2.38293e-08 2.21121e-08 2.0358e-08 1.85718e-08 1.67601e-08 1.4927e-08 1.30784e-08 1.122e-08 9.3575e-09 7.4959e-09 5.63935e-09 3.79661e-09 1.96737e-09 1.62221e-10 -1.61871e-09 -3.36741e-09 -5.08177e-09 -6.75585e-09 -8.38856e-09 -9.97404e-09 -1.15091e-08 -1.29904e-08 -1.44175e-08 -1.57863e-08 0.000605906 0.00125659 0.00191962 0.00259427 0.00327967 0.00397475 0.00467862 0.00539007 0.00610788 0.00683084 0.00755755 0.00828654 0.00901636 0.00974543 0.010472 0.0111946 0.0119112 0.0126204 0.0133199 0.0140081 0.0146832 0.015343 
0.0155877 0.0161961 0.0167843 0.0173502 0.0178922 0.0184085 0.0188974 0.0193573 0.0197866 0.0201839 0.0205477 0.0208769 0.0211702 0.0214265 0.0216451 0.0218249 0.0219655 0.0220664 0.0221289 0.0221432 0.022117 0.0220502 0.0219432 0.0217963 0.02161 0.021385 0.0211221 0.0208222 0.0204865 0.0201159 0.0197121 0.019276 0.0188095 0.018314 0.0177912 0.0172426 0.0166703 0.0160759 0.0154613 0.0148283 0.0141788 0.0135148 0.012838 0.0121504 0.0114538 0.0107499 0.0100406 0.00932758 0.00861247 0.00789697 0.00718255 0.00647071 0.00576291 0.00506034 0.00436445 0.00367632 0.00299705 0.00232763 0.0016783 0.00104112 0.000416568 -0.000160574 -0.000149436 -0.000137773 -0.000125613 -0.000112977 -9.98877e-05 -8.63794e-05 -7.24766e-05 -5.82111e-05 -4.36223e-05 -2.87449e-05 -1.36164e-05 1.72622e-06 1.72413e-05 3.28805e-05 4.86012e-05 6.4365e-05 8.01169e-05 9.58207e-05 0.000111419 0.000126879 0.000142147 0.00015718 0.000171931 0.000186354 0.000200413 0.000214064 0.000227268 0.00023999 0.000252188 0.00026383 0.000274889 0.000285337 0.00029514 0.000304285 0.000312747 0.000320506 0.00032755 0.000333868 0.000339452 0.000336632 0.000335095 0.000332952 0.000330209 0.000326877 0.000322969 0.000318499 0.000313483 0.000307933 0.00030188 0.000295334 0.000288325 0.000280871 0.000273 0.000264739 0.00025611 0.000247144 0.00023787 0.000228314 0.000218502 0.000208467 0.000198235 0.000187832 0.00017729 0.000166636 0.000155892 0.000145087 0.000134247 0.000123397 0.000112556 0.000101751 9.1e-05 8.0326e-05 6.97493e-05 5.92819e-05 4.89447e-05 3.87534e-05 2.87228e-05 1.88616e-05 9.18436e-06 -1.04362e-09 -1.36127e-09 -1.68364e-09 -2.01e-09 -2.34011e-09 -2.67327e-09 -3.00886e-09 -3.34625e-09 -3.68482e-09 -4.02385e-09 -4.36267e-09 -4.70037e-09 -5.0362e-09 -5.36934e-09 -5.69907e-09 -6.02442e-09 -6.34453e-09 -6.65854e-09 -6.9655e-09 -7.26465e-09 -7.55492e-09 -7.83548e-09 -8.10551e-09 -8.36421e-09 -8.61058e-09 -8.84396e-09 -9.06352e-09 -9.2684e-09 -9.45801e-09 -9.6317e-09 -9.7889e-09 -9.9289e-09 -1.00512e-08 -1.01556e-08 -1.02415e-08 -1.03086e-08 -1.03567e-08 -9.8674e-09 -8.56446e-09 -7.21681e-09 -5.82572e-09 -4.39356e-09 -2.92201e-09 -1.41339e-09 1.2939e-10 1.70305e-09 3.30597e-09 4.93316e-09 6.58256e-09 8.2495e-09 9.93071e-09 1.16219e-08 1.33193e-08 1.50177e-08 1.67129e-08 1.8401e-08 2.00766e-08 2.17355e-08 2.33721e-08 2.49825e-08 2.65618e-08 2.81047e-08 2.96073e-08 3.10638e-08 3.24708e-08 3.3824e-08 3.51182e-08 3.63498e-08 3.75151e-08 3.86109e-08 3.96333e-08 4.05789e-08 4.14451e-08 4.22302e-08 4.29308e-08 4.35458e-08 4.40731e-08 4.59016e-08 4.55807e-08 4.51559e-08 4.4456e-08 4.35364e-08 4.25221e-08 4.14152e-08 4.02199e-08 3.89367e-08 3.75701e-08 3.61256e-08 3.46039e-08 3.30109e-08 3.1352e-08 2.96306e-08 2.78528e-08 2.60236e-08 2.41482e-08 2.22326e-08 2.0282e-08 1.83035e-08 1.63015e-08 1.42827e-08 1.22532e-08 1.02192e-08 8.18615e-09 6.15864e-09 4.14621e-09 2.14853e-09 1.77159e-10 -1.76776e-09 -3.67749e-09 -5.54972e-09 -7.37795e-09 -9.16101e-09 -1.08925e-08 -1.25689e-08 -1.41866e-08 -1.57451e-08 -1.72399e-08 0.000587717 0.0012223 0.00186894 0.00252691 0.00319537 0.00387327 0.00455974 0.00525362 0.00595369 0.00665879 0.00736754 0.00807852 0.00879032 0.00950138 0.0102101 0.0109148 0.0116137 0.0123054 0.0129876 0.0136588 0.0143172 0.0149608 
0.0151581 0.0157499 0.016322 0.0168724 0.0173996 0.0179018 0.0183774 0.0188248 0.0192423 0.0196288 0.0199826 0.0203028 0.0205881 0.0208375 0.02105 0.021225 0.0213618 0.0214598 0.0215203 0.0215336 0.0215074 0.0214419 0.0213371 0.0211935 0.0210116 0.0207921 0.0205357 0.0202433 0.0199161 0.0195549 0.0191614 0.0187366 0.0182821 0.0177995 0.0172902 0.016756 0.0161986 0.0156198 0.0150213 0.014405 0.0137726 0.0131261 0.0124673 0.0117979 0.0111197 0.0104346 0.00974419 0.00905023 0.00835425 0.00765792 0.00696266 0.00626996 0.00558122 0.00489761 0.00422053 0.00355105 0.00289022 0.00223901 0.00160803 0.000988962 0.000382235 -0.000174803 -0.000163136 -0.000150911 -0.000138152 -0.000124886 -0.000111135 -9.69345e-05 -8.23113e-05 -6.72988e-05 -5.19383e-05 -3.62664e-05 -2.0323e-05 -4.14727e-06 1.22169e-05 2.87186e-05 4.53128e-05 6.19586e-05 7.85985e-05 9.51933e-05 0.000111683 0.000128033 0.000144187 0.000160098 0.000175718 0.000190998 0.000205898 0.000220375 0.000234385 0.000247891 0.000260851 0.000273229 0.000284997 0.000296126 0.000306578 0.000316342 0.000325389 0.0003337 0.000341261 0.000348059 0.000354088 0.000351658 0.000350052 0.000347813 0.000344947 0.000341467 0.000337384 0.000332714 0.000327474 0.000321676 0.000315352 0.000308514 0.000301192 0.000293405 0.000285183 0.000276552 0.000267537 0.000258171 0.000248482 0.0002385 0.00022825 0.000217766 0.000207077 0.000196209 0.000185196 0.000174066 0.000162842 0.000151554 0.00014023 0.000128895 0.00011757 0.000106282 9.50507e-05 8.38999e-05 7.28507e-05 6.19156e-05 5.11168e-05 4.04702e-05 2.99915e-05 1.96898e-05 9.58036e-06 -1.13804e-09 -1.48443e-09 -1.83596e-09 -2.19185e-09 -2.55182e-09 -2.91513e-09 -3.28107e-09 -3.64899e-09 -4.01819e-09 -4.38789e-09 -4.75736e-09 -5.12561e-09 -5.49183e-09 -5.85511e-09 -6.21467e-09 -6.56946e-09 -6.91852e-09 -7.26094e-09 -7.59568e-09 -7.92189e-09 -8.23842e-09 -8.54437e-09 -8.83882e-09 -9.12093e-09 -9.38958e-09 -9.64408e-09 -9.8835e-09 -1.01069e-08 -1.03137e-08 -1.05031e-08 -1.06745e-08 -1.08272e-08 -1.09606e-08 -1.10744e-08 -1.1168e-08 -1.12412e-08 -1.12937e-08 -1.07601e-08 -9.3393e-09 -7.86972e-09 -6.35278e-09 -4.79105e-09 -3.18637e-09 -1.54126e-09 1.41096e-10 1.85712e-09 3.60506e-09 5.37947e-09 7.17809e-09 8.99584e-09 1.08292e-08 1.26733e-08 1.45243e-08 1.63764e-08 1.8225e-08 2.00658e-08 2.1893e-08 2.3702e-08 2.54866e-08 2.72426e-08 2.89649e-08 3.06474e-08 3.22859e-08 3.38742e-08 3.54085e-08 3.6884e-08 3.82953e-08 3.96384e-08 4.09092e-08 4.21041e-08 4.3219e-08 4.42501e-08 4.51947e-08 4.60508e-08 4.68148e-08 4.74854e-08 4.80604e-08 5.00544e-08 4.97044e-08 4.92412e-08 4.8478e-08 4.74751e-08 4.63691e-08 4.51621e-08 4.38587e-08 4.24594e-08 4.09691e-08 3.93939e-08 3.77345e-08 3.59975e-08 3.41884e-08 3.23113e-08 3.03727e-08 2.8378e-08 2.63329e-08 2.4244e-08 2.21169e-08 1.99594e-08 1.77763e-08 1.55749e-08 1.33617e-08 1.11437e-08 8.92676e-09 6.71582e-09 4.52132e-09 2.34291e-09 1.93187e-10 -1.9277e-09 -4.01019e-09 -6.05181e-09 -8.04545e-09 -9.98981e-09 -1.18779e-08 -1.3706e-08 -1.547e-08 -1.71696e-08 -1.87996e-08 0.000568102 0.00118532 0.00181427 0.00245424 0.00310441 0.00376377 0.00443147 0.00510637 0.0057873 0.00647312 0.00716251 0.00785405 0.0085464 0.00923803 0.00992733 0.0106128 0.0112926 0.0119654 0.012629 0.0132819 0.0139223 0.0145483 
0.0146973 0.0152713 0.0158261 0.01636 0.0168713 0.0173584 0.0178197 0.0182536 0.0186586 0.0190334 0.0193766 0.0196871 0.0199638 0.0202057 0.0204118 0.0205815 0.0207142 0.0208093 0.0208675 0.0208797 0.0208537 0.0207894 0.0206871 0.0205471 0.0203699 0.0201563 0.0199068 0.0196225 0.0193043 0.0189533 0.0185709 0.0181581 0.0177165 0.0172476 0.016753 0.0162341 0.0156928 0.0151307 0.0145495 0.0139511 0.0133371 0.0127094 0.0120698 0.0114199 0.0107616 0.0100966 0.00942643 0.00875289 0.00807742 0.00740164 0.00672695 0.00605477 0.00538648 0.00472321 0.00406631 0.00341682 0.00277577 0.00214409 0.00153279 0.000933151 0.000345537 -0.00018996 -0.000177732 -0.000164907 -0.000151513 -0.000137577 -0.000123121 -0.000108185 -9.2795e-05 -7.69878e-05 -6.08061e-05 -4.4289e-05 -2.74786e-05 -1.04165e-05 6.85114e-06 2.42705e-05 4.17941e-05 5.93784e-05 7.69632e-05 9.45061e-05 0.000111945 0.000129242 0.000146339 0.000163184 0.000179728 0.00019592 0.000211716 0.000227071 0.000241939 0.000256281 0.000270051 0.000283213 0.000295735 0.000307588 0.000318733 0.000329155 0.000338825 0.000347724 0.000355834 0.000363145 0.000369648 0.000367633 0.000365955 0.000363614 0.000360618 0.000356979 0.000352711 0.000347829 0.00034235 0.000336289 0.000329677 0.000322528 0.000314873 0.000306732 0.000298135 0.000289113 0.000279688 0.000269895 0.000259766 0.00024933 0.000238613 0.000227653 0.000216477 0.000205116 0.000193602 0.000181965 0.000170231 0.00015843 0.000146591 0.00013474 0.0001229 0.000111099 9.93576e-05 8.76998e-05 7.61481e-05 6.47159e-05 5.34261e-05 4.22955e-05 3.13403e-05 2.05703e-05 1.00014e-05 -1.23864e-09 -1.61564e-09 -1.99825e-09 -2.3856e-09 -2.77739e-09 -3.17282e-09 -3.57111e-09 -3.97155e-09 -4.37339e-09 -4.77576e-09 -5.1779e-09 -5.5787e-09 -5.97729e-09 -6.37268e-09 -6.76402e-09 -7.15017e-09 -7.5301e-09 -7.90278e-09 -8.26711e-09 -8.62216e-09 -8.96666e-09 -9.29966e-09 -9.62014e-09 -9.92719e-09 -1.02196e-08 -1.04966e-08 -1.07572e-08 -1.10003e-08 -1.12254e-08 -1.14315e-08 -1.16181e-08 -1.17843e-08 -1.19294e-08 -1.20533e-08 -1.21552e-08 -1.22349e-08 -1.2292e-08 -1.17113e-08 -1.01649e-08 -8.56537e-09 -6.91434e-09 -5.21456e-09 -3.46803e-09 -1.6775e-09 1.53569e-10 2.02129e-09 3.92373e-09 5.85499e-09 7.81261e-09 9.79104e-09 1.17864e-08 1.37936e-08 1.58082e-08 1.7824e-08 1.9836e-08 2.18395e-08 2.38282e-08 2.57971e-08 2.77396e-08 2.96508e-08 3.15253e-08 3.33565e-08 3.51399e-08 3.68686e-08 3.85385e-08 4.01445e-08 4.16805e-08 4.31423e-08 4.45254e-08 4.58259e-08 4.70394e-08 4.81617e-08 4.91898e-08 5.01215e-08 5.09531e-08 5.1683e-08 5.23088e-08 5.4479e-08 5.40981e-08 5.35939e-08 5.27633e-08 5.16718e-08 5.0468e-08 4.91543e-08 4.77356e-08 4.62126e-08 4.45906e-08 4.28762e-08 4.10701e-08 3.91795e-08 3.72106e-08 3.51675e-08 3.30575e-08 3.08865e-08 2.86607e-08 2.63871e-08 2.4072e-08 2.17237e-08 1.93477e-08 1.69516e-08 1.45429e-08 1.21288e-08 9.71585e-09 7.30947e-09 4.92099e-09 2.55002e-09 2.10264e-10 -2.0981e-09 -4.36468e-09 -6.58677e-09 -8.75664e-09 -1.08729e-08 -1.29279e-08 -1.49176e-08 -1.68375e-08 -1.86873e-08 -2.04615e-08 0.000547082 0.00114568 0.00175564 0.00237631 0.00300686 0.00364634 0.0042939 0.00494845 0.00560885 0.006274 0.00694261 0.00761331 0.0082848 0.00895558 0.00962412 0.0102889 0.0109483 0.0116008 0.0122444 0.0128776 0.0134988 0.0141058 
0.0142057 0.0147607 0.0152971 0.0158133 0.0163077 0.0167787 0.0172246 0.0176442 0.0180357 0.0183981 0.01873 0.0190302 0.0192978 0.0195316 0.0197309 0.019895 0.0200233 0.0201152 0.0201711 0.0201822 0.0201562 0.0200933 0.0199936 0.0198574 0.0196853 0.0194779 0.0192359 0.0189602 0.0186517 0.0183115 0.0179409 0.0175409 0.0171132 0.016659 0.0161799 0.0156774 0.0151532 0.0146089 0.0140462 0.0134669 0.0128725 0.0122649 0.0116458 0.0110168 0.0103797 0.00973607 0.00908756 0.00843579 0.00778222 0.00712837 0.00647562 0.00582535 0.00517887 0.00453729 0.00390193 0.00327377 0.00265384 0.002043 0.00145269 0.000873764 0.000306538 -0.000206004 -0.000193183 -0.000179725 -0.00016566 -0.000151015 -0.000135815 -0.0001201 -0.000103901 -8.72536e-05 -7.0204e-05 -5.27934e-05 -3.50666e-05 -1.70676e-05 1.15516e-06 1.95447e-05 3.80507e-05 5.66272e-05 7.52109e-05 9.37563e-05 0.000112199 0.000130497 0.00014859 0.000166424 0.000183946 0.000201101 0.000217845 0.000234129 0.000249904 0.000265129 0.000279756 0.000293746 0.000307067 0.000319687 0.000331563 0.000342682 0.000353011 0.000362531 0.000371224 0.000379077 0.00038608 0.000384508 0.000382752 0.000380304 0.00037717 0.000373364 0.0003689 0.000363793 0.000358063 0.000351723 0.000344807 0.00033733 0.000329323 0.000320808 0.000311817 0.000302379 0.000292521 0.000282279 0.000271685 0.000260769 0.00024956 0.000238096 0.000226407 0.000214523 0.000202481 0.000190309 0.000178036 0.000165693 0.00015331 0.000140915 0.000128531 0.000116188 0.000103907 9.17134e-05 7.96309e-05 6.76737e-05 5.58654e-05 4.42234e-05 3.27649e-05 2.15002e-05 1.0446e-05 -1.34514e-09 -1.75456e-09 -2.17007e-09 -2.59072e-09 -3.0162e-09 -3.44562e-09 -3.87817e-09 -4.31304e-09 -4.74942e-09 -5.1864e-09 -5.62311e-09 -6.05838e-09 -6.49124e-09 -6.92063e-09 -7.34561e-09 -7.76497e-09 -8.17756e-09 -8.58229e-09 -8.97794e-09 -9.36352e-09 -9.73765e-09 -1.00993e-08 -1.04473e-08 -1.07808e-08 -1.10983e-08 -1.13991e-08 -1.16821e-08 -1.19462e-08 -1.21906e-08 -1.24145e-08 -1.26171e-08 -1.27975e-08 -1.29552e-08 -1.30897e-08 -1.32004e-08 -1.32869e-08 -1.3349e-08 -1.27182e-08 -1.10389e-08 -9.30185e-09 -7.50886e-09 -5.66293e-09 -3.76623e-09 -1.82174e-09 1.66773e-10 2.19508e-09 4.26111e-09 6.35842e-09 8.48437e-09 1.06329e-08 1.27998e-08 1.49796e-08 1.71674e-08 1.93566e-08 2.15416e-08 2.37174e-08 2.58771e-08 2.80153e-08 3.01247e-08 3.22003e-08 3.4236e-08 3.62246e-08 3.81613e-08 4.00386e-08 4.18522e-08 4.35962e-08 4.52644e-08 4.68518e-08 4.83538e-08 4.97662e-08 5.1084e-08 5.23028e-08 5.34193e-08 5.44311e-08 5.53342e-08 5.61268e-08 5.68065e-08 5.91633e-08 5.87497e-08 5.82021e-08 5.73e-08 5.61147e-08 5.48074e-08 5.33807e-08 5.18401e-08 5.01861e-08 4.84247e-08 4.65628e-08 4.46015e-08 4.25483e-08 4.041e-08 3.81913e-08 3.58999e-08 3.35422e-08 3.1125e-08 2.86559e-08 2.61418e-08 2.35916e-08 2.10113e-08 1.84092e-08 1.57933e-08 1.31716e-08 1.05513e-08 7.93796e-09 5.34412e-09 2.76928e-09 2.28343e-10 -2.2785e-09 -4.73997e-09 -7.15312e-09 -9.50956e-09 -1.18078e-08 -1.40395e-08 -1.62002e-08 -1.82853e-08 -2.02941e-08 -2.22208e-08 0.000524676 0.0011034 0.00169312 0.00229318 0.00290282 0.00352108 0.00414715 0.00477999 0.00541849 0.00606158 0.00670802 0.00735648 0.00800571 0.00865426 0.00930063 0.0099434 0.0105809 0.0112118 0.0118341 0.0124463 0.0130469 0.0136338 
0.0136836 0.0142184 0.0147354 0.0152328 0.0157092 0.016163 0.0165927 0.016997 0.0173743 0.0177235 0.0180433 0.0183326 0.0185904 0.0188158 0.0190078 0.019166 0.0192895 0.0193782 0.0194315 0.0194414 0.0194155 0.019354 0.0192571 0.019125 0.0189583 0.0187576 0.0185235 0.0182569 0.0179587 0.01763 0.0172719 0.0168856 0.0164725 0.016034 0.0155714 0.0150863 0.0145803 0.014055 0.0135119 0.0129528 0.0123792 0.011793 0.0111956 0.0105888 0.0099742 0.00935336 0.00872783 0.0080992 0.00746888 0.00683833 0.00620888 0.00558187 0.00495857 0.00434003 0.00372754 0.00312204 0.00252452 0.00193581 0.0013678 0.000810869 0.000265288 -0.000222905 -0.000209461 -0.000195337 -0.000180566 -0.000165175 -0.000149193 -0.00013266 -0.000115609 -9.80781e-05 -8.01157e-05 -6.17654e-05 -4.30746e-05 -2.409e-05 -4.86258e-06 1.45475e-05 3.40871e-05 5.37073e-05 7.3342e-05 9.2942e-05 0.000112441 0.000131792 0.000150933 0.000169807 0.000188357 0.000206527 0.000224268 0.000241529 0.000258259 0.000274414 0.000289943 0.000304805 0.000318966 0.000332392 0.000345039 0.000356891 0.000367914 0.000378089 0.000387394 0.000395817 0.000403348 0.000402244 0.000400407 0.000397845 0.000394567 0.000390586 0.000385915 0.000380573 0.000374578 0.000367946 0.00036071 0.000352888 0.000344511 0.000335603 0.000326197 0.000316324 0.00030601 0.000295295 0.000284212 0.000272791 0.000261065 0.000249072 0.000236843 0.000224411 0.000211813 0.000199079 0.000186239 0.000173326 0.000160372 0.000147404 0.000134449 0.000121536 0.000108688 9.59319e-05 8.32915e-05 7.07824e-05 5.84291e-05 4.62497e-05 3.42622e-05 2.24776e-05 1.09132e-05 -1.45734e-09 -1.90091e-09 -2.35107e-09 -2.80681e-09 -3.26778e-09 -3.73302e-09 -4.20164e-09 -4.67279e-09 -5.14557e-09 -5.619e-09 -6.09214e-09 -6.5637e-09 -7.03267e-09 -7.49787e-09 -7.95831e-09 -8.41264e-09 -8.85965e-09 -9.29814e-09 -9.72679e-09 -1.01445e-08 -1.05499e-08 -1.09417e-08 -1.13187e-08 -1.168e-08 -1.2024e-08 -1.23499e-08 -1.26565e-08 -1.29426e-08 -1.32074e-08 -1.34499e-08 -1.36695e-08 -1.38649e-08 -1.40358e-08 -1.41815e-08 -1.43014e-08 -1.43951e-08 -1.44624e-08 -1.37791e-08 -1.19596e-08 -1.00777e-08 -8.13517e-09 -6.13527e-09 -4.08037e-09 -1.97369e-09 1.80684e-10 2.37817e-09 4.61653e-09 6.88878e-09 9.19205e-09 1.15198e-08 1.38675e-08 1.6229e-08 1.85993e-08 2.09711e-08 2.33383e-08 2.56956e-08 2.80355e-08 3.0352e-08 3.26374e-08 3.48861e-08 3.70916e-08 3.92461e-08 4.13443e-08 4.33782e-08 4.5343e-08 4.72326e-08 4.90398e-08 5.07597e-08 5.2387e-08 5.39172e-08 5.53449e-08 5.66653e-08 5.7875e-08 5.89712e-08 5.99496e-08 6.08084e-08 6.15447e-08 6.40981e-08 6.365e-08 6.30567e-08 6.20794e-08 6.07952e-08 5.93789e-08 5.78332e-08 5.61641e-08 5.43722e-08 5.24637e-08 5.04466e-08 4.83217e-08 4.60972e-08 4.37806e-08 4.13769e-08 3.88943e-08 3.634e-08 3.37211e-08 3.10461e-08 2.83222e-08 2.55594e-08 2.27638e-08 1.99447e-08 1.71106e-08 1.42703e-08 1.14313e-08 8.60007e-09 5.78987e-09 3.00026e-09 2.47389e-10 -2.46855e-09 -5.13533e-09 -7.74976e-09 -1.03028e-08 -1.27926e-08 -1.52105e-08 -1.75515e-08 -1.98104e-08 -2.19869e-08 -2.40742e-08 0.000500905 0.00105852 0.00162674 0.00220493 0.00279234 0.00338807 0.00399133 0.00460111 0.00521635 0.00583601 0.00645891 0.00708376 0.00770934 0.00833427 0.00895712 0.00957648 0.0101908 0.0107987 0.0113983 0.0119883 0.012567 0.0131326 
0.01313 0.0136434 0.0141396 0.0146171 0.0150745 0.0155101 0.0159226 0.0163107 0.0166729 0.0170081 0.0173151 0.0175928 0.0178403 0.0180566 0.018241 0.0183928 0.0185114 0.0185965 0.0186467 0.0186557 0.0186303 0.0185707 0.0184771 0.0183496 0.018189 0.0179957 0.0177704 0.0175138 0.017227 0.0169108 0.0165664 0.016195 0.0157978 0.0153762 0.0149315 0.0144652 0.0139789 0.0134741 0.0129522 0.0124149 0.0118638 0.0113005 0.0107265 0.0101435 0.00955305 0.00895664 0.00835574 0.00775191 0.00714647 0.00654086 0.00593632 0.00533416 0.00473559 0.00414164 0.00355352 0.00297215 0.00239848 0.0018333 0.00128841 0.000754266 0.000231061 -0.000232061 -0.0002186 -0.000204445 -0.000189629 -0.000174178 -0.000158122 -0.000141501 -0.000124349 -0.000106705 -8.86166e-05 -7.01278e-05 -5.1287e-05 -3.21417e-05 -1.2743e-05 6.84813e-06 2.65783e-05 4.63976e-05 6.62402e-05 8.60545e-05 0.000105776 0.000125355 0.00014473 0.000163842 0.000182636 0.000201052 0.000219044 0.000236558 0.000253543 0.000269955 0.000285742 0.000300863 0.000315282 0.000328966 0.000341871 0.000353979 0.000365256 0.000375684 0.00038524 0.000393911 0.000401688 0.000401525 0.000399691 0.000397134 0.000393862 0.000389887 0.000385224 0.000379891 0.000373906 0.000367285 0.000360062 0.000352253 0.00034389 0.000334997 0.000325607 0.00031575 0.000305455 0.000294758 0.000283693 0.000272292 0.000260586 0.000248613 0.000236405 0.000223994 0.000211416 0.000198704 0.000185886 0.000172996 0.000160063 0.000147117 0.000134184 0.000121293 0.000108467 9.57331e-05 8.31141e-05 7.06264e-05 5.82944e-05 4.61358e-05 3.41688e-05 2.24045e-05 1.08602e-05 -1.57224e-09 -2.05079e-09 -2.53644e-09 -3.02812e-09 -3.52543e-09 -4.02736e-09 -4.53293e-09 -5.04122e-09 -5.55128e-09 -6.06203e-09 -6.57248e-09 -7.08123e-09 -7.58717e-09 -8.08905e-09 -8.58579e-09 -9.07595e-09 -9.5582e-09 -1.00313e-08 -1.04937e-08 -1.09444e-08 -1.13817e-08 -1.18044e-08 -1.22112e-08 -1.26009e-08 -1.29721e-08 -1.33237e-08 -1.36544e-08 -1.39631e-08 -1.42487e-08 -1.45104e-08 -1.47472e-08 -1.49581e-08 -1.51424e-08 -1.52997e-08 -1.5429e-08 -1.55301e-08 -1.56027e-08 -1.48655e-08 -1.29026e-08 -1.08723e-08 -8.7766e-09 -6.61902e-09 -4.40209e-09 -2.12931e-09 1.9493e-10 2.56568e-09 4.98052e-09 7.43193e-09 9.9168e-09 1.24281e-08 1.49609e-08 1.75086e-08 2.00658e-08 2.26246e-08 2.51785e-08 2.77216e-08 3.0246e-08 3.27452e-08 3.52107e-08 3.76367e-08 4.00161e-08 4.23405e-08 4.46042e-08 4.67985e-08 4.89182e-08 5.09567e-08 5.29064e-08 5.4762e-08 5.65175e-08 5.81684e-08 5.97086e-08 6.11332e-08 6.24382e-08 6.36209e-08 6.46764e-08 6.56029e-08 6.63973e-08 6.9152e-08 6.86685e-08 6.80285e-08 6.69742e-08 6.55887e-08 6.40607e-08 6.23931e-08 6.05924e-08 5.86592e-08 5.66003e-08 5.44241e-08 5.21316e-08 4.97318e-08 4.72326e-08 4.46393e-08 4.1961e-08 3.92052e-08 3.63799e-08 3.3494e-08 3.05553e-08 2.75746e-08 2.45587e-08 2.15173e-08 1.84597e-08 1.53954e-08 1.23326e-08 9.27815e-09 6.24638e-09 3.23682e-09 2.66895e-10 -2.66318e-09 -5.54023e-09 -8.3608e-09 -1.11151e-08 -1.38013e-08 -1.64098e-08 -1.89353e-08 -2.13724e-08 -2.37204e-08 -2.59724e-08 0.000475833 0.00101106 0.00155648 0.00211146 0.0026753 0.00324714 0.00382619 0.00441152 0.00500208 0.0055969 0.00619483 0.00679462 0.00739513 0.00799501 0.00859289 0.00918744 0.00977714 0.0103607 0.0109363 0.0115026 0.0120581 0.0126011 
0.0125349 0.0130252 0.0134991 0.0139552 0.0143919 0.014808 0.015202 0.0155727 0.0159186 0.0162388 0.0165319 0.0167972 0.0170336 0.0172402 0.0174163 0.0175612 0.0176745 0.0177558 0.0177999 0.0178101 0.0177876 0.0177325 0.0176449 0.0175251 0.0173735 0.0171908 0.0169775 0.0167344 0.0164624 0.0161624 0.0158355 0.0154827 0.0151053 0.0147046 0.0142818 0.0138384 0.0133759 0.0128955 0.0123989 0.0118876 0.011363 0.0108267 0.0102802 0.00972498 0.00916255 0.00859438 0.00802186 0.00744646 0.00686945 0.00629217 0.00571583 0.00514167 0.00457084 0.00400432 0.00344328 0.00288856 0.00234109 0.00180163 0.00127797 0.000764448 0.0002612 -0.000180131 -0.000171221 -0.000161814 -0.00015193 -0.000141587 -0.000130809 -0.000119619 -0.000108044 -9.61092e-05 -8.38441e-05 -7.12816e-05 -5.84554e-05 -4.53998e-05 -3.2147e-05 -1.87402e-05 -5.21498e-06 8.39216e-06 2.20411e-05 3.56874e-05 4.9299e-05 6.28276e-05 7.62423e-05 8.94978e-05 0.000102555 0.000115375 0.000127926 0.000140173 0.000152077 0.000163606 0.000174728 0.000185416 0.00019564 0.000205382 0.000214609 0.000223307 0.000231454 0.000239042 0.000246047 0.000252463 0.000258282 0.000262343 0.000261143 0.000259472 0.000257332 0.000254733 0.000251684 0.000248196 0.000244283 0.000239955 0.00023523 0.000230125 0.000224656 0.000218841 0.000212701 0.000206256 0.000199524 0.00019253 0.000185294 0.000177838 0.000170185 0.000162356 0.000154373 0.000146259 0.000138035 0.000129722 0.000121342 0.000112913 0.000104458 9.59933e-05 8.7538e-05 7.91091e-05 7.07244e-05 6.23991e-05 5.41479e-05 4.59842e-05 3.79227e-05 2.99736e-05 2.21497e-05 1.4459e-05 6.91315e-06 -1.67274e-09 -2.18187e-09 -2.69857e-09 -3.22167e-09 -3.75077e-09 -4.28478e-09 -4.82267e-09 -5.36345e-09 -5.90611e-09 -6.44951e-09 -6.99258e-09 -7.53385e-09 -8.07213e-09 -8.60609e-09 -9.13458e-09 -9.65607e-09 -1.01691e-08 -1.06724e-08 -1.11645e-08 -1.16439e-08 -1.21092e-08 -1.25589e-08 -1.29917e-08 -1.34063e-08 -1.38012e-08 -1.41753e-08 -1.45272e-08 -1.48556e-08 -1.51595e-08 -1.54379e-08 -1.56899e-08 -1.59142e-08 -1.61103e-08 -1.62776e-08 -1.64152e-08 -1.65228e-08 -1.66e-08 -1.58157e-08 -1.37273e-08 -1.15672e-08 -9.33758e-09 -7.04209e-09 -4.68346e-09 -2.26541e-09 2.0739e-10 2.72968e-09 5.29887e-09 7.90697e-09 1.05507e-08 1.32225e-08 1.59172e-08 1.86278e-08 2.13484e-08 2.40708e-08 2.67878e-08 2.94936e-08 3.21792e-08 3.48382e-08 3.74613e-08 4.00424e-08 4.25739e-08 4.50469e-08 4.74552e-08 4.97897e-08 5.20449e-08 5.42138e-08 5.62881e-08 5.82623e-08 6.01301e-08 6.18864e-08 6.35251e-08 6.50407e-08 6.64291e-08 6.76874e-08 6.88104e-08 6.97961e-08 7.06413e-08 7.35721e-08 7.30577e-08 7.23768e-08 7.1255e-08 6.9781e-08 6.81554e-08 6.63812e-08 6.44654e-08 6.24086e-08 6.02181e-08 5.79029e-08 5.54638e-08 5.29106e-08 5.02516e-08 4.74925e-08 4.46431e-08 4.17112e-08 3.87053e-08 3.56349e-08 3.25084e-08 2.93372e-08 2.61284e-08 2.28926e-08 1.96397e-08 1.63795e-08 1.31209e-08 9.8712e-09 6.64564e-09 3.44371e-09 2.83954e-10 -2.83341e-09 -5.89436e-09 -8.89521e-09 -1.18255e-08 -1.46835e-08 -1.74587e-08 -2.01457e-08 -2.27385e-08 -2.52366e-08 -2.76325e-08 0.000449691 0.000960829 0.00148169 0.0020117 0.00255017 0.00309628 0.00364928 0.00420828 0.00477228 0.00534034 0.00591139 0.00648421 0.00705772 0.00763064 0.00820164 0.00876947 0.00933267 0.00988999 0.0104397 0.0109806 0.0115111 0.0120297 
0.0119114 0.0123775 0.0128281 0.0132617 0.013677 0.0140725 0.0144471 0.0147995 0.0151284 0.0154328 0.0157115 0.0159637 0.0161884 0.0163848 0.0165523 0.0166901 0.0167978 0.016875 0.0169129 0.0169244 0.0169048 0.0168542 0.0167728 0.0166608 0.0165186 0.0163468 0.016146 0.0159169 0.0156603 0.0153771 0.0150683 0.0147349 0.0143781 0.0139992 0.0135993 0.0131796 0.0127418 0.0122871 0.0118168 0.0113325 0.0108356 0.0103275 0.00980957 0.00928338 0.00875022 0.00821155 0.00766866 0.00712295 0.00657562 0.00602796 0.00548108 0.00493619 0.00439436 0.00385653 0.0033238 0.00279697 0.00227693 0.00176438 0.00126316 0.000771447 0.000289325 -0.000128934 -0.000124548 -0.00011986 -0.000114879 -0.000109613 -0.00010408 -9.82851e-05 -9.22508e-05 -8.59873e-05 -7.95069e-05 -7.28305e-05 -6.59779e-05 -5.89697e-05 -5.18199e-05 -4.45538e-05 -3.71893e-05 -2.97496e-05 -2.22495e-05 -1.4726e-05 -7.17892e-06 3.44636e-07 7.84384e-06 1.5287e-05 2.26524e-05 2.99201e-05 3.70728e-05 4.4093e-05 5.09571e-05 5.76435e-05 6.41401e-05 7.04317e-05 7.64975e-05 8.23315e-05 8.79145e-05 9.32343e-05 9.82809e-05 0.000103056 0.000107538 0.000111724 0.000115608 0.000123912 0.000123343 0.000122552 0.000121539 0.000120308 0.000118863 0.000117212 0.000115359 0.000113312 0.000111072 0.000108655 0.000106064 0.000103311 0.000100404 9.73515e-05 9.41643e-05 9.08533e-05 8.74264e-05 8.38942e-05 8.02719e-05 7.65646e-05 7.27836e-05 6.89426e-05 6.50489e-05 6.11121e-05 5.71446e-05 5.31547e-05 4.91522e-05 4.51442e-05 4.11424e-05 3.71517e-05 3.3184e-05 2.92439e-05 2.53368e-05 2.14738e-05 1.76597e-05 1.38972e-05 1.0194e-05 6.555e-06 2.986e-06 -1.77804e-09 -2.31923e-09 -2.86845e-09 -3.42449e-09 -3.98689e-09 -4.55452e-09 -5.12626e-09 -5.70109e-09 -6.27791e-09 -6.85552e-09 -7.43278e-09 -8.00812e-09 -8.58029e-09 -9.14787e-09 -9.70963e-09 -1.02639e-08 -1.08093e-08 -1.13443e-08 -1.18673e-08 -1.2377e-08 -1.28715e-08 -1.33495e-08 -1.38095e-08 -1.42503e-08 -1.467e-08 -1.50677e-08 -1.54417e-08 -1.57908e-08 -1.61138e-08 -1.64097e-08 -1.66776e-08 -1.69161e-08 -1.71245e-08 -1.73023e-08 -1.74486e-08 -1.7563e-08 -1.7645e-08 -1.68113e-08 -1.45915e-08 -1.22954e-08 -9.92541e-09 -7.48541e-09 -4.9783e-09 -2.40803e-09 2.20445e-10 2.90152e-09 5.63245e-09 8.40473e-09 1.12149e-08 1.40549e-08 1.69192e-08 1.98004e-08 2.26923e-08 2.55861e-08 2.84742e-08 3.13503e-08 3.4205e-08 3.70313e-08 3.98196e-08 4.25632e-08 4.5254e-08 4.78827e-08 5.04426e-08 5.29241e-08 5.53213e-08 5.76266e-08 5.98316e-08 6.193e-08 6.39154e-08 6.57823e-08 6.75242e-08 6.91352e-08 7.0611e-08 7.19485e-08 7.31422e-08 7.41899e-08 7.50883e-08 7.82036e-08 7.76569e-08 7.69331e-08 7.57407e-08 7.41739e-08 7.24459e-08 7.056e-08 6.85236e-08 6.63374e-08 6.4009e-08 6.1548e-08 5.89554e-08 5.62415e-08 5.34151e-08 5.04823e-08 4.74535e-08 4.4337e-08 4.11419e-08 3.78782e-08 3.45549e-08 3.1184e-08 2.77733e-08 2.43338e-08 2.0876e-08 1.74106e-08 1.39469e-08 1.04926e-08 7.064e-09 3.6605e-09 3.0183e-10 -3.01178e-09 -6.26542e-09 -9.45518e-09 -1.257e-08 -1.56078e-08 -1.85578e-08 -2.14139e-08 -2.41699e-08 -2.68253e-08 -2.93721e-08 0.000422293 0.00090819 0.00140334 0.00190718 0.00241907 0.00293823 0.00346393 0.00399536 0.00453153 0.00507157 0.00561446 0.00615903 0.00670425 0.00724892 0.00779177 0.0083316 0.00886704 0.00939688 0.00991951 0.0104337 0.0109381 0.0114311 
0.0112605 0.0117014 0.0121276 0.0125377 0.0129305 0.0133047 0.013659 0.0139923 0.0143034 0.0145913 0.014855 0.0150935 0.0153061 0.0154919 0.0156502 0.0157806 0.0158825 0.0159556 0.015987 0.0159997 0.015983 0.015937 0.015862 0.015758 0.0156255 0.0154651 0.0152772 0.0150625 0.0148218 0.014556 0.014266 0.0139527 0.0136174 0.013261 0.0128848 0.0124899 0.0120778 0.0116496 0.0112068 0.0107506 0.0102824 0.00980357 0.00931545 0.00881942 0.00831673 0.00780875 0.0072967 0.0067819 0.00626549 0.00574866 0.00523248 0.00471808 0.00420647 0.00369855 0.00319533 0.00269758 0.00220615 0.00172168 0.00124407 0.000775327 0.000315467 -7.84805e-05 -7.85901e-05 -7.85895e-05 -7.84779e-05 -7.82537e-05 -7.7928e-05 -7.74907e-05 -7.69571e-05 -7.63237e-05 -7.55855e-05 -7.47515e-05 -7.38274e-05 -7.28208e-05 -7.17272e-05 -7.05545e-05 -6.93028e-05 -6.79822e-05 -6.65821e-05 -6.51327e-05 -6.36013e-05 -6.20341e-05 -6.04019e-05 -5.87233e-05 -5.70024e-05 -5.52407e-05 -5.34401e-05 -5.16012e-05 -4.97334e-05 -4.78469e-05 -4.59349e-05 -4.39994e-05 -4.20541e-05 -4.0091e-05 -3.8117e-05 -3.61421e-05 -3.41648e-05 -3.21726e-05 -3.01873e-05 -2.8206e-05 -2.62323e-05 -1.36716e-05 -1.36132e-05 -1.35291e-05 -1.34221e-05 -1.32932e-05 -1.3143e-05 -1.29693e-05 -1.27753e-05 -1.2556e-05 -1.23265e-05 -1.20707e-05 -1.18005e-05 -1.15119e-05 -1.12055e-05 -1.08857e-05 -1.05501e-05 -1.02009e-05 -9.84239e-06 -9.47479e-06 -9.09104e-06 -8.70195e-06 -8.30656e-06 -7.90045e-06 -7.49068e-06 -7.07869e-06 -6.66006e-06 -6.23869e-06 -5.81554e-06 -5.39429e-06 -4.96991e-06 -4.5495e-06 -4.12739e-06 -3.70917e-06 -3.29881e-06 -2.88761e-06 -2.48038e-06 -2.08179e-06 -1.68962e-06 -1.30184e-06 -9.18379e-07 -1.88772e-09 -2.46229e-09 -3.0454e-09 -3.63573e-09 -4.23283e-09 -4.83547e-09 -5.44248e-09 -6.05277e-09 -6.66518e-09 -7.27841e-09 -7.89128e-09 -8.50211e-09 -9.10958e-09 -9.71217e-09 -1.03086e-08 -1.08971e-08 -1.14761e-08 -1.20441e-08 -1.25993e-08 -1.31404e-08 -1.36655e-08 -1.4173e-08 -1.46614e-08 -1.51293e-08 -1.5575e-08 -1.59971e-08 -1.63943e-08 -1.67649e-08 -1.71078e-08 -1.7422e-08 -1.77064e-08 -1.79596e-08 -1.81808e-08 -1.83696e-08 -1.85249e-08 -1.86464e-08 -1.87335e-08 -1.78483e-08 -1.54916e-08 -1.30539e-08 -1.05377e-08 -7.94716e-09 -5.28539e-09 -2.55657e-09 2.34044e-10 3.0805e-09 5.97989e-09 8.92319e-09 1.19067e-08 1.49219e-08 1.79629e-08 2.10218e-08 2.40921e-08 2.71644e-08 3.02307e-08 3.32841e-08 3.6315e-08 3.93157e-08 4.22759e-08 4.51887e-08 4.80456e-08 5.08364e-08 5.35543e-08 5.61888e-08 5.87339e-08 6.11814e-08 6.35224e-08 6.57502e-08 6.78581e-08 6.98402e-08 7.16895e-08 7.33999e-08 7.49667e-08 7.63867e-08 7.7654e-08 7.87664e-08 7.97203e-08 8.30277e-08 8.24472e-08 8.16788e-08 8.04129e-08 7.87494e-08 7.69148e-08 7.49126e-08 7.27506e-08 7.04295e-08 6.79575e-08 6.53447e-08 6.25921e-08 5.97108e-08 5.67101e-08 5.35964e-08 5.03807e-08 4.7072e-08 4.36798e-08 4.02148e-08 3.66864e-08 3.31076e-08 2.94865e-08 2.58348e-08 2.21638e-08 1.84846e-08 1.48073e-08 1.11399e-08 7.49975e-09 3.88631e-09 3.20449e-10 -3.19757e-09 -6.65191e-09 -1.00384e-08 -1.33454e-08 -1.65706e-08 -1.97025e-08 -2.27348e-08 -2.56609e-08 -2.84801e-08 -3.11839e-08 0.000393685 0.00085323 0.00132153 0.00179805 0.00228219 0.00277322 0.00327043 0.00377307 0.00428019 0.00479097 0.00530445 0.00581953 0.00633523 0.0068504 0.00736386 0.00787446 0.00838091 0.00888208 0.00937641 0.0098628 0.0103399 0.0108062 
0.010583 0.0109976 0.0113985 0.0117842 0.0121536 0.0125054 0.0128387 0.0131521 0.0134447 0.0137155 0.0139634 0.0141878 0.0143877 0.0145624 0.0147114 0.0148339 0.0149298 0.0149985 0.0150234 0.0150372 0.0150235 0.0149822 0.0149137 0.0148179 0.0146954 0.0145466 0.014372 0.0141723 0.0139481 0.0137002 0.0134297 0.0131372 0.012824 0.0124909 0.0121393 0.01177 0.0113845 0.010984 0.0105695 0.0101425 0.00970407 0.00925565 0.00879841 0.00833368 0.00786261 0.00738648 0.00690645 0.00642374 0.00593943 0.00545463 0.00497033 0.00448761 0.00400741 0.00353057 0.00305804 0.00259053 0.00212884 0.00167359 0.00122073 0.000776076 0.000339588 -2.8844e-05 -3.34119e-05 -3.80602e-05 -4.27773e-05 -4.75516e-05 -5.23889e-05 -5.72621e-05 -6.2181e-05 -6.71276e-05 -7.20801e-05 -7.70355e-05 -8.19859e-05 -8.69258e-05 -9.18324e-05 -9.66962e-05 -0.0001015 -0.000106241 -0.000110882 -0.000115449 -0.000119875 -0.000124207 -0.000128384 -0.000132413 -0.000136281 -0.00013997 -0.000143467 -0.000146757 -0.000149834 -0.000152697 -0.000155322 -0.000157696 -0.000159827 -0.000161692 -0.000163286 -0.000164618 -0.000165674 -0.000166431 -0.000166911 -0.000167105 -0.000167016 -0.000150191 -0.000149511 -0.000148558 -0.00014734 -0.000145862 -0.000144129 -0.000142145 -0.000139919 -0.000137451 -0.000134771 -0.000131863 -0.000128754 -0.000125447 -0.000121952 -0.000118287 -0.000114455 -0.000110474 -0.00010636 -0.000102122 -9.77636e-05 -9.33098e-05 -8.87704e-05 -8.41501e-05 -7.94702e-05 -7.4743e-05 -6.99722e-05 -6.51738e-05 -6.03592e-05 -5.5543e-05 -5.07266e-05 -4.59293e-05 -4.11513e-05 -3.64086e-05 -3.17141e-05 -2.70618e-05 -2.24659e-05 -1.79385e-05 -1.34826e-05 -9.09918e-06 -4.79383e-06 -2.00151e-09 -2.61071e-09 -3.22896e-09 -3.85488e-09 -4.48797e-09 -5.12694e-09 -5.77054e-09 -6.41761e-09 -7.06694e-09 -7.71714e-09 -8.36695e-09 -9.0146e-09 -9.65868e-09 -1.02976e-08 -1.093e-08 -1.15539e-08 -1.21679e-08 -1.27701e-08 -1.33588e-08 -1.39325e-08 -1.44892e-08 -1.50273e-08 -1.55452e-08 -1.60413e-08 -1.65138e-08 -1.69614e-08 -1.73825e-08 -1.77754e-08 -1.8139e-08 -1.84722e-08 -1.87736e-08 -1.90421e-08 -1.92767e-08 -1.94769e-08 -1.96416e-08 -1.97703e-08 -1.98627e-08 -1.89242e-08 -1.64254e-08 -1.38408e-08 -1.11729e-08 -8.42619e-09 -5.60398e-09 -2.71067e-09 2.48151e-10 3.26619e-09 6.34035e-09 9.46106e-09 1.26244e-08 1.58213e-08 1.90456e-08 2.2289e-08 2.55444e-08 2.88018e-08 3.20529e-08 3.52904e-08 3.8504e-08 4.16855e-08 4.48242e-08 4.79126e-08 5.09416e-08 5.39007e-08 5.67824e-08 5.95757e-08 6.22742e-08 6.48693e-08 6.73514e-08 6.97135e-08 7.19484e-08 7.40499e-08 7.60108e-08 7.78242e-08 7.94855e-08 8.09911e-08 8.23348e-08 8.35143e-08 8.45256e-08 8.80324e-08 8.74169e-08 8.66022e-08 8.526e-08 8.34962e-08 8.1551e-08 7.94282e-08 7.71358e-08 7.46748e-08 7.20538e-08 6.92835e-08 6.6365e-08 6.331e-08 6.01284e-08 5.6827e-08 5.34175e-08 4.99093e-08 4.63127e-08 4.26388e-08 3.88978e-08 3.51033e-08 3.12639e-08 2.73921e-08 2.34998e-08 1.95988e-08 1.56998e-08 1.18113e-08 7.95181e-09 4.12056e-09 3.39764e-10 -3.39031e-09 -7.05287e-09 -1.06435e-08 -1.41498e-08 -1.75694e-08 -2.08901e-08 -2.41052e-08 -2.72077e-08 -3.01968e-08 -3.30636e-08 0.000363905 0.000796022 0.00123637 0.00168446 0.00213973 0.00260146 0.00306902 0.00354169 0.00401857 0.0044989 0.00498178 0.00546615 0.00595112 0.0064356 0.00691846 0.00739864 0.00787492 0.00834622 0.00881111 0.00926853 0.00971721 0.0101558 
0.00987985 0.0102672 0.0106417 0.0110021 0.0113472 0.011676 0.0119873 0.0122801 0.0125535 0.0128065 0.0130382 0.0132478 0.0134345 0.0135978 0.0137369 0.0138515 0.013941 0.0140052 0.0140235 0.0140384 0.0140276 0.0139911 0.0139291 0.0138418 0.0137295 0.0135927 0.0134318 0.0132474 0.0130402 0.0128109 0.0125604 0.0122894 0.0119991 0.0116902 0.0113639 0.0110211 0.0106631 0.0102911 0.00990595 0.00950905 0.00910149 0.00868451 0.00825923 0.00782687 0.00738852 0.00694537 0.00649848 0.006049 0.00559794 0.00514631 0.00469504 0.00424514 0.00379748 0.00335285 0.00291213 0.00247597 0.00204514 0.00162018 0.00119319 0.00077372 0.00036168 1.99255e-05 1.09418e-05 1.68968e-06 -7.80872e-06 -1.7532e-05 -2.74805e-05 -3.76105e-05 -4.7926e-05 -5.83953e-05 -6.89793e-05 -7.96637e-05 -9.04268e-05 -0.00010125 -0.000112093 -0.000122929 -0.000133723 -0.000144459 -0.000155076 -0.000165593 -0.000175911 -0.000186076 -0.000195998 -0.00020567 -0.000215063 -0.000224141 -0.000232876 -0.000241234 -0.000249199 -0.000256756 -0.000263863 -0.000270495 -0.000276652 -0.000282298 -0.000287416 -0.000292012 -0.000296062 -0.000299531 -0.000302441 -0.00030478 -0.000306547 -0.000285459 -0.000284162 -0.000282349 -0.00028003 -0.000277215 -0.000273914 -0.000270136 -0.000265897 -0.0002612 -0.000256092 -0.000250558 -0.000244636 -0.000238338 -0.000231684 -0.000224703 -0.000217408 -0.000209828 -0.000201992 -0.000193921 -0.000185624 -0.000177143 -0.000168497 -0.000159701 -0.00015079 -0.000141788 -0.000132705 -0.000123569 -0.000114404 -0.000105233 -9.60647e-05 -8.69306e-05 -7.78367e-05 -6.88091e-05 -5.987e-05 -5.10154e-05 -4.22692e-05 -3.36508e-05 -2.51686e-05 -1.68262e-05 -8.63492e-06 -2.119e-09 -2.76396e-09 -3.41851e-09 -4.08117e-09 -4.75142e-09 -5.42789e-09 -6.10928e-09 -6.79433e-09 -7.48177e-09 -8.17013e-09 -8.85809e-09 -9.54376e-09 -1.02256e-08 -1.09021e-08 -1.15715e-08 -1.22322e-08 -1.28821e-08 -1.35197e-08 -1.4143e-08 -1.47504e-08 -1.53397e-08 -1.59094e-08 -1.64577e-08 -1.69829e-08 -1.74832e-08 -1.7957e-08 -1.84028e-08 -1.88188e-08 -1.92038e-08 -1.95565e-08 -1.98757e-08 -2.01599e-08 -2.04083e-08 -2.06202e-08 -2.07945e-08 -2.09308e-08 -2.10286e-08 -2.0035e-08 -1.73895e-08 -1.46532e-08 -1.18287e-08 -8.92081e-09 -5.93293e-09 -2.86979e-09 2.62718e-10 3.45791e-09 6.71253e-09 1.00164e-08 1.33654e-08 1.675e-08 2.01636e-08 2.35974e-08 2.70438e-08 3.04925e-08 3.39344e-08 3.7362e-08 4.07641e-08 4.41325e-08 4.74554e-08 5.07251e-08 5.39319e-08 5.70647e-08 6.01155e-08 6.30728e-08 6.59297e-08 6.86771e-08 7.13049e-08 7.38057e-08 7.61718e-08 7.83967e-08 8.04726e-08 8.23925e-08 8.41514e-08 8.57453e-08 8.71679e-08 8.84166e-08 8.94873e-08 9.32e-08 9.25483e-08 9.16858e-08 9.02647e-08 8.83974e-08 8.63381e-08 8.40906e-08 8.16637e-08 7.90582e-08 7.62833e-08 7.33504e-08 7.02607e-08 6.70263e-08 6.36579e-08 6.01628e-08 5.65531e-08 5.2839e-08 4.90312e-08 4.51417e-08 4.11811e-08 3.71639e-08 3.3099e-08 2.9e-08 2.48792e-08 2.07493e-08 1.66214e-08 1.25047e-08 8.41859e-09 4.36244e-09 3.59709e-10 -3.58932e-09 -7.46688e-09 -1.12683e-08 -1.49804e-08 -1.86008e-08 -2.21164e-08 -2.55202e-08 -2.88048e-08 -3.19693e-08 -3.50044e-08 0.000333003 0.000736654 0.001148 0.00156658 0.00199187 0.00242321 0.00285999 0.00330155 0.00374706 0.00419578 0.0046469 0.00509941 0.00555248 0.00600509 0.00645621 0.00690481 0.00734978 0.0077901 0.00822443 0.00865177 0.00907096 0.00948069 
0.00915223 0.00951141 0.00985865 0.0101928 0.0105128 0.0108176 0.0111063 0.0113778 0.0116313 0.0118658 0.0120807 0.012275 0.0124482 0.0125996 0.0127286 0.0128348 0.0129178 0.0129774 0.012989 0.0130049 0.012997 0.0129653 0.0129101 0.0128314 0.0127295 0.012605 0.0124582 0.0122896 0.0120998 0.0118896 0.0116598 0.0114109 0.0111441 0.0108601 0.0105599 0.0102444 0.00991482 0.00957211 0.00921727 0.00885146 0.00847571 0.00809117 0.00769885 0.00729992 0.00689534 0.00648622 0.00607355 0.00565839 0.00524166 0.0048243 0.00440715 0.00399117 0.00357714 0.0031658 0.00275796 0.00235421 0.00195529 0.00156167 0.00116159 0.000768359 0.000381798 6.78271e-05 5.44728e-05 4.06646e-05 2.6435e-05 1.18152e-05 -3.19003e-06 -1.85203e-05 -3.41739e-05 -5.01055e-05 -6.62591e-05 -8.2609e-05 -9.91199e-05 -0.000115761 -0.000132473 -0.000149213 -0.000165928 -0.000182591 -0.000199117 -0.000215514 -0.000231655 -0.000247585 -0.000263184 -0.000278433 -0.000293286 -0.000307688 -0.000321597 -0.000334963 -0.000347755 -0.000359948 -0.000371481 -0.000382317 -0.000392449 -0.000401828 -0.000410423 -0.00041824 -0.000425242 -0.000431386 -0.000436693 -0.000441144 -0.000444738 -0.000419394 -0.000417486 -0.000414821 -0.000411412 -0.000407273 -0.00040242 -0.000396865 -0.000390633 -0.00038373 -0.000376218 -0.000368082 -0.000359376 -0.000350116 -0.000340334 -0.000330071 -0.000319347 -0.000308204 -0.000296683 -0.000284815 -0.000272618 -0.000260149 -0.000247438 -0.000234508 -0.000221408 -0.000208172 -0.000194819 -0.00018139 -0.000167916 -0.000154433 -0.000140957 -0.000127529 -0.000114161 -0.000100891 -8.77492e-05 -7.47337e-05 -6.18782e-05 -4.92093e-05 -3.67404e-05 -2.44781e-05 -1.24392e-05 -2.23971e-09 -2.92142e-09 -3.61325e-09 -4.31365e-09 -5.02209e-09 -5.7371e-09 -6.4573e-09 -7.18138e-09 -7.90798e-09 -8.63556e-09 -9.3627e-09 -1.00874e-08 -1.08082e-08 -1.15231e-08 -1.22307e-08 -1.2929e-08 -1.3616e-08 -1.42899e-08 -1.49486e-08 -1.55906e-08 -1.62136e-08 -1.68157e-08 -1.73952e-08 -1.79504e-08 -1.84791e-08 -1.898e-08 -1.94512e-08 -1.98909e-08 -2.02978e-08 -2.06705e-08 -2.10079e-08 -2.13084e-08 -2.15709e-08 -2.17949e-08 -2.19791e-08 -2.21232e-08 -2.22265e-08 -2.11764e-08 -1.83801e-08 -1.54879e-08 -1.25025e-08 -9.429e-09 -6.27091e-09 -3.03327e-09 2.77684e-10 3.6549e-09 7.09491e-09 1.0587e-08 1.41268e-08 1.77042e-08 2.13122e-08 2.49416e-08 2.85844e-08 3.22295e-08 3.58675e-08 3.94904e-08 4.30863e-08 4.66465e-08 5.01588e-08 5.36147e-08 5.70042e-08 6.03155e-08 6.35401e-08 6.66659e-08 6.96855e-08 7.25894e-08 7.53669e-08 7.80101e-08 8.0511e-08 8.28627e-08 8.50569e-08 8.70862e-08 8.89452e-08 9.06299e-08 9.21336e-08 9.34534e-08 9.4585e-08 9.85092e-08 9.78205e-08 9.69088e-08 9.54068e-08 9.34331e-08 9.12565e-08 8.8881e-08 8.63158e-08 8.35619e-08 8.06289e-08 7.75289e-08 7.42632e-08 7.08446e-08 6.72843e-08 6.359e-08 5.97748e-08 5.58491e-08 5.18244e-08 4.77133e-08 4.35271e-08 3.9281e-08 3.49846e-08 3.0652e-08 2.62965e-08 2.19313e-08 1.75683e-08 1.3217e-08 8.89816e-09 4.61096e-09 3.802e-10 -3.79379e-09 -7.89224e-09 -1.19102e-08 -1.58338e-08 -1.96604e-08 -2.33763e-08 -2.6974e-08 -3.04457e-08 -3.37905e-08 -3.69985e-08 0.000301037 0.000675231 0.00105656 0.00144461 0.00183888 0.00223877 0.00264369 0.00305307 0.0034661 0.00388212 0.00430037 0.0047199 0.00513997 0.00555961 0.00597787 0.0063938 0.00680637 0.00721462 0.00761733 0.00801355 0.00840222 0.00878213 
0.00840132 0.0087314 0.00905051 0.00935756 0.00965164 0.00993177 0.0101971 0.0104466 0.0106795 0.0108951 0.0110925 0.0112711 0.0114303 0.0115694 0.011688 0.0117856 0.0118619 0.0119166 0.0119214 0.0119383 0.0119333 0.0119066 0.0118582 0.0117883 0.0116971 0.0115851 0.0114527 0.0113003 0.0111285 0.0109379 0.0107292 0.0105031 0.0102604 0.010002 0.00972862 0.00944123 0.00914081 0.00882832 0.00850463 0.00817081 0.00782779 0.00747663 0.00711825 0.00675372 0.00638392 0.00600985 0.00563243 0.00525261 0.00487125 0.00448919 0.00410719 0.00372616 0.00334679 0.00296977 0.00259584 0.00222552 0.0018595 0.0014982 0.00112606 0.000760066 0.000399972 0.000114838 9.71621e-05 7.88496e-05 5.99431e-05 4.04834e-05 2.04806e-05 1.13766e-08 -2.09171e-05 -4.22459e-05 -6.39023e-05 -8.58493e-05 -0.000108038 -0.000130426 -0.000152936 -0.000175507 -0.000198071 -0.000220587 -0.000242946 -0.00026515 -0.000287041 -0.000308663 -0.000329867 -0.000350622 -0.000370864 -0.000390521 -0.000409537 -0.000427845 -0.0004454 -0.000462168 -0.000478068 -0.000493052 -0.000507104 -0.000520163 -0.000532187 -0.000543179 -0.000553092 -0.000561869 -0.000569536 -0.000576067 -0.000581458 -0.00055187 -0.000549359 -0.000545851 -0.000541363 -0.000535915 -0.000529526 -0.000522215 -0.000514011 -0.000504926 -0.000495036 -0.000484327 -0.000472867 -0.000460677 -0.000447801 -0.000434291 -0.000420175 -0.000405508 -0.000390342 -0.00037472 -0.000358666 -0.000342253 -0.000325521 -0.000308501 -0.000291257 -0.000273834 -0.000256258 -0.000238581 -0.000220846 -0.000203099 -0.00018536 -0.000167685 -0.000150091 -0.000132625 -0.000115326 -9.81947e-05 -8.12747e-05 -6.45993e-05 -4.81872e-05 -3.20476e-05 -1.62031e-05 -2.36325e-09 -3.08256e-09 -3.81255e-09 -4.55159e-09 -5.2991e-09 -6.05356e-09 -6.81348e-09 -7.5775e-09 -8.34418e-09 -9.11189e-09 -9.87915e-09 -1.06439e-08 -1.14043e-08 -1.21587e-08 -1.29054e-08 -1.36421e-08 -1.4367e-08 -1.50781e-08 -1.57732e-08 -1.64506e-08 -1.71079e-08 -1.77432e-08 -1.83547e-08 -1.89405e-08 -1.94984e-08 -2.00269e-08 -2.05241e-08 -2.09881e-08 -2.14174e-08 -2.18107e-08 -2.21667e-08 -2.24837e-08 -2.27607e-08 -2.29971e-08 -2.31915e-08 -2.33435e-08 -2.34525e-08 -2.23445e-08 -1.9394e-08 -1.63423e-08 -1.31922e-08 -9.9491e-09 -6.61681e-09 -3.20058e-09 2.93001e-10 3.8565e-09 7.48627e-09 1.1171e-08 1.4906e-08 1.86808e-08 2.24878e-08 2.63174e-08 3.01611e-08 3.40073e-08 3.7846e-08 4.16686e-08 4.5463e-08 4.92195e-08 5.29255e-08 5.65721e-08 6.01486e-08 6.36424e-08 6.70449e-08 7.03432e-08 7.35293e-08 7.65934e-08 7.95241e-08 8.23132e-08 8.4952e-08 8.74334e-08 8.97486e-08 9.18898e-08 9.38514e-08 9.56291e-08 9.72156e-08 9.86082e-08 9.98023e-08 1.03943e-07 1.03216e-07 1.02254e-07 1.00669e-07 9.85869e-08 9.62902e-08 9.37836e-08 9.10769e-08 8.81711e-08 8.50764e-08 8.18054e-08 7.83595e-08 7.47523e-08 7.09957e-08 6.70977e-08 6.30719e-08 5.89297e-08 5.4683e-08 5.03451e-08 4.5928e-08 4.14477e-08 3.69143e-08 3.23428e-08 2.7747e-08 2.3141e-08 1.85373e-08 1.39461e-08 9.38898e-09 4.8653e-09 4.01172e-10 -4.00305e-09 -8.32757e-09 -1.25672e-08 -1.67072e-08 -2.07448e-08 -2.46657e-08 -2.84619e-08 -3.21251e-08 -3.56544e-08 -3.90393e-08 0.000268065 0.000611858 0.000962216 0.00131875 0.001681 0.00204843 0.00242049 0.00279665 0.00317616 0.00355843 0.00394276 0.00432826 0.00471427 0.00509988 0.00548423 0.00586644 0.00624557 0.00662072 0.0069908 0.00735491 0.00771208 0.0080612 
0.00762577 0.00792578 0.00821583 0.00849492 0.00876223 0.00901685 0.00925798 0.00948482 0.00969652 0.00989247 0.0100719 0.0102343 0.010379 0.0105054 0.0106132 0.0107019 0.0107712 0.010821 0.0108197 0.010838 0.0108366 0.0108154 0.0107746 0.0107143 0.0106347 0.0105363 0.0104193 0.0102842 0.0101314 0.00996154 0.00977529 0.00957319 0.00935605 0.00912456 0.0088795 0.00862164 0.00835188 0.00807111 0.00778009 0.00747981 0.00717108 0.00685488 0.00653201 0.00620345 0.00586999 0.00553252 0.00519187 0.00484891 0.00450441 0.00415912 0.00381372 0.00346904 0.0031257 0.00278433 0.00244558 0.00210992 0.001778 0.00145017 0.00110485 0.000764812 0.000429807 0.000172053 0.000147533 0.000122122 9.58789e-05 6.88591e-05 4.10828e-05 1.26486e-05 -1.64233e-05 -4.60577e-05 -7.61582e-05 -0.000106668 -0.000137519 -0.000168647 -0.000199952 -0.000231346 -0.000262738 -0.000294066 -0.000325188 -0.000356089 -0.000386578 -0.00041668 -0.000446218 -0.000475135 -0.000503345 -0.000530745 -0.000557264 -0.000582809 -0.000607313 -0.000630724 -0.000652937 -0.000673884 -0.00069354 -0.000711826 -0.00072868 -0.000744101 -0.000758027 -0.000770392 -0.000781213 -0.000790462 -0.00079813 -0.000764863 -0.00076138 -0.000756518 -0.000750296 -0.000742742 -0.000733883 -0.000723745 -0.000712371 -0.000699777 -0.000686061 -0.000671214 -0.000655322 -0.000638421 -0.00062057 -0.000601837 -0.000582266 -0.000561931 -0.000540902 -0.000519239 -0.000496982 -0.000474225 -0.000451024 -0.000427428 -0.00040352 -0.000379361 -0.000354993 -0.000330485 -0.000305896 -0.000281289 -0.000256697 -0.00023219 -0.000207799 -0.000183584 -0.000159597 -0.000135848 -0.000112392 -8.92727e-05 -6.65183e-05 -4.41433e-05 -2.21796e-05 -2.4891e-09 -3.24672e-09 -4.01559e-09 -4.79399e-09 -5.5813e-09 -6.37593e-09 -7.17633e-09 -7.98103e-09 -8.78854e-09 -9.59714e-09 -1.04053e-08 -1.12107e-08 -1.20117e-08 -1.28062e-08 -1.35926e-08 -1.43686e-08 -1.51321e-08 -1.5881e-08 -1.66132e-08 -1.73267e-08 -1.8019e-08 -1.86881e-08 -1.93322e-08 -1.99492e-08 -2.05368e-08 -2.10934e-08 -2.16171e-08 -2.21057e-08 -2.2558e-08 -2.29722e-08 -2.33472e-08 -2.36811e-08 -2.39728e-08 -2.42218e-08 -2.44265e-08 -2.45866e-08 -2.47015e-08 -2.35344e-08 -2.04268e-08 -1.72126e-08 -1.38947e-08 -1.04789e-08 -6.96919e-09 -3.37103e-09 3.08604e-10 4.06188e-09 7.88494e-09 1.17659e-08 1.56998e-08 1.96756e-08 2.36854e-08 2.77189e-08 3.17673e-08 3.58183e-08 3.98614e-08 4.38877e-08 4.78841e-08 5.18407e-08 5.5744e-08 5.95848e-08 6.33517e-08 6.70317e-08 7.06153e-08 7.40892e-08 7.74451e-08 8.06724e-08 8.37591e-08 8.66967e-08 8.9476e-08 9.20895e-08 9.4528e-08 9.67833e-08 9.88493e-08 1.00722e-07 1.02393e-07 1.0386e-07 1.05117e-07 1.09478e-07 1.08713e-07 1.077e-07 1.0603e-07 1.03837e-07 1.01418e-07 9.8778e-08 9.59271e-08 9.28666e-08 8.96071e-08 8.61619e-08 8.25325e-08 7.87332e-08 7.47765e-08 7.06709e-08 6.64308e-08 6.20679e-08 5.75951e-08 5.30262e-08 4.83739e-08 4.36549e-08 3.88802e-08 3.40652e-08 2.92246e-08 2.43734e-08 1.95245e-08 1.46888e-08 9.88899e-09 5.12439e-09 4.22536e-10 -4.21623e-09 -8.77105e-09 -1.32364e-08 -1.75969e-08 -2.18496e-08 -2.59793e-08 -2.99776e-08 -3.38358e-08 -3.75531e-08 -4.11183e-08 0.000234098 0.000546489 0.000864852 0.00118883 0.00151802 0.00185192 0.00219002 0.00253187 0.00287677 0.00322417 0.00357346 0.00392382 0.00427463 0.0046251 0.00497442 0.0053218 0.00566639 0.00600736 0.00634372 0.00667466 0.0069993 0.00731663 
0.00682771 0.00709677 0.00735693 0.00760725 0.007847 0.00807536 0.00829163 0.00849509 0.00868496 0.00886071 0.00902169 0.00916728 0.00929707 0.00941045 0.00950715 0.0095867 0.0096489 0.00969351 0.00968677 0.00970706 0.00970967 0.00969463 0.0096621 0.00961212 0.00954494 0.00946087 0.00936019 0.00924331 0.00911059 0.00896261 0.00879992 0.00862301 0.00843261 0.00822931 0.00801381 0.00778679 0.00754904 0.00730136 0.00704441 0.00677906 0.00650604 0.0062262 0.00594026 0.00564909 0.00535338 0.00505392 0.00475144 0.00444671 0.00414044 0.00383325 0.00352575 0.0032187 0.00291263 0.00260811 0.00230572 0.00200585 0.00170911 0.00141579 0.0010963 0.00078111 0.000469989 0.00023833 0.000204714 0.00016989 0.000133939 9.6932e-05 5.89062e-05 1.9986e-05 -1.97879e-05 -6.0322e-05 -0.00010149 -0.000143207 -0.000185381 -0.00022792 -0.000270695 -0.000313581 -0.000356457 -0.000399234 -0.000441732 -0.000483907 -0.000525531 -0.0005666 -0.000606907 -0.000646356 -0.000684831 -0.000722194 -0.000758351 -0.000793178 -0.000826581 -0.000858478 -0.000888738 -0.000917269 -0.000944028 -0.000968918 -0.000991852 -0.00101282 -0.00103174 -0.00104854 -0.00106322 -0.00107576 -0.00108613 -0.0010497 -0.00104492 -0.00103824 -0.0010297 -0.00101933 -0.00100717 -0.00099325 -0.000977635 -0.000960348 -0.000941513 -0.000921132 -0.000899314 -0.00087611 -0.000851604 -0.000825887 -0.000799018 -0.000771103 -0.000742232 -0.000712489 -0.000681936 -0.000650694 -0.00061884 -0.000586448 -0.000553626 -0.000520458 -0.000487005 -0.000453361 -0.000419606 -0.000385824 -0.000352064 -0.00031842 -0.000284938 -0.000251697 -0.000218766 -0.000186165 -0.000153967 -0.000122229 -9.09918e-05 -6.02773e-05 -3.01301e-05 -2.61681e-09 -3.4133e-09 -4.22161e-09 -5.03995e-09 -5.86766e-09 -6.70306e-09 -7.54452e-09 -8.39051e-09 -9.23945e-09 -1.00895e-08 -1.09391e-08 -1.17859e-08 -1.2628e-08 -1.34633e-08 -1.429e-08 -1.51058e-08 -1.59085e-08 -1.66959e-08 -1.74655e-08 -1.82156e-08 -1.89435e-08 -1.9647e-08 -2.0324e-08 -2.09727e-08 -2.15905e-08 -2.21757e-08 -2.27262e-08 -2.32399e-08 -2.37153e-08 -2.41509e-08 -2.4545e-08 -2.48961e-08 -2.52028e-08 -2.54645e-08 -2.56798e-08 -2.58481e-08 -2.59689e-08 -2.47419e-08 -2.14748e-08 -1.80957e-08 -1.46076e-08 -1.10166e-08 -7.32675e-09 -3.54399e-09 3.24438e-10 4.27028e-09 8.28949e-09 1.23696e-08 1.65053e-08 2.06851e-08 2.49006e-08 2.91411e-08 3.33972e-08 3.7656e-08 4.19066e-08 4.61394e-08 5.03408e-08 5.45005e-08 5.86041e-08 6.26419e-08 6.66021e-08 7.04708e-08 7.42384e-08 7.78905e-08 8.14185e-08 8.48114e-08 8.80565e-08 9.11448e-08 9.40668e-08 9.68144e-08 9.9378e-08 1.01749e-07 1.03921e-07 1.05889e-07 1.07646e-07 1.09188e-07 1.1051e-07 1.15095e-07 1.14291e-07 1.13225e-07 1.11471e-07 1.09165e-07 1.06621e-07 1.03846e-07 1.00849e-07 9.76313e-08 9.42045e-08 9.05826e-08 8.6767e-08 8.27728e-08 7.86131e-08 7.42968e-08 6.98391e-08 6.52525e-08 6.05501e-08 5.57468e-08 5.08558e-08 4.58947e-08 4.0875e-08 3.5813e-08 3.07241e-08 2.56239e-08 2.05262e-08 1.54424e-08 1.03964e-08 5.38731e-09 4.44215e-10 -4.43256e-09 -9.22106e-09 -1.39156e-08 -1.84997e-08 -2.29706e-08 -2.73122e-08 -3.15156e-08 -3.55719e-08 -3.94799e-08 -4.3228e-08 0.000199227 0.000479301 0.000764739 0.00105522 0.00135038 0.00164977 0.00195293 0.00225947 0.00256874 0.00288026 0.00319349 0.00350767 0.00382228 0.00413658 0.00444985 0.00476138 0.00507043 0.00537621 0.00567788 0.00597468 0.00626585 0.00655045 
0.00601089 0.00624828 0.00647783 0.0066987 0.00691024 0.00711174 0.00730257 0.00748209 0.00764962 0.00780469 0.00794675 0.0080752 0.00818973 0.00828977 0.0083751 0.0084453 0.00850018 0.00853954 0.00852729 0.00854945 0.0085561 0.00854727 0.00852308 0.00848357 0.00842893 0.00835946 0.00827539 0.00817705 0.00806476 0.00793904 0.00780033 0.00764909 0.00748594 0.00731138 0.00712602 0.00693045 0.00672534 0.00651141 0.00628922 0.00605952 0.00582295 0.00558023 0.00533199 0.00507899 0.00482183 0.00456119 0.0042977 0.00403203 0.0037648 0.00349654 0.00322777 0.00295918 0.00269122 0.00242437 0.00215915 0.00189588 0.00163514 0.00137712 0.00108431 0.000794788 0.000508371 0.000303656 0.00026101 0.000216841 0.000171253 0.000124334 7.61356e-05 2.68089e-05 -2.35851e-05 -7.49347e-05 -0.000127084 -0.000179922 -0.000233328 -0.000287187 -0.000341341 -0.000395625 -0.000449893 -0.000504027 -0.000557807 -0.000611162 -0.000663831 -0.000715776 -0.00076676 -0.000816651 -0.000865305 -0.000912546 -0.000958257 -0.00100229 -0.00104451 -0.00108482 -0.00112305 -0.0011591 -0.00119289 -0.00122433 -0.00125328 -0.00127974 -0.0013036 -0.00132479 -0.0013433 -0.00135908 -0.00137212 -0.00133256 -0.00132649 -0.00131802 -0.00130717 -0.001294 -0.00127856 -0.00126089 -0.00124106 -0.00121911 -0.00119519 -0.00116932 -0.00114162 -0.00111215 -0.00108104 -0.00104838 -0.00101427 -0.000978825 -0.000942167 -0.0009044 -0.000865609 -0.00082594 -0.000785494 -0.000744366 -0.000702693 -0.000660577 -0.000618103 -0.000575385 -0.000532528 -0.000489634 -0.000446771 -0.000404053 -0.000361543 -0.000319338 -0.000277524 -0.000236133 -0.000195254 -0.000154957 -0.000115296 -7.62992e-05 -3.80252e-05 -2.74584e-09 -3.5816e-09 -4.42977e-09 -5.28846e-09 -6.15698e-09 -7.03357e-09 -7.91652e-09 -8.80423e-09 -9.69502e-09 -1.0587e-08 -1.14785e-08 -1.2367e-08 -1.32506e-08 -1.41271e-08 -1.49946e-08 -1.58507e-08 -1.66929e-08 -1.75191e-08 -1.83267e-08 -1.91138e-08 -1.98775e-08 -2.06157e-08 -2.13262e-08 -2.20068e-08 -2.2655e-08 -2.32691e-08 -2.38467e-08 -2.43858e-08 -2.48847e-08 -2.53417e-08 -2.57553e-08 -2.61236e-08 -2.64455e-08 -2.67201e-08 -2.6946e-08 -2.71226e-08 -2.72493e-08 -2.59618e-08 -2.25337e-08 -1.89879e-08 -1.53279e-08 -1.15598e-08 -7.68802e-09 -3.71873e-09 3.40435e-10 4.48083e-09 8.69823e-09 1.29795e-08 1.73192e-08 2.1705e-08 2.61284e-08 3.05779e-08 3.50439e-08 3.95127e-08 4.39729e-08 4.84144e-08 5.2823e-08 5.71877e-08 6.14937e-08 6.57306e-08 6.98861e-08 7.39456e-08 7.78989e-08 8.17311e-08 8.5433e-08 8.89932e-08 9.23984e-08 9.56389e-08 9.8705e-08 1.01588e-07 1.04278e-07 1.06766e-07 1.09045e-07 1.11111e-07 1.12954e-07 1.14572e-07 1.15959e-07 1.2077e-07 1.19926e-07 1.18808e-07 1.16967e-07 1.14547e-07 1.11879e-07 1.08966e-07 1.05821e-07 1.02445e-07 9.88495e-08 9.5049e-08 9.10452e-08 8.68541e-08 8.24892e-08 7.79601e-08 7.32827e-08 6.84699e-08 6.35356e-08 5.84955e-08 5.33633e-08 4.81577e-08 4.28904e-08 3.75788e-08 3.2239e-08 2.68874e-08 2.15383e-08 1.62038e-08 1.0909e-08 5.65294e-09 4.66118e-10 -4.65111e-09 -9.67573e-09 -1.46017e-08 -1.94119e-08 -2.41033e-08 -2.86589e-08 -3.30696e-08 -3.73258e-08 -4.14265e-08 -4.53595e-08 0.000163569 0.000410567 0.000662302 0.000918493 0.00117882 0.0014429 0.00171029 0.00198069 0.00225349 0.00252829 0.00280461 0.00308177 0.00335931 0.00363658 0.00391296 0.0041878 0.00446046 0.00473024 0.00499639 0.00525825 0.00551515 0.00576626 
0.00517687 0.00538193 0.00558021 0.00577102 0.00595375 0.00612781 0.00629266 0.00644774 0.00659246 0.00672642 0.00684915 0.00696011 0.00705906 0.00714547 0.00721919 0.00727983 0.00732724 0.00736125 0.00734346 0.00736744 0.00737812 0.00737551 0.00735973 0.0073308 0.00728887 0.00723419 0.00716696 0.00708745 0.00699591 0.0068928 0.00677848 0.00665333 0.00651789 0.00637257 0.00621788 0.00605431 0.00588243 0.00570286 0.00551606 0.00532266 0.0051232 0.00491829 0.00470845 0.00449435 0.00427646 0.00405537 0.00383162 0.00360575 0.00337834 0.00314976 0.00292048 0.00269111 0.002462 0.00223359 0.0020063 0.00178037 0.00155635 0.00133436 0.00106901 0.000805946 0.000544999 0.00036801 0.000316409 0.000262974 0.000207832 0.000151085 9.28019e-05 3.31595e-05 -2.77615e-05 -8.98313e-05 -0.000152865 -0.000216723 -0.000281262 -0.000346339 -0.000411768 -0.000477347 -0.000542901 -0.000608287 -0.000673246 -0.000737677 -0.000801286 -0.000864005 -0.000925566 -0.0009858 -0.00104454 -0.00110156 -0.00115673 -0.00120987 -0.00126083 -0.00130946 -0.00135559 -0.00139908 -0.00143984 -0.00147775 -0.00151266 -0.00154455 -0.00157331 -0.00159884 -0.00162112 -0.00164011 -0.00165579 -0.00161313 -0.00160578 -0.00159552 -0.00158239 -0.00156645 -0.00154775 -0.00152636 -0.00150235 -0.00147578 -0.00144682 -0.00141549 -0.00138195 -0.00134628 -0.00130861 -0.00126908 -0.00122778 -0.00118486 -0.00114048 -0.00109476 -0.00104779 -0.000999766 -0.000950797 -0.000901004 -0.000850551 -0.000799561 -0.000748138 -0.00069642 -0.000644534 -0.000592602 -0.000540709 -0.000488991 -0.000437527 -0.00038643 -0.000335806 -0.000285695 -0.000236206 -0.000187419 -0.000139402 -9.2191e-05 -4.5856e-05 -2.87566e-09 -3.75093e-09 -4.6392e-09 -5.53848e-09 -6.44807e-09 -7.3661e-09 -8.2908e-09 -9.22047e-09 -1.01534e-08 -1.10876e-08 -1.20212e-08 -1.29517e-08 -1.38771e-08 -1.4795e-08 -1.57036e-08 -1.66001e-08 -1.74821e-08 -1.83473e-08 -1.91932e-08 -2.00175e-08 -2.08173e-08 -2.15904e-08 -2.23344e-08 -2.30473e-08 -2.37261e-08 -2.43692e-08 -2.49742e-08 -2.55387e-08 -2.60612e-08 -2.65398e-08 -2.6973e-08 -2.73587e-08 -2.76957e-08 -2.79834e-08 -2.82199e-08 -2.84049e-08 -2.85376e-08 -2.71892e-08 -2.3599e-08 -1.98856e-08 -1.60525e-08 -1.21063e-08 -8.05149e-09 -3.89454e-09 3.5653e-10 4.69268e-09 9.10946e-09 1.35931e-08 1.8138e-08 2.27312e-08 2.73637e-08 3.20236e-08 3.67007e-08 4.13808e-08 4.60519e-08 5.07034e-08 5.53204e-08 5.98914e-08 6.4401e-08 6.88382e-08 7.31902e-08 7.74416e-08 8.15818e-08 8.55952e-08 8.94721e-08 9.32006e-08 9.67668e-08 1.00161e-07 1.03372e-07 1.06391e-07 1.09208e-07 1.11814e-07 1.142e-07 1.16364e-07 1.18294e-07 1.19989e-07 1.21442e-07 1.2648e-07 1.25596e-07 1.24425e-07 1.22497e-07 1.19963e-07 1.17168e-07 1.14118e-07 1.10824e-07 1.07289e-07 1.03523e-07 9.95427e-08 9.53496e-08 9.09603e-08 8.63892e-08 8.1646e-08 7.67474e-08 7.1707e-08 6.65395e-08 6.12611e-08 5.58862e-08 5.04345e-08 4.49182e-08 3.93554e-08 3.37632e-08 2.81585e-08 2.25566e-08 1.69699e-08 1.14247e-08 5.9202e-09 4.88155e-10 -4.87101e-09 -1.01332e-08 -1.5292e-08 -2.03297e-08 -2.52428e-08 -3.00138e-08 -3.4633e-08 -3.90905e-08 -4.33851e-08 -4.7504e-08 0.0001272 0.000340423 0.000557746 0.000778925 0.00100369 0.0012317 0.00146257 0.00169606 0.00193163 0.00216893 0.00240757 0.00264691 0.00288661 0.00312608 0.00336478 0.00360216 0.00383767 0.00407068 0.00430057 0.00452675 0.00474865 0.00496555 
0.00432733 0.00449945 0.00466591 0.00482607 0.00497947 0.00512558 0.00526396 0.00539415 0.00551562 0.00562808 0.00573112 0.00582427 0.00590734 0.00597987 0.00604177 0.00609267 0.00613247 0.00616102 0.00613767 0.0061634 0.00617809 0.00618173 0.00617442 0.00615617 0.00612709 0.00608738 0.0060372 0.00597676 0.00590625 0.00582607 0.00573648 0.00563782 0.0055305 0.00541485 0.0052913 0.00516023 0.0050221 0.00487743 0.00472657 0.00457006 0.00440831 0.00424183 0.00407101 0.00389645 0.00371849 0.00353761 0.00335426 0.00316888 0.00298195 0.00279374 0.00260463 0.00241517 0.0022256 0.00203629 0.0018476 0.00165969 0.00147306 0.00128776 0.00105059 0.000814693 0.000579923 0.000431371 0.000370898 0.000308287 0.000243681 0.000177202 0.000108933 3.90755e-05 -3.22686e-05 -0.000104952 -0.000178762 -0.00025353 -0.000329089 -0.000405271 -0.000481861 -0.000558619 -0.000635346 -0.000711867 -0.00078789 -0.000863283 -0.000937719 -0.0010111 -0.00108313 -0.00115359 -0.0012223 -0.001289 -0.00135354 -0.00141569 -0.00147529 -0.00153216 -0.0015861 -0.00163694 -0.00168459 -0.0017289 -0.0017697 -0.00180695 -0.00184055 -0.00187036 -0.00189637 -0.00191853 -0.00193681 -0.00189111 -0.00188249 -0.00187046 -0.00185507 -0.00183637 -0.00181445 -0.00178937 -0.00176123 -0.00173008 -0.00169612 -0.00165939 -0.00162007 -0.00157825 -0.00153408 -0.00148773 -0.00143931 -0.001389 -0.00133696 -0.00128335 -0.00122829 -0.00117198 -0.00111457 -0.00105619 -0.000997041 -0.000937259 -0.00087697 -0.000816336 -0.000755504 -0.000694618 -0.000633779 -0.000573143 -0.000512807 -0.000452902 -0.000393548 -0.000334799 -0.000276779 -0.00021958 -0.000163285 -0.000107935 -5.36139e-05 -3.00568e-09 -3.92053e-09 -4.84897e-09 -5.78891e-09 -6.73963e-09 -7.69917e-09 -8.66568e-09 -9.63739e-09 -1.06125e-08 -1.15889e-08 -1.25647e-08 -1.35373e-08 -1.45045e-08 -1.5464e-08 -1.64136e-08 -1.73507e-08 -1.82726e-08 -1.91769e-08 -2.0061e-08 -2.09226e-08 -2.17586e-08 -2.25666e-08 -2.33443e-08 -2.40894e-08 -2.47989e-08 -2.54711e-08 -2.61034e-08 -2.66935e-08 -2.72396e-08 -2.77398e-08 -2.81926e-08 -2.85958e-08 -2.8948e-08 -2.92487e-08 -2.9496e-08 -2.96893e-08 -2.9828e-08 -2.84186e-08 -2.46661e-08 -2.07848e-08 -1.67784e-08 -1.26537e-08 -8.41555e-09 -4.07064e-09 3.72651e-10 4.90486e-09 9.52136e-09 1.42078e-08 1.89581e-08 2.3759e-08 2.8601e-08 3.34716e-08 3.83602e-08 4.32519e-08 4.81342e-08 5.2996e-08 5.78218e-08 6.25995e-08 6.7313e-08 7.19508e-08 7.64996e-08 8.09432e-08 8.52706e-08 8.94655e-08 9.35178e-08 9.74148e-08 1.01142e-07 1.04689e-07 1.08046e-07 1.11202e-07 1.14146e-07 1.16869e-07 1.19364e-07 1.21625e-07 1.23643e-07 1.25414e-07 1.26933e-07 1.32199e-07 1.31275e-07 1.30051e-07 1.28036e-07 1.25387e-07 1.22466e-07 1.19278e-07 1.15836e-07 1.1214e-07 1.08204e-07 1.04044e-07 9.9661e-08 9.50732e-08 9.02954e-08 8.53377e-08 8.02176e-08 7.49493e-08 6.95482e-08 6.40311e-08 5.84132e-08 5.27149e-08 4.69492e-08 4.1135e-08 3.52898e-08 2.94318e-08 2.35766e-08 1.77372e-08 1.19413e-08 6.18789e-09 5.10227e-10 -5.09126e-09 -1.05914e-08 -1.59835e-08 -2.12489e-08 -2.63842e-08 -3.13709e-08 -3.6199e-08 -4.0858e-08 -4.53468e-08 -4.96519e-08 9.02029e-05 0.000269021 0.00045129 0.000636803 0.000825334 0.00101661 0.00121028 0.00140618 0.00160382 0.00180292 0.00200316 0.002204 0.00240514 0.0026061 0.00280642 0.00300564 0.0032033 0.00339886 0.00359181 0.00378164 0.0039679 0.00414996 
