0.0149154 0.0155033 0.0160714 0.0166181 0.0171417 0.0176406 0.018113 0.0185574 0.0189721 0.0193559 0.0197074 0.0200256 0.020309 0.0205567 0.0207679 0.0209417 0.0210775 0.021175 0.0212096 0.0211596 0.0210692 0.0209384 0.0207677 0.0205573 0.0203082 0.0200208 0.0196961 0.0193353 0.0189393 0.0185096 0.0180475 0.0175544 0.0170321 0.0164822 0.0159064 0.0153067 0.0146848 0.0140427 0.0133824 0.012706 0.0120152 0.0113123 0.0105992 0.00987789 0.00915033 0.0084184 0.00768404 0.00694913 0.00621533 0.00548439 0.00475803 0.0040376 0.00332492 0.00262107 0.00192749 0.00124541 0.000575951 -7.98742e-05 -0.00069012 -0.00125399 -0.00180046 -0.00216795 -0.00209162 -0.00200995 -0.00192312 -0.00183127 -0.00173465 -0.00163342 -0.00152791 -0.00141826 -0.00130491 -0.00118809 -0.00106807 -0.00094526 -0.00081999 -0.000692596 -0.000563469 -0.000432989 -0.00030151 -0.000169467 -3.71857e-05 9.49093e-05 0.000226394 0.000356944 0.000486144 0.000613672 0.0007391 0.000862118 0.000982392 0.00109961 0.00121342 0.00132356 0.0014298 0.00153182 0.00162944 0.00172243 0.00181062 0.00189384 0.00197197 0.00204485 0.00211236 0.00213051 0.00212063 0.00210686 0.00208925 0.00206786 0.00204275 0.00201401 0.00198179 0.00194616 0.00190725 0.00186521 0.0018202 0.00177232 0.00172178 0.00166872 0.00161333 0.00155577 0.00149618 0.00143485 0.00137188 0.00130745 0.00124179 0.00117505 0.00110741 0.00103905 0.000970144 0.000900849 0.000831346 0.00076178 0.000692299 0.000623065 0.000554202 0.000485831 0.00041809 0.000351089 0.000284938 0.000219746 0.000155573 9.25336e-05 3.06899e-05 -1.69824e-07 -1.74522e-07 -1.78954e-07 -1.83158e-07 -1.871e-07 -1.90787e-07 -1.94221e-07 -1.97403e-07 -2.00329e-07 -2.02983e-07 -2.05388e-07 -2.07521e-07 -2.09385e-07 -2.1099e-07 -2.12326e-07 -2.13395e-07 -2.14195e-07 -2.14735e-07 -2.15013e-07 -2.15025e-07 -2.14749e-07 -2.14245e-07 -2.13454e-07 -2.124e-07 -2.11087e-07 -2.0951e-07 -2.07653e-07 -2.05563e-07 -2.03219e-07 -2.00578e-07 -1.97701e-07 -1.94557e-07 -1.91185e-07 -1.87556e-07 -1.83666e-07 -1.79548e-07 -1.75181e-07 -1.64654e-07 -1.40472e-07 -1.15687e-07 -1.13557e-07 -9.23e-08 -7.04129e-08 -4.79295e-08 -2.48953e-08 -1.35327e-09 2.2653e-08 4.70807e-08 7.18687e-08 9.69625e-08 1.22305e-07 1.47832e-07 1.7348e-07 1.99173e-07 2.24874e-07 2.50479e-07 2.75928e-07 3.01159e-07 3.2609e-07 3.50649e-07 3.74766e-07 3.9837e-07 4.21376e-07 4.43729e-07 4.65357e-07 4.86183e-07 5.0616e-07 5.25207e-07 5.43278e-07 5.60321e-07 5.76273e-07 5.91097e-07 6.04735e-07 6.17163e-07 6.28344e-07 6.38244e-07 6.46837e-07 6.61714e-07 6.48999e-07 6.3425e-07 6.13887e-07 5.90562e-07 5.65694e-07 5.39343e-07 5.1157e-07 4.82433e-07 4.51991e-07 4.20338e-07 3.87499e-07 3.53631e-07 3.18785e-07 2.83051e-07 2.46525e-07 2.09355e-07 1.71587e-07 1.33371e-07 9.4789e-08 5.59852e-08 1.70407e-08 -2.19013e-08 -6.073e-08 -9.93229e-08 -1.37606e-07 -1.75446e-07 -2.12702e-07 -2.49328e-07 -2.85149e-07 -3.20129e-07 -3.54151e-07 -3.87134e-07 -4.18975e-07 -4.49578e-07 -4.78919e-07 -5.06902e-07 -5.33445e-07 -5.58567e-07 -5.82149e-07 0.000437725 0.00104941 0.00167286 0.00230733 0.00295203 0.00360593 0.00426815 0.00493767 0.00561317 0.00629357 0.00697767 0.00766398 0.00835109 0.00903753 0.00972181 0.0104023 0.0110773 0.0117452 0.0124041 0.0130524 0.0136883 0.0143099 
0.014883 0.0154696 0.0160366 0.0165821 0.0171046 0.0176024 0.0180737 0.0185172 0.018931 0.019314 0.0196648 0.0199822 0.020265 0.0205122 0.0207229 0.0208963 0.0210319 0.0211291 0.0211637 0.0211136 0.0210232 0.0208926 0.0207221 0.0205121 0.0202634 0.0199764 0.0196524 0.0192922 0.018897 0.0184679 0.0180067 0.0175146 0.0169933 0.0164444 0.0158697 0.0152711 0.0146505 0.0140097 0.0133506 0.0126755 0.0119862 0.0112846 0.010573 0.00985305 0.00912696 0.00839651 0.00766364 0.00693022 0.00619792 0.00546848 0.00474361 0.00402467 0.00331347 0.00261108 0.00191895 0.00123832 0.00057027 -8.41596e-05 -0.000693047 -0.0012556 -0.00180077 -0.0021671 -0.0020908 -0.00200916 -0.00192236 -0.00183055 -0.00173396 -0.00163277 -0.0015273 -0.0014177 -0.00130439 -0.00118762 -0.00106764 -0.00094488 -0.000819658 -0.000692314 -0.000563236 -0.000432807 -0.000301379 -0.000169387 -3.71574e-05 9.48865e-05 0.000226321 0.000356819 0.000485968 0.000613447 0.000738827 0.000861797 0.000982024 0.00109919 0.00121296 0.00132306 0.00142926 0.00153124 0.00162882 0.00172178 0.00180993 0.00189312 0.00197122 0.00204406 0.00211155 0.00212969 0.00211982 0.00210605 0.00208845 0.00206707 0.00204196 0.00201324 0.00198103 0.00194541 0.00190652 0.00186449 0.0018195 0.00177165 0.00172112 0.00166808 0.0016127 0.00155517 0.00149561 0.0014343 0.00137136 0.00130695 0.00124131 0.0011746 0.00110698 0.00103865 0.000969773 0.000900505 0.000831028 0.000761487 0.000692034 0.000622827 0.00055399 0.000485644 0.000417929 0.000350955 0.000284829 0.000219663 0.000155513 9.24981e-05 3.06782e-05 -1.69754e-07 -1.7445e-07 -1.7888e-07 -1.83083e-07 -1.87023e-07 -1.90709e-07 -1.94142e-07 -1.97323e-07 -2.00248e-07 -2.02901e-07 -2.05306e-07 -2.07438e-07 -2.09301e-07 -2.10906e-07 -2.12242e-07 -2.1331e-07 -2.14111e-07 -2.1465e-07 -2.14928e-07 -2.1494e-07 -2.14666e-07 -2.14161e-07 -2.13371e-07 -2.12317e-07 -2.11006e-07 -2.0943e-07 -2.07573e-07 -2.05484e-07 -2.03141e-07 -2.00501e-07 -1.97625e-07 -1.94483e-07 -1.91113e-07 -1.87484e-07 -1.83597e-07 -1.79481e-07 -1.75115e-07 -1.64592e-07 -1.40419e-07 -1.15645e-07 -1.13514e-07 -9.22654e-08 -7.03864e-08 -4.79114e-08 -2.48858e-08 -1.35239e-09 2.2645e-08 4.70637e-08 7.18425e-08 9.6927e-08 1.2226e-07 1.47777e-07 1.73416e-07 1.991e-07 2.2479e-07 2.50386e-07 2.75826e-07 3.01048e-07 3.25969e-07 3.50519e-07 3.74628e-07 3.98223e-07 4.2122e-07 4.43565e-07 4.65185e-07 4.86004e-07 5.05972e-07 5.25012e-07 5.43078e-07 5.60114e-07 5.76059e-07 5.90879e-07 6.04511e-07 6.16934e-07 6.28112e-07 6.38008e-07 6.46597e-07 6.6147e-07 6.48761e-07 6.34017e-07 6.13662e-07 5.90345e-07 5.65488e-07 5.39147e-07 5.11385e-07 4.82259e-07 4.51829e-07 4.20188e-07 3.87361e-07 3.53506e-07 3.18674e-07 2.82952e-07 2.4644e-07 2.09285e-07 1.71531e-07 1.33331e-07 9.47622e-08 5.59737e-08 1.70435e-08 -2.18832e-08 -6.06969e-08 -9.92758e-08 -1.37545e-07 -1.7537e-07 -2.12612e-07 -2.49224e-07 -2.85031e-07 -3.19998e-07 -3.54008e-07 -3.86979e-07 -4.18808e-07 -4.49399e-07 -4.78729e-07 -5.06701e-07 -5.33236e-07 -5.58348e-07 -5.8192e-07 0.000436535 0.0010469 0.001669 0.00230211 0.00294542 0.00359791 0.00425871 0.00492678 0.00560082 0.00627975 0.00696238 0.00764722 0.00833285 0.00901781 0.00970061 0.0103796 0.0110532 0.0117196 0.0123771 0.013024 0.0136585 0.0142788 
0.0148274 0.0154118 0.0159766 0.0165202 0.0170407 0.0175367 0.0180063 0.018448 0.0188604 0.0192419 0.0195914 0.0199076 0.0201894 0.0204357 0.0206455 0.0208184 0.0209535 0.0210503 0.0210846 0.0210346 0.0209443 0.020814 0.0206439 0.0204344 0.0201864 0.0199003 0.0195772 0.0192181 0.0188241 0.0183964 0.0179366 0.0174461 0.0169265 0.0163795 0.0158067 0.0152101 0.0145914 0.0139528 0.013296 0.0126232 0.0119361 0.011237 0.0105278 0.00981045 0.00908678 0.00835888 0.00762855 0.0068977 0.00616797 0.0054411 0.00471879 0.00400241 0.00329375 0.00259388 0.00190425 0.00122608 0.000560466 -9.15693e-05 -0.000698121 -0.0012584 -0.00180135 -0.00216568 -0.00208943 -0.00200784 -0.00192109 -0.00182934 -0.00173282 -0.00163169 -0.00152629 -0.00141677 -0.00130352 -0.00118682 -0.00106692 -0.000944244 -0.000819104 -0.000691841 -0.000562848 -0.000432503 -0.00030116 -0.000169254 -3.71099e-05 9.48483e-05 0.000226197 0.000356611 0.000485676 0.000613072 0.00073837 0.00086126 0.000981409 0.0010985 0.00121219 0.00132223 0.00142835 0.00153026 0.00162778 0.00172068 0.00180878 0.00189191 0.00196996 0.00204276 0.0021102 0.00212832 0.00211846 0.0021047 0.00208711 0.00206575 0.00204065 0.00201195 0.00197975 0.00194416 0.00190531 0.00186329 0.00181833 0.00177051 0.00172001 0.00166701 0.00161167 0.00155417 0.00149466 0.00143338 0.00137047 0.00130612 0.00124052 0.00117385 0.00110627 0.00103799 0.000969151 0.000899927 0.000830495 0.000761 0.00069159 0.000622428 0.000553634 0.000485333 0.000417661 0.00035073 0.000284647 0.000219521 0.000155413 9.24389e-05 3.06588e-05 -1.69637e-07 -1.7433e-07 -1.78758e-07 -1.82958e-07 -1.86896e-07 -1.9058e-07 -1.94011e-07 -1.9719e-07 -2.00113e-07 -2.02765e-07 -2.05169e-07 -2.07299e-07 -2.09162e-07 -2.10766e-07 -2.12101e-07 -2.1317e-07 -2.1397e-07 -2.14509e-07 -2.14788e-07 -2.148e-07 -2.14526e-07 -2.14022e-07 -2.13232e-07 -2.1218e-07 -2.1087e-07 -2.09295e-07 -2.0744e-07 -2.05353e-07 -2.03012e-07 -2.00374e-07 -1.975e-07 -1.9436e-07 -1.90993e-07 -1.87367e-07 -1.83482e-07 -1.79368e-07 -1.75007e-07 -1.6449e-07 -1.40332e-07 -1.15573e-07 -1.13443e-07 -9.22077e-08 -7.03423e-08 -4.78811e-08 -2.48696e-08 -1.35074e-09 2.26318e-08 4.70355e-08 7.17991e-08 9.6868e-08 1.22185e-07 1.47687e-07 1.7331e-07 1.98978e-07 2.24653e-07 2.50232e-07 2.75657e-07 3.00862e-07 3.25768e-07 3.50304e-07 3.74398e-07 3.97978e-07 4.20961e-07 4.43292e-07 4.64899e-07 4.85705e-07 5.05661e-07 5.24689e-07 5.42744e-07 5.59769e-07 5.75705e-07 5.90515e-07 6.0414e-07 6.16555e-07 6.27726e-07 6.37615e-07 6.462e-07 6.61064e-07 6.48363e-07 6.3363e-07 6.13289e-07 5.89987e-07 5.65145e-07 5.38821e-07 5.11076e-07 4.81969e-07 4.51558e-07 4.19937e-07 3.87132e-07 3.53299e-07 3.18489e-07 2.8279e-07 2.46301e-07 2.09169e-07 1.71439e-07 1.33262e-07 9.47183e-08 5.59545e-08 1.70489e-08 -2.18535e-08 -6.06431e-08 -9.91971e-08 -1.37442e-07 -1.75244e-07 -2.12462e-07 -2.49051e-07 -2.84836e-07 -3.19781e-07 -3.53769e-07 -3.86719e-07 -4.18529e-07 -4.49101e-07 -4.78413e-07 -5.06368e-07 -5.32885e-07 -5.57982e-07 -5.8154e-07 0.000434487 0.00104258 0.00166238 0.00229314 0.00293405 0.00358412 0.00424247 0.00490806 0.0055796 0.00625602 0.00693611 0.0076184 0.0083015 0.00898391 0.00966419 0.0103407 0.0110118 0.0116756 0.0123308 0.0129753 0.0136074 0.0142254 
0.0147484 0.0153298 0.0158916 0.0164323 0.0169501 0.0174434 0.0179105 0.0183499 0.0187601 0.0191397 0.0194873 0.0198019 0.0200821 0.0203271 0.0205359 0.0207078 0.0208421 0.0209385 0.0209725 0.0209225 0.0208323 0.0207024 0.0205329 0.0203242 0.0200771 0.0197922 0.0194705 0.0191129 0.0187207 0.0182949 0.0178373 0.017349 0.0168317 0.0162873 0.0157171 0.0151233 0.0145077 0.0138721 0.0132184 0.0125488 0.0118651 0.0111694 0.0104636 0.0097498 0.00902975 0.00830543 0.00757874 0.00685152 0.00612545 0.00540223 0.00468356 0.0039708 0.00326575 0.00256946 0.00188337 0.0012087 0.000546532 -0.000102103 -0.000705341 -0.0012624 -0.00180219 -0.00216367 -0.00208749 -0.00200597 -0.00191931 -0.00182763 -0.00173121 -0.00163017 -0.00152487 -0.00141543 -0.0013023 -0.00118571 -0.00106592 -0.000943349 -0.000818323 -0.000691177 -0.0005623 -0.000432076 -0.000300852 -0.000169067 -3.70441e-05 9.47932e-05 0.000226021 0.000356316 0.000485263 0.000612543 0.000737725 0.000860503 0.000980542 0.00109752 0.00121111 0.00132105 0.00142708 0.00152889 0.00162632 0.00171913 0.00180715 0.00189021 0.00196818 0.00204092 0.00210829 0.0021264 0.00211654 0.00210279 0.00208522 0.00206388 0.0020388 0.00201013 0.00197797 0.0019424 0.00190358 0.0018616 0.00181669 0.00176891 0.00171846 0.00166551 0.00161021 0.00155277 0.0014933 0.00143209 0.00136924 0.00130493 0.0012394 0.00117279 0.00110528 0.00103705 0.000968275 0.000899113 0.000829744 0.000760311 0.000690965 0.000621865 0.000553134 0.000484894 0.000417283 0.000350412 0.000284389 0.000219324 0.000155273 9.23555e-05 3.06311e-05 -1.69472e-07 -1.74161e-07 -1.78585e-07 -1.82782e-07 -1.86717e-07 -1.90397e-07 -1.93825e-07 -1.97002e-07 -1.99923e-07 -2.02573e-07 -2.04975e-07 -2.07104e-07 -2.08965e-07 -2.10568e-07 -2.11903e-07 -2.1297e-07 -2.1377e-07 -2.1431e-07 -2.14588e-07 -2.14601e-07 -2.14327e-07 -2.13825e-07 -2.13037e-07 -2.11986e-07 -2.10677e-07 -2.09104e-07 -2.07251e-07 -2.05167e-07 -2.02828e-07 -2.00193e-07 -1.97323e-07 -1.94186e-07 -1.90822e-07 -1.872e-07 -1.83319e-07 -1.79209e-07 -1.74852e-07 -1.64345e-07 -1.40209e-07 -1.15472e-07 -1.13343e-07 -9.21262e-08 -7.02798e-08 -4.78383e-08 -2.4847e-08 -1.34865e-09 2.26129e-08 4.69953e-08 7.17371e-08 9.67842e-08 1.22079e-07 1.47559e-07 1.73159e-07 1.98806e-07 2.24457e-07 2.50014e-07 2.75416e-07 3.00601e-07 3.25485e-07 3.49998e-07 3.74072e-07 3.97631e-07 4.20594e-07 4.42905e-07 4.64493e-07 4.8528e-07 5.0522e-07 5.24231e-07 5.4227e-07 5.59281e-07 5.75202e-07 5.89999e-07 6.03611e-07 6.16015e-07 6.27177e-07 6.37058e-07 6.45635e-07 6.60488e-07 6.47799e-07 6.3308e-07 6.12757e-07 5.89476e-07 5.64657e-07 5.38357e-07 5.10638e-07 4.81557e-07 4.51174e-07 4.19581e-07 3.86805e-07 3.53002e-07 3.18224e-07 2.82556e-07 2.46101e-07 2.09002e-07 1.71307e-07 1.33164e-07 9.46552e-08 5.59256e-08 1.70547e-08 -2.18132e-08 -6.05676e-08 -9.90874e-08 -1.37298e-07 -1.75066e-07 -2.12252e-07 -2.48808e-07 -2.84561e-07 -3.19475e-07 -3.53433e-07 -3.86354e-07 -4.18136e-07 -4.4868e-07 -4.77966e-07 -5.05896e-07 -5.32391e-07 -5.57465e-07 -5.81002e-07 0.00043158 0.00103646 0.00165297 0.00228039 0.00291792 0.00356455 0.00421942 0.00488149 0.00554948 0.00622233 0.00689883 0.00757752 0.008257 0.00893581 0.00961249 0.0102854 0.010953 0.0116134 0.0122649 0.012906 0.0135349 0.0141496 
0.0146463 0.0152236 0.0157815 0.0163185 0.0168328 0.0173227 0.0177866 0.018223 0.0186303 0.0190072 0.0193525 0.0196649 0.0199433 0.0201866 0.020394 0.0205646 0.020698 0.0207938 0.0208275 0.0207773 0.0206874 0.020558 0.0203892 0.0201815 0.0199357 0.0196523 0.0193324 0.0189768 0.0185869 0.0181636 0.0177086 0.0172233 0.0167091 0.016168 0.0156013 0.0150111 0.0143993 0.0137677 0.0131181 0.0124527 0.0117733 0.011082 0.0103807 0.00967137 0.00895593 0.00823627 0.00751426 0.00679175 0.00607041 0.00535191 0.00463796 0.0039299 0.00322951 0.00253785 0.00185634 0.00118619 0.000528495 -0.000115741 -0.000714689 -0.00126757 -0.00180327 -0.00216107 -0.00208498 -0.00200357 -0.001917 -0.00182544 -0.00172912 -0.00162821 -0.00152302 -0.00141372 -0.00130072 -0.00118426 -0.00106461 -0.00094219 -0.000817312 -0.000690316 -0.000561593 -0.000431521 -0.000300454 -0.000168824 -3.69571e-05 9.47237e-05 0.000225797 0.000355938 0.000484732 0.00061186 0.000736895 0.000859527 0.000979423 0.00109627 0.00120973 0.00131952 0.00142542 0.00152712 0.00162443 0.00171713 0.00180505 0.001888 0.00196589 0.00203853 0.00210583 0.00212391 0.00211407 0.00210034 0.00208278 0.00206146 0.00203643 0.00200778 0.00197565 0.00194013 0.00190135 0.00185943 0.00181457 0.00176684 0.00171645 0.00166356 0.00160833 0.00155095 0.00149156 0.00143041 0.00136764 0.00130341 0.00123794 0.00117142 0.00110398 0.00103584 0.000967144 0.000898063 0.000828775 0.000759423 0.000690158 0.000621138 0.000552488 0.000484328 0.000416796 0.000350003 0.000284058 0.000219067 0.000155092 9.22477e-05 3.05955e-05 -1.69258e-07 -1.73943e-07 -1.78361e-07 -1.82554e-07 -1.86484e-07 -1.90161e-07 -1.93585e-07 -1.96759e-07 -1.99677e-07 -2.02324e-07 -2.04724e-07 -2.06851e-07 -2.08711e-07 -2.10312e-07 -2.11646e-07 -2.12713e-07 -2.13513e-07 -2.14052e-07 -2.14332e-07 -2.14345e-07 -2.14072e-07 -2.13571e-07 -2.12784e-07 -2.11736e-07 -2.10429e-07 -2.08859e-07 -2.07008e-07 -2.04927e-07 -2.02593e-07 -1.9996e-07 -1.97094e-07 -1.93962e-07 -1.90602e-07 -1.86985e-07 -1.8311e-07 -1.79005e-07 -1.74654e-07 -1.64159e-07 -1.40052e-07 -1.15342e-07 -1.13215e-07 -9.20213e-08 -7.01994e-08 -4.77832e-08 -2.48176e-08 -1.34575e-09 2.25889e-08 4.69437e-08 7.16578e-08 9.66767e-08 1.21943e-07 1.47395e-07 1.72965e-07 1.98583e-07 2.24206e-07 2.49735e-07 2.75108e-07 3.00264e-07 3.2512e-07 3.49606e-07 3.73653e-07 3.97185e-07 4.20122e-07 4.42408e-07 4.63972e-07 4.84735e-07 5.04653e-07 5.23643e-07 5.41661e-07 5.58652e-07 5.74556e-07 5.89337e-07 6.02933e-07 6.15324e-07 6.26472e-07 6.36342e-07 6.4491e-07 6.59748e-07 6.47076e-07 6.32374e-07 6.12075e-07 5.88822e-07 5.64032e-07 5.37763e-07 5.10075e-07 4.81029e-07 4.50681e-07 4.19126e-07 3.86388e-07 3.52625e-07 3.17886e-07 2.8226e-07 2.45846e-07 2.08791e-07 1.71139e-07 1.3304e-07 9.45755e-08 5.58903e-08 1.70646e-08 -2.17576e-08 -6.04678e-08 -9.89437e-08 -1.3711e-07 -1.74835e-07 -2.11978e-07 -2.48492e-07 -2.84205e-07 -3.19079e-07 -3.52998e-07 -3.85881e-07 -4.17627e-07 -4.48137e-07 -4.77389e-07 -5.05288e-07 -5.31752e-07 -5.56798e-07 -5.80309e-07 0.000427817 0.00102854 0.00164081 0.00226391 0.00289705 0.00353923 0.00418959 0.00484712 0.00551051 0.00617873 0.00685058 0.0075246 0.00819941 0.00887355 0.00954558 0.0102139 0.0108769 0.0115327 0.0121798 0.0128165 0.013441 0.0140515 
0.0145207 0.0150931 0.0156464 0.0161788 0.0166887 0.0171744 0.0176344 0.0180671 0.018471 0.0188448 0.0191871 0.0194968 0.0197728 0.0200141 0.0202197 0.0203889 0.0205211 0.0206161 0.0206493 0.0205991 0.0205095 0.0203806 0.0202128 0.0200063 0.0197621 0.0194806 0.0191628 0.0188097 0.0184225 0.0180023 0.0175507 0.0170689 0.0165586 0.0160215 0.0154591 0.0148734 0.0142662 0.0136394 0.0129949 0.0123346 0.0116605 0.0109746 0.0102788 0.00957507 0.00886531 0.00815136 0.00743511 0.0067184 0.00600284 0.00529014 0.00458199 0.00387969 0.00318503 0.00249905 0.00182317 0.00115858 0.00050637 -0.000132463 -0.000726144 -0.0012739 -0.00180458 -0.00215787 -0.00208189 -0.00200058 -0.00191415 -0.00182271 -0.00172654 -0.00162577 -0.00152074 -0.0014116 -0.00129877 -0.00118247 -0.001063 -0.000940762 -0.000816066 -0.000689256 -0.00056072 -0.000430839 -0.000299963 -0.000168526 -3.68521e-05 9.46367e-05 0.000225518 0.000355467 0.000484072 0.000611015 0.000735866 0.000858318 0.000978038 0.00109471 0.00120801 0.00131763 0.00142339 0.00152493 0.0016221 0.00171466 0.00180245 0.00188529 0.00196305 0.00203559 0.00210279 0.00212085 0.00211101 0.0020973 0.00207977 0.00205848 0.00203348 0.00200488 0.0019728 0.00193733 0.00189861 0.00185674 0.00181194 0.00176429 0.00171397 0.00166116 0.001606 0.00154871 0.0014894 0.00142835 0.00136566 0.00130152 0.00123615 0.00116972 0.00110239 0.00103434 0.000965744 0.000896764 0.000827576 0.000758324 0.000689159 0.00062024 0.000551689 0.000483628 0.000416193 0.000349498 0.000283647 0.000218751 0.000154867 9.21146e-05 3.05516e-05 -1.68996e-07 -1.73674e-07 -1.78087e-07 -1.82273e-07 -1.86199e-07 -1.89871e-07 -1.9329e-07 -1.9646e-07 -1.99374e-07 -2.02018e-07 -2.04415e-07 -2.0654e-07 -2.08398e-07 -2.09998e-07 -2.11331e-07 -2.12397e-07 -2.13196e-07 -2.13735e-07 -2.14015e-07 -2.14029e-07 -2.13758e-07 -2.13258e-07 -2.12473e-07 -2.11427e-07 -2.10123e-07 -2.08555e-07 -2.06709e-07 -2.04631e-07 -2.02301e-07 -1.99674e-07 -1.96812e-07 -1.93685e-07 -1.90331e-07 -1.86719e-07 -1.8285e-07 -1.78753e-07 -1.74408e-07 -1.63929e-07 -1.39855e-07 -1.15182e-07 -1.13055e-07 -9.18915e-08 -7.01e-08 -4.7715e-08 -2.47813e-08 -1.34221e-09 2.25591e-08 4.688e-08 7.15596e-08 9.65437e-08 1.21775e-07 1.47191e-07 1.72726e-07 1.98308e-07 2.23895e-07 2.49388e-07 2.74726e-07 2.99847e-07 3.24668e-07 3.4912e-07 3.73133e-07 3.96633e-07 4.19537e-07 4.41793e-07 4.63327e-07 4.84062e-07 5.03951e-07 5.22914e-07 5.40907e-07 5.57875e-07 5.73758e-07 5.88517e-07 6.02094e-07 6.14467e-07 6.25601e-07 6.35457e-07 6.44011e-07 6.58831e-07 6.46179e-07 6.315e-07 6.11231e-07 5.88012e-07 5.63258e-07 5.37026e-07 5.09379e-07 4.80374e-07 4.50071e-07 4.1856e-07 3.85869e-07 3.52155e-07 3.17466e-07 2.81891e-07 2.45529e-07 2.08527e-07 1.70929e-07 1.32885e-07 9.44751e-08 5.58448e-08 1.70745e-08 -2.16928e-08 -6.03476e-08 -9.87685e-08 -1.36881e-07 -1.74552e-07 -2.11642e-07 -2.48105e-07 -2.83766e-07 -3.18591e-07 -3.52463e-07 -3.853e-07 -4.17e-07 -4.47467e-07 -4.76678e-07 -5.04538e-07 -5.30965e-07 -5.55976e-07 -5.79454e-07 0.000423199 0.0010188 0.00162586 0.00224367 0.00287142 0.00350814 0.00415297 0.0048049 0.00546266 0.00612519 0.00679133 0.00745962 0.0081287 0.0087971 0.00946343 0.010126 0.0107834 0.0114337 0.0120753 0.0127066 0.0133258 0.0139311 
0.014372 0.0149386 0.0154862 0.0160131 0.0165178 0.0169987 0.017454 0.0178823 0.0182821 0.018652 0.0189909 0.0192975 0.0195706 0.0198094 0.020013 0.0201805 0.0203114 0.0204054 0.0204381 0.0203878 0.0202985 0.0201703 0.0200036 0.0197986 0.0195563 0.019277 0.0189617 0.0186116 0.0182277 0.0178111 0.0173633 0.0168858 0.01638 0.0158477 0.0152905 0.0147101 0.0141084 0.0134874 0.0128488 0.0121947 0.0115268 0.0108472 0.010158 0.00946095 0.00875788 0.00805072 0.00734129 0.00663144 0.00592275 0.00521694 0.00451564 0.00382018 0.00313232 0.00245307 0.00178386 0.00112587 0.000480163 -0.000152265 -0.000739701 -0.00128138 -0.00180612 -0.00215405 -0.00207819 -0.00199704 -0.00191075 -0.00181948 -0.00172347 -0.00162287 -0.00151802 -0.00140908 -0.00129643 -0.00118035 -0.00106109 -0.000939056 -0.000814578 -0.000687989 -0.000559678 -0.000430024 -0.000299376 -0.000168169 -3.67258e-05 9.45332e-05 0.000225185 0.000354908 0.000483288 0.000610007 0.00073464 0.000856878 0.000976388 0.00109286 0.00120595 0.00131539 0.00142095 0.00152232 0.00161932 0.00171172 0.00179935 0.00188204 0.00195967 0.00203208 0.00209917 0.00211718 0.00210737 0.00209367 0.00207618 0.00205493 0.00202997 0.00200141 0.00196939 0.00193399 0.00189532 0.00185354 0.00180881 0.00176124 0.00171101 0.00165828 0.00160323 0.00154603 0.00148682 0.00142587 0.0013633 0.00129927 0.00123402 0.0011677 0.00110049 0.00103255 0.000964077 0.000895215 0.000826147 0.000757015 0.000687969 0.000619169 0.000550736 0.000482792 0.000415475 0.000348894 0.000283157 0.000218373 0.0001546 9.19558e-05 3.04992e-05 -1.68682e-07 -1.73352e-07 -1.77758e-07 -1.81938e-07 -1.85857e-07 -1.89523e-07 -1.92937e-07 -1.96102e-07 -1.99012e-07 -2.01653e-07 -2.04046e-07 -2.06168e-07 -2.08023e-07 -2.09622e-07 -2.10953e-07 -2.12018e-07 -2.12817e-07 -2.13357e-07 -2.13637e-07 -2.13651e-07 -2.13382e-07 -2.12884e-07 -2.12102e-07 -2.11058e-07 -2.09757e-07 -2.08193e-07 -2.06351e-07 -2.04278e-07 -2.01952e-07 -1.99331e-07 -1.96475e-07 -1.93354e-07 -1.90007e-07 -1.86402e-07 -1.82541e-07 -1.78451e-07 -1.74115e-07 -1.63654e-07 -1.39622e-07 -1.1499e-07 -1.12865e-07 -9.17366e-08 -6.99814e-08 -4.76336e-08 -2.47382e-08 -1.33803e-09 2.25236e-08 4.6804e-08 7.14426e-08 9.63851e-08 1.21575e-07 1.46947e-07 1.72441e-07 1.9798e-07 2.23525e-07 2.48975e-07 2.74271e-07 2.9935e-07 3.2413e-07 3.48541e-07 3.72514e-07 3.95975e-07 4.18841e-07 4.4106e-07 4.62557e-07 4.83258e-07 5.03114e-07 5.22046e-07 5.40009e-07 5.56949e-07 5.72804e-07 5.87539e-07 6.01094e-07 6.13446e-07 6.24561e-07 6.34401e-07 6.42941e-07 6.57739e-07 6.45111e-07 6.30459e-07 6.10225e-07 5.87046e-07 5.62335e-07 5.36148e-07 5.08549e-07 4.79595e-07 4.49344e-07 4.17887e-07 3.85253e-07 3.51596e-07 3.16966e-07 2.81453e-07 2.45154e-07 2.08214e-07 1.70681e-07 1.32702e-07 9.4357e-08 5.57931e-08 1.70886e-08 -2.16123e-08 -6.02024e-08 -9.85576e-08 -1.36605e-07 -1.74213e-07 -2.1124e-07 -2.47641e-07 -2.83242e-07 -3.18008e-07 -3.51821e-07 -3.84603e-07 -4.16251e-07 -4.46666e-07 -4.75829e-07 -5.03642e-07 -5.30024e-07 -5.54994e-07 -5.78433e-07 0.000417724 0.00100726 0.00160815 0.00221967 0.00284103 0.00347128 0.00410955 0.00475485 0.00540591 0.00606171 0.00672108 0.00738257 0.00804485 0.00870647 0.00936602 0.0100219 0.0106725 0.0113162 0.0119513 0.0125762 0.0131891 0.0137883 
0.0141999 0.0147598 0.0153009 0.0158216 0.0163204 0.0167955 0.0172454 0.0176686 0.0180636 0.0184292 0.0187641 0.019067 0.019337 0.0195729 0.019774 0.0199395 0.020069 0.0201618 0.0201938 0.0201435 0.0200545 0.0199272 0.0197618 0.0195585 0.0193182 0.0190415 0.0187293 0.0183826 0.0180024 0.01759 0.0171468 0.0166742 0.0161736 0.0156469 0.0150955 0.0145213 0.0139261 0.0133116 0.0126799 0.0120328 0.0113722 0.0107001 0.0100185 0.00932901 0.00863371 0.00793438 0.00723285 0.00653094 0.00583021 0.00513234 0.00443898 0.00375143 0.00307142 0.00239996 0.00173847 0.00108811 0.000449916 -0.000175106 -0.000755321 -0.00128998 -0.00180784 -0.00214957 -0.00207389 -0.00199289 -0.00190677 -0.00181569 -0.00171987 -0.00161949 -0.00151485 -0.00140612 -0.00129372 -0.00117787 -0.00105885 -0.000937066 -0.000812842 -0.000686512 -0.000558463 -0.000429074 -0.000298694 -0.000167755 -3.65807e-05 9.44092e-05 0.000224794 0.00035425 0.000482367 0.000608828 0.000733204 0.000855192 0.000974457 0.00109068 0.00120355 0.00131276 0.00141811 0.00151927 0.00161607 0.00170828 0.00179573 0.00187825 0.00195572 0.00202797 0.00209492 0.00211289 0.0021031 0.00208944 0.00207198 0.00205076 0.00202586 0.00199737 0.0019654 0.00193007 0.00189149 0.00184979 0.00180515 0.00175767 0.00170755 0.00165493 0.00159999 0.0015429 0.00148382 0.00142299 0.00136054 0.00129665 0.00123152 0.00116534 0.00109825 0.00103046 0.000962126 0.000893404 0.000824475 0.000755483 0.000686578 0.000617916 0.000549622 0.000481816 0.000414635 0.000348189 0.000282584 0.000217932 0.000154288 9.177e-05 3.04378e-05 -1.68316e-07 -1.72977e-07 -1.77374e-07 -1.81546e-07 -1.85458e-07 -1.89117e-07 -1.92526e-07 -1.95685e-07 -1.9859e-07 -2.01226e-07 -2.03615e-07 -2.05734e-07 -2.07586e-07 -2.09182e-07 -2.10512e-07 -2.11576e-07 -2.12374e-07 -2.12914e-07 -2.13195e-07 -2.1321e-07 -2.12942e-07 -2.12446e-07 -2.11667e-07 -2.10626e-07 -2.09329e-07 -2.0777e-07 -2.05932e-07 -2.03864e-07 -2.01545e-07 -1.9893e-07 -1.9608e-07 -1.92967e-07 -1.89628e-07 -1.86032e-07 -1.82179e-07 -1.78098e-07 -1.73771e-07 -1.63332e-07 -1.39348e-07 -1.14766e-07 -1.12643e-07 -9.15553e-08 -6.98425e-08 -4.75384e-08 -2.46877e-08 -1.33329e-09 2.24816e-08 4.67146e-08 7.13051e-08 9.61988e-08 1.21339e-07 1.46662e-07 1.72106e-07 1.97595e-07 2.2309e-07 2.48491e-07 2.73737e-07 2.98767e-07 3.23498e-07 3.47861e-07 3.71788e-07 3.95203e-07 4.18025e-07 4.40199e-07 4.61655e-07 4.82315e-07 5.02132e-07 5.21027e-07 5.38954e-07 5.55861e-07 5.71686e-07 5.86392e-07 5.9992e-07 6.12248e-07 6.23342e-07 6.33162e-07 6.41685e-07 6.56458e-07 6.43858e-07 6.29236e-07 6.09044e-07 5.85912e-07 5.61251e-07 5.35118e-07 5.07575e-07 4.78679e-07 4.48488e-07 4.17096e-07 3.84527e-07 3.50937e-07 3.16378e-07 2.80936e-07 2.44709e-07 2.07845e-07 1.70385e-07 1.32482e-07 9.42151e-08 5.57281e-08 1.7101e-08 -2.15232e-08 -6.00354e-08 -9.83141e-08 -1.36286e-07 -1.73818e-07 -2.10772e-07 -2.471e-07 -2.82631e-07 -3.17328e-07 -3.51075e-07 -3.83791e-07 -4.15376e-07 -4.45732e-07 -4.74837e-07 -5.02595e-07 -5.28925e-07 -5.53846e-07 -5.77238e-07 0.000411396 0.00099393 0.00158767 0.00219192 0.0028059 0.00342865 0.00405935 0.00469698 0.00534031 0.00598832 0.00663986 0.0072935 0.00794791 0.00860168 0.00925339 0.00990147 0.0105444 0.0111805 0.0118081 0.0124255 0.0130311 0.0136232 
0.0140046 0.0145569 0.0150906 0.0156043 0.0160962 0.0165648 0.0170086 0.0174261 0.0178157 0.0181763 0.0185065 0.0188055 0.0190716 0.0193044 0.0195027 0.0196661 0.0197937 0.0198853 0.0199166 0.0198662 0.0197777 0.0196512 0.0194872 0.0192859 0.019048 0.0187743 0.0184655 0.0181226 0.0177468 0.0173391 0.016901 0.016434 0.0159394 0.015419 0.0148742 0.014307 0.013719 0.0131122 0.0124882 0.0118492 0.0111968 0.0105331 0.00986003 0.0091793 0.0084928 0.00780239 0.00710982 0.00641691 0.00572521 0.00503637 0.00435202 0.00367344 0.00300235 0.00233974 0.001687 0.00104529 0.000415642 -0.000200971 -0.000772992 -0.00129968 -0.00180972 -0.00214445 -0.00206893 -0.00198813 -0.00190222 -0.00181134 -0.00171575 -0.00161561 -0.00151122 -0.00140274 -0.0012906 -0.00117502 -0.00105628 -0.000934781 -0.00081085 -0.000684817 -0.000557069 -0.000427984 -0.00029791 -0.000167279 -3.64133e-05 9.4268e-05 0.000224346 0.000353498 0.000481313 0.000607475 0.000731559 0.000853258 0.000972243 0.0010882 0.00120079 0.00130975 0.00141485 0.00151577 0.00161234 0.00170433 0.00179157 0.00187389 0.00195118 0.00202327 0.00209005 0.00210798 0.00209821 0.00208458 0.00206716 0.002046 0.00202115 0.00199272 0.00196084 0.00192558 0.0018871 0.00184549 0.00180096 0.00175359 0.00170358 0.00165108 0.00159627 0.00153932 0.00148037 0.00141968 0.00135738 0.00129363 0.00122866 0.00116263 0.0010957 0.00102807 0.000959889 0.000891327 0.000822558 0.000753727 0.000684981 0.000616479 0.000548345 0.000480695 0.00041367 0.000347379 0.000281928 0.000217426 0.000153929 9.15571e-05 3.03674e-05 -1.67895e-07 -1.72546e-07 -1.76934e-07 -1.81097e-07 -1.85e-07 -1.88652e-07 -1.92053e-07 -1.95206e-07 -1.98105e-07 -2.00735e-07 -2.03121e-07 -2.05235e-07 -2.07084e-07 -2.08678e-07 -2.10006e-07 -2.11069e-07 -2.11866e-07 -2.12406e-07 -2.12687e-07 -2.12705e-07 -2.12438e-07 -2.11944e-07 -2.11168e-07 -2.10132e-07 -2.08839e-07 -2.07285e-07 -2.05453e-07 -2.0339e-07 -2.01078e-07 -1.9847e-07 -1.95629e-07 -1.92524e-07 -1.89193e-07 -1.85607e-07 -1.81764e-07 -1.77694e-07 -1.73378e-07 -1.62964e-07 -1.39034e-07 -1.14509e-07 -1.12388e-07 -9.13475e-08 -6.96834e-08 -4.74292e-08 -2.46298e-08 -1.32767e-09 2.24338e-08 4.66126e-08 7.11478e-08 9.59857e-08 1.2107e-07 1.46337e-07 1.71723e-07 1.97155e-07 2.22592e-07 2.47936e-07 2.73126e-07 2.981e-07 3.22775e-07 3.47084e-07 3.70956e-07 3.94319e-07 4.1709e-07 4.39215e-07 4.60623e-07 4.81236e-07 5.01008e-07 5.19861e-07 5.37749e-07 5.54617e-07 5.70406e-07 5.85079e-07 5.98577e-07 6.10878e-07 6.21946e-07 6.31744e-07 6.40249e-07 6.54992e-07 6.42423e-07 6.27837e-07 6.07693e-07 5.84614e-07 5.60011e-07 5.33939e-07 5.0646e-07 4.77632e-07 4.47511e-07 4.16191e-07 3.83697e-07 3.50186e-07 3.15706e-07 2.80345e-07 2.44203e-07 2.07423e-07 1.70051e-07 1.32234e-07 9.40544e-08 5.5656e-08 1.71179e-08 -2.14172e-08 -5.9841e-08 -9.80327e-08 -1.35918e-07 -1.73364e-07 -2.10233e-07 -2.46479e-07 -2.81928e-07 -3.16546e-07 -3.50216e-07 -3.82859e-07 -4.14372e-07 -4.44659e-07 -4.73697e-07 -5.01393e-07 -5.27664e-07 -5.52529e-07 -5.75869e-07 0.000404217 0.000978797 0.00156442 0.00216043 0.00276603 0.00338028 0.00400236 0.00463129 0.00526586 0.00590501 0.00654766 0.0071924 0.00783787 0.00848272 0.00912555 0.00976483 0.010399 0.0110263 0.0116453 0.0122544 0.0128517 0.0134358 
0.0137861 0.0143298 0.0148553 0.015361 0.0158453 0.0163068 0.0167436 0.0171547 0.0175383 0.0178932 0.0182184 0.0185126 0.0187748 0.0190039 0.0191992 0.01936 0.0194857 0.0195758 0.0196064 0.0195559 0.0194678 0.0193424 0.0191801 0.0189809 0.0187457 0.0184753 0.0181703 0.0178317 0.0174607 0.0170584 0.0166261 0.0161653 0.0156773 0.015164 0.0146266 0.0140672 0.0134874 0.012889 0.0122738 0.0116437 0.0110006 0.0103464 0.00968284 0.00901186 0.00833522 0.00765476 0.00697223 0.00628939 0.0056078 0.00492908 0.0042548 0.00358627 0.00292515 0.00227245 0.00162951 0.000997481 0.000377388 -0.000229817 -0.000792669 -0.00131044 -0.00181176 -0.00213864 -0.00206332 -0.00198273 -0.00189704 -0.00180642 -0.00171108 -0.0016112 -0.00150708 -0.0013989 -0.00128705 -0.00117179 -0.00105336 -0.00093219 -0.00080859 -0.000682893 -0.000555488 -0.000426748 -0.000297022 -0.000166741 -3.62258e-05 9.41057e-05 0.000223835 0.00035264 0.000480113 0.000605937 0.000729688 0.000851061 0.000969725 0.00108537 0.00119766 0.00130632 0.00141114 0.00151179 0.0016081 0.00169984 0.00178685 0.00186895 0.00194603 0.00201792 0.00208453 0.0021024 0.00209266 0.00207906 0.00206169 0.00204058 0.00201579 0.00198744 0.00195564 0.00192048 0.00188209 0.0018406 0.00179619 0.00174894 0.00169906 0.00164671 0.00159204 0.00153525 0.00147645 0.00141593 0.00135379 0.0012902 0.00122541 0.00115955 0.0010928 0.00102534 0.000957349 0.000888968 0.000820381 0.000751732 0.000683168 0.000614848 0.000546893 0.000479423 0.000412576 0.000346459 0.000281181 0.00021685 0.000153522 9.13151e-05 3.02875e-05 -1.67418e-07 -1.72058e-07 -1.76434e-07 -1.80587e-07 -1.84481e-07 -1.88123e-07 -1.91517e-07 -1.94662e-07 -1.97555e-07 -2.00179e-07 -2.02559e-07 -2.04669e-07 -2.06515e-07 -2.08106e-07 -2.09431e-07 -2.10493e-07 -2.1129e-07 -2.11829e-07 -2.12111e-07 -2.12129e-07 -2.11865e-07 -2.11375e-07 -2.10603e-07 -2.0957e-07 -2.08281e-07 -2.06733e-07 -2.04907e-07 -2.02852e-07 -2.00547e-07 -1.97947e-07 -1.95115e-07 -1.9202e-07 -1.88699e-07 -1.85123e-07 -1.81291e-07 -1.77233e-07 -1.7293e-07 -1.62544e-07 -1.38677e-07 -1.14216e-07 -1.12097e-07 -9.11111e-08 -6.95024e-08 -4.73052e-08 -2.4564e-08 -1.32151e-09 2.23792e-08 4.64961e-08 7.09687e-08 9.5743e-08 1.20763e-07 1.45964e-07 1.71286e-07 1.96653e-07 2.22026e-07 2.47305e-07 2.7243e-07 2.9734e-07 3.21953e-07 3.46199e-07 3.70011e-07 3.93314e-07 4.16025e-07 4.38094e-07 4.59446e-07 4.80008e-07 4.99729e-07 5.18534e-07 5.36375e-07 5.53201e-07 5.68949e-07 5.83585e-07 5.97049e-07 6.09317e-07 6.20357e-07 6.3013e-07 6.38612e-07 6.53322e-07 6.4079e-07 6.26244e-07 6.06153e-07 5.83137e-07 5.586e-07 5.32596e-07 5.0519e-07 4.76438e-07 4.46397e-07 4.1516e-07 3.82752e-07 3.49329e-07 3.1494e-07 2.79673e-07 2.43625e-07 2.06941e-07 1.69667e-07 1.3195e-07 9.38707e-08 5.55727e-08 1.71352e-08 -2.13001e-08 -5.96231e-08 -9.77152e-08 -1.35501e-07 -1.7285e-07 -2.09623e-07 -2.45775e-07 -2.81132e-07 -3.1566e-07 -3.49243e-07 -3.81801e-07 -4.13232e-07 -4.43441e-07 -4.72405e-07 -5.00028e-07 -5.26232e-07 -5.51033e-07 -5.74313e-07 0.000396189 0.000961864 0.00153842 0.00212518 0.00272141 0.00332616 0.0039386 0.0045578 0.00518254 0.0058118 0.00644451 0.00707926 0.00771476 0.00834962 0.00898251 0.0096119 0.0102362 0.0108539 0.0114633 0.0120629 0.0126511 0.013226 
0.0135444 0.0140787 0.0145951 0.015092 0.0155679 0.0160212 0.0164505 0.0168545 0.0172314 0.0175802 0.0178998 0.0181889 0.0184465 0.0186717 0.0188635 0.0190216 0.019145 0.0192336 0.0192632 0.0192126 0.0191251 0.0190009 0.0188402 0.0186435 0.0184114 0.0181445 0.0178438 0.01751 0.0171443 0.0167479 0.016322 0.0158681 0.0153876 0.014882 0.0143529 0.0138021 0.0132314 0.0126423 0.0120367 0.0114166 0.0107837 0.0101398 0.00948693 0.00882675 0.00816101 0.00749158 0.00682014 0.00614846 0.00547805 0.00481049 0.00414738 0.00348996 0.00283988 0.00219812 0.00156603 0.000944715 0.000335186 -0.000261613 -0.000814324 -0.00132224 -0.0018139 -0.00213211 -0.00205702 -0.00197667 -0.00189124 -0.00180088 -0.00170583 -0.00160625 -0.00150245 -0.00139459 -0.00128308 -0.00116816 -0.00105009 -0.000929283 -0.000806054 -0.000680736 -0.000553714 -0.000425361 -0.000296026 -0.000166138 -3.60155e-05 9.39233e-05 0.000223262 0.000351679 0.000478767 0.00060421 0.000727588 0.000848595 0.000966901 0.0010822 0.00119414 0.00130248 0.00140698 0.00150733 0.00160334 0.00169482 0.00178156 0.00186341 0.00194025 0.00201193 0.00207833 0.00209614 0.00208642 0.00207287 0.00205554 0.00203451 0.00200979 0.00198153 0.00194982 0.00191476 0.00187649 0.00183512 0.00179084 0.00174373 0.001694 0.0016418 0.0015873 0.00153067 0.00147205 0.0014117 0.00134976 0.00128636 0.00122176 0.0011561 0.00108954 0.00102229 0.000954497 0.00088632 0.000817938 0.000749493 0.000681134 0.000613017 0.000545264 0.000477996 0.000411347 0.000345429 0.000280345 0.000216205 0.000153065 9.10438e-05 3.01978e-05 -1.66883e-07 -1.71509e-07 -1.75874e-07 -1.80015e-07 -1.83898e-07 -1.87531e-07 -1.90915e-07 -1.94052e-07 -1.96937e-07 -1.99555e-07 -2.01929e-07 -2.04035e-07 -2.05876e-07 -2.07463e-07 -2.08787e-07 -2.09846e-07 -2.10643e-07 -2.11182e-07 -2.11465e-07 -2.11485e-07 -2.11223e-07 -2.10736e-07 -2.09967e-07 -2.08939e-07 -2.07657e-07 -2.06114e-07 -2.04295e-07 -2.02248e-07 -1.99951e-07 -1.97361e-07 -1.94539e-07 -1.91454e-07 -1.88144e-07 -1.84581e-07 -1.80762e-07 -1.76717e-07 -1.72428e-07 -1.62074e-07 -1.38278e-07 -1.13887e-07 -1.11772e-07 -9.08459e-08 -6.92994e-08 -4.71659e-08 -2.44901e-08 -1.31448e-09 2.23181e-08 4.63656e-08 7.07677e-08 9.54709e-08 1.20419e-07 1.45548e-07 1.70796e-07 1.9609e-07 2.2139e-07 2.46597e-07 2.7165e-07 2.96488e-07 3.2103e-07 3.45206e-07 3.68949e-07 3.92185e-07 4.14832e-07 4.36837e-07 4.58127e-07 4.7863e-07 4.98295e-07 5.17045e-07 5.34835e-07 5.51612e-07 5.67315e-07 5.81908e-07 5.95333e-07 6.07567e-07 6.18575e-07 6.28319e-07 6.36778e-07 6.5145e-07 6.38958e-07 6.24456e-07 6.04427e-07 5.81479e-07 5.57015e-07 5.3109e-07 5.03766e-07 4.75099e-07 4.45147e-07 4.14003e-07 3.81691e-07 3.48367e-07 3.1408e-07 2.78917e-07 2.42976e-07 2.064e-07 1.69236e-07 1.31631e-07 9.36632e-08 5.54775e-08 1.71534e-08 -2.11684e-08 -5.938e-08 -9.73594e-08 -1.35035e-07 -1.72274e-07 -2.0894e-07 -2.44985e-07 -2.80239e-07 -3.14666e-07 -3.48151e-07 -3.80614e-07 -4.11953e-07 -4.42075e-07 -4.70954e-07 -4.98498e-07 -5.24626e-07 -5.49355e-07 -5.72568e-07 0.000387316 0.000943144 0.00150966 0.00208623 0.00267208 0.00326629 0.00386808 0.00447652 0.00509039 0.00570871 0.00633042 0.00695413 0.00757859 0.00820241 0.0088243 0.00944275 0.0100562 0.0106632 0.011262 0.0118512 0.0124291 0.0129941 
0.0132798 0.0138037 0.0143101 0.0147974 0.015264 0.0157087 0.0161296 0.0165258 0.0168954 0.0172375 0.0175508 0.0178343 0.0180869 0.0183077 0.0184958 0.0186508 0.0187719 0.0188588 0.0188875 0.0188368 0.0187498 0.0186269 0.0184683 0.0182742 0.0180453 0.0177824 0.0174863 0.0171577 0.0167979 0.0164079 0.0159891 0.0155427 0.0150702 0.0145733 0.0140532 0.0135119 0.012951 0.0123722 0.0117772 0.011168 0.0105462 0.00991379 0.00927249 0.00862411 0.00797034 0.00731297 0.0066537 0.00599424 0.00533607 0.00468076 0.00402986 0.00338461 0.00274662 0.00211686 0.00149664 0.000887059 0.000289107 -0.000296294 -0.000837901 -0.00133501 -0.0018161 -0.00212483 -0.00205 -0.00196992 -0.00188477 -0.00179472 -0.00169999 -0.00160074 -0.00149729 -0.00138979 -0.00127865 -0.00116412 -0.00104644 -0.000926045 -0.00080323 -0.000678334 -0.000551738 -0.000423818 -0.000294919 -0.000165467 -3.57831e-05 9.37178e-05 0.00022262 0.000350605 0.000477264 0.000602285 0.000725247 0.000845844 0.000963752 0.00107866 0.00119023 0.00129821 0.00140234 0.00150235 0.00159804 0.0016892 0.00177565 0.00185723 0.0019338 0.00200523 0.00207141 0.00208916 0.00207948 0.00206597 0.0020487 0.00202773 0.0020031 0.00197493 0.00194332 0.00190839 0.00187024 0.00182901 0.00178487 0.00173793 0.00168837 0.00163633 0.00158201 0.00152558 0.00146715 0.00140701 0.00134526 0.00128208 0.00121769 0.00115224 0.00108592 0.00101889 0.000951319 0.000883369 0.000815215 0.000746998 0.000678867 0.000610976 0.000543449 0.000476404 0.000409978 0.000344278 0.000279411 0.000215485 0.000152557 9.07411e-05 3.00979e-05 -1.66287e-07 -1.70898e-07 -1.75249e-07 -1.79377e-07 -1.83248e-07 -1.8687e-07 -1.90244e-07 -1.93372e-07 -1.96249e-07 -1.98859e-07 -2.01227e-07 -2.03327e-07 -2.05164e-07 -2.06747e-07 -2.08068e-07 -2.09126e-07 -2.09921e-07 -2.1046e-07 -2.10744e-07 -2.10766e-07 -2.10507e-07 -2.10022e-07 -2.09258e-07 -2.08236e-07 -2.06959e-07 -2.05424e-07 -2.03613e-07 -2.01574e-07 -1.99286e-07 -1.96706e-07 -1.93896e-07 -1.90822e-07 -1.87526e-07 -1.83975e-07 -1.80172e-07 -1.76141e-07 -1.71868e-07 -1.61548e-07 -1.37831e-07 -1.13521e-07 -1.11409e-07 -9.05502e-08 -6.90729e-08 -4.70107e-08 -2.44078e-08 -1.30678e-09 2.22498e-08 4.62199e-08 7.05435e-08 9.51671e-08 1.20035e-07 1.45084e-07 1.7025e-07 1.95463e-07 2.20681e-07 2.45806e-07 2.70779e-07 2.95537e-07 3.2e-07 3.44099e-07 3.67765e-07 3.90926e-07 4.135e-07 4.35434e-07 4.56656e-07 4.77091e-07 4.96693e-07 5.15383e-07 5.33116e-07 5.49839e-07 5.65492e-07 5.80038e-07 5.93419e-07 6.05613e-07 6.16586e-07 6.26299e-07 6.3473e-07 6.4936e-07 6.36913e-07 6.22463e-07 6.02501e-07 5.79631e-07 5.55248e-07 5.29409e-07 5.02177e-07 4.73605e-07 4.43753e-07 4.12713e-07 3.80508e-07 3.47294e-07 3.13121e-07 2.78074e-07 2.42252e-07 2.05797e-07 1.68755e-07 1.31274e-07 9.34317e-08 5.53724e-08 1.71738e-08 -2.10217e-08 -5.91073e-08 -9.69627e-08 -1.34514e-07 -1.71632e-07 -2.08177e-07 -2.44104e-07 -2.79243e-07 -3.13558e-07 -3.46933e-07 -3.7929e-07 -4.10527e-07 -4.4055e-07 -4.69336e-07 -4.96791e-07 -5.22834e-07 -5.47484e-07 -5.70622e-07 0.000377605 0.000922648 0.00147818 0.00204356 0.00261804 0.00320074 0.00379087 0.00438751 0.00498947 0.00559581 0.00620547 0.0068171 0.00742945 0.00804119 0.00865104 0.0092575 0.00985908 0.0104543 0.0110415 0.0116194 0.012186 0.01274 
0.0129921 0.0135047 0.0140004 0.0144771 0.0149339 0.0153688 0.0157808 0.0161685 0.0165301 0.0168649 0.0171715 0.0174489 0.0176961 0.0179121 0.0180963 0.0182479 0.0183664 0.0184514 0.0184791 0.0184283 0.018342 0.0182204 0.0180639 0.0178727 0.0176475 0.0173889 0.0170978 0.0167749 0.0164215 0.0160385 0.0156273 0.0151891 0.0147254 0.0142378 0.0137276 0.0131966 0.0126463 0.0120787 0.0114952 0.0108978 0.0102882 0.00966819 0.00903957 0.00840403 0.00776325 0.00711901 0.00647296 0.00582677 0.00518191 0.00453991 0.00390231 0.00327028 0.00264544 0.00202872 0.0014214 0.00082457 0.000239202 -0.000333811 -0.00086335 -0.00134873 -0.00181834 -0.00211678 -0.00204222 -0.00196244 -0.00187762 -0.00178789 -0.00169352 -0.00159464 -0.00149156 -0.00138447 -0.00127375 -0.00115964 -0.00104241 -0.000922461 -0.000800105 -0.000675675 -0.000549552 -0.000422111 -0.000293693 -0.000164726 -3.55273e-05 9.34889e-05 0.000221908 0.000349414 0.000475599 0.000600151 0.000722652 0.000842798 0.000960262 0.00107473 0.00118589 0.00129346 0.00139721 0.00149684 0.00159217 0.00168299 0.00176911 0.00185037 0.00192667 0.00199783 0.00206376 0.00208142 0.00207178 0.00205832 0.00204112 0.00202023 0.00199569 0.00196762 0.00193614 0.00190133 0.00186332 0.00182224 0.00177827 0.0017315 0.00168211 0.00163028 0.00157616 0.00151993 0.00146172 0.0014018 0.00134029 0.00127734 0.00121319 0.00114799 0.0010819 0.00101512 0.000947799 0.000880101 0.000812199 0.000744234 0.000676354 0.000608716 0.000541439 0.000474642 0.000408462 0.000343005 0.000278379 0.000214688 0.000151993 9.0406e-05 2.99871e-05 -1.65628e-07 -1.70223e-07 -1.74558e-07 -1.78672e-07 -1.8253e-07 -1.86139e-07 -1.89502e-07 -1.9262e-07 -1.95487e-07 -1.9809e-07 -2.0045e-07 -2.02544e-07 -2.04376e-07 -2.05955e-07 -2.07272e-07 -2.08328e-07 -2.09123e-07 -2.09662e-07 -2.09946e-07 -2.0997e-07 -2.09714e-07 -2.09233e-07 -2.08474e-07 -2.07457e-07 -2.06188e-07 -2.04659e-07 -2.02858e-07 -2.00828e-07 -1.98551e-07 -1.95983e-07 -1.93184e-07 -1.90124e-07 -1.86841e-07 -1.83306e-07 -1.79517e-07 -1.75504e-07 -1.71247e-07 -1.60967e-07 -1.37336e-07 -1.13115e-07 -1.11007e-07 -9.02226e-08 -6.88222e-08 -4.68388e-08 -2.43167e-08 -1.29825e-09 2.21742e-08 4.60585e-08 7.02951e-08 9.48307e-08 1.19609e-07 1.44568e-07 1.69646e-07 1.94767e-07 2.19896e-07 2.44931e-07 2.69814e-07 2.94484e-07 3.18859e-07 3.42872e-07 3.66453e-07 3.89531e-07 4.12024e-07 4.3388e-07 4.55027e-07 4.75389e-07 4.9492e-07 5.13543e-07 5.31213e-07 5.47876e-07 5.63472e-07 5.77966e-07 5.913e-07 6.03451e-07 6.14383e-07 6.24062e-07 6.32463e-07 6.47046e-07 6.34649e-07 6.20255e-07 6.00368e-07 5.77582e-07 5.5329e-07 5.27548e-07 5.00416e-07 4.7195e-07 4.42208e-07 4.11282e-07 3.79196e-07 3.46105e-07 3.12057e-07 2.77139e-07 2.41448e-07 2.05128e-07 1.68222e-07 1.30878e-07 9.31738e-08 5.52539e-08 1.71948e-08 -2.08615e-08 -5.88072e-08 -9.65246e-08 -1.33939e-07 -1.70922e-07 -2.07334e-07 -2.43131e-07 -2.78142e-07 -3.12332e-07 -3.45586e-07 -3.77826e-07 -4.08951e-07 -4.38865e-07 -4.67547e-07 -4.94902e-07 -5.20852e-07 -5.45413e-07 -5.68468e-07 0.000367062 0.000900384 0.00144397 0.0019972 0.00255933 0.00312951 0.00370695 0.00429077 0.00487981 0.00547313 0.00606969 0.00666819 0.00726739 0.007866 0.00846275 0.00905619 0.00964486 0.0102273 0.0108019 0.0113674 0.0119219 0.012464 
0.0126817 0.0131822 0.013666 0.0141315 0.0145774 0.0150022 0.0154044 0.0157828 0.0161359 0.0164628 0.0167622 0.017033 0.0172743 0.0174853 0.0176651 0.0178131 0.0179287 0.0180118 0.0180384 0.0179874 0.0179018 0.0177817 0.0176276 0.0174395 0.0172181 0.0169642 0.0166785 0.0163618 0.0160152 0.0156399 0.0152368 0.0148076 0.0143534 0.0138758 0.0133762 0.0128564 0.0123177 0.0117621 0.0111911 0.0106064 0.01001 0.00940332 0.00878833 0.00816665 0.00753991 0.00690984 0.00627806 0.00564621 0.00501572 0.00438809 0.00376482 0.00314707 0.00253642 0.00193377 0.00134039 0.000757327 0.000185536 -0.000374104 -0.000890622 -0.00136335 -0.00182057 -0.00210793 -0.00203367 -0.00195421 -0.00186973 -0.00178038 -0.00168639 -0.00158792 -0.00148528 -0.00137863 -0.00126836 -0.00115472 -0.00103797 -0.000918517 -0.000796666 -0.00067275 -0.000547149 -0.000420234 -0.000292347 -0.000163913 -3.5248e-05 9.32344e-05 0.000221123 0.000348101 0.000473763 0.0005978 0.000719793 0.000839441 0.000956419 0.00107042 0.00118111 0.00128823 0.00139155 0.00149077 0.0015857 0.00167614 0.00176191 0.00184284 0.00191881 0.00198968 0.00205532 0.00207292 0.00206331 0.00204991 0.00203277 0.00201196 0.00198753 0.00195957 0.00192822 0.00189355 0.00185571 0.00181479 0.001771 0.00172442 0.00167523 0.00162361 0.00156972 0.00151371 0.00145575 0.00139606 0.0013348 0.00127212 0.00120822 0.00114329 0.00107748 0.00101097 0.000943924 0.000876502 0.000808878 0.000741192 0.000673589 0.000606227 0.000539225 0.000472702 0.000406792 0.000341604 0.000277241 0.000213811 0.000151372 9.00371e-05 2.98652e-05 -1.64902e-07 -1.69479e-07 -1.73798e-07 -1.77896e-07 -1.81739e-07 -1.85335e-07 -1.88686e-07 -1.91792e-07 -1.94649e-07 -1.97243e-07 -1.99595e-07 -2.01682e-07 -2.03508e-07 -2.05083e-07 -2.06397e-07 -2.0745e-07 -2.08244e-07 -2.08783e-07 -2.09068e-07 -2.09093e-07 -2.08841e-07 -2.08365e-07 -2.0761e-07 -2.066e-07 -2.05338e-07 -2.03818e-07 -2.02026e-07 -2.00007e-07 -1.97741e-07 -1.95185e-07 -1.924e-07 -1.89355e-07 -1.86088e-07 -1.82568e-07 -1.78797e-07 -1.74802e-07 -1.70565e-07 -1.60326e-07 -1.36792e-07 -1.12668e-07 -1.10564e-07 -8.98618e-08 -6.85459e-08 -4.66494e-08 -2.42164e-08 -1.28892e-09 2.20906e-08 4.58806e-08 7.00214e-08 9.44599e-08 1.19141e-07 1.44001e-07 1.68979e-07 1.94002e-07 2.1903e-07 2.43967e-07 2.68751e-07 2.93324e-07 3.17602e-07 3.4152e-07 3.65008e-07 3.87995e-07 4.10399e-07 4.32168e-07 4.53231e-07 4.73513e-07 4.92967e-07 5.11516e-07 5.29115e-07 5.45713e-07 5.61248e-07 5.75684e-07 5.88964e-07 6.01067e-07 6.11957e-07 6.21597e-07 6.29964e-07 6.44496e-07 6.32154e-07 6.17821e-07 5.98016e-07 5.75325e-07 5.51133e-07 5.25496e-07 4.98475e-07 4.70125e-07 4.40506e-07 4.09706e-07 3.7775e-07 3.44794e-07 3.10884e-07 2.76108e-07 2.40563e-07 2.04389e-07 1.67633e-07 1.3044e-07 9.28888e-08 5.51217e-08 1.72172e-08 -2.06857e-08 -5.84785e-08 -9.60436e-08 -1.33308e-07 -1.70141e-07 -2.06407e-07 -2.42059e-07 -2.7693e-07 -3.10983e-07 -3.44104e-07 -3.76214e-07 -4.07215e-07 -4.37009e-07 -4.65577e-07 -4.92823e-07 -5.1867e-07 -5.43133e-07 -5.66097e-07 0.000355692 0.000876365 0.00140706 0.00194717 0.00249598 0.00305263 0.0036164 0.00418639 0.00476146 0.00534072 0.00592316 0.00650748 0.00709248 0.00767691 0.00825953 0.00883892 0.00941366 0.00998234 0.0105433 0.0110954 0.0116367 0.012166 
0.0123487 0.0128362 0.0133074 0.0137608 0.014195 0.0146088 0.0150006 0.0153691 0.0157131 0.0160314 0.016323 0.0165868 0.0168219 0.0170273 0.0172025 0.0173467 0.0174593 0.0175401 0.0175656 0.0175145 0.0174297 0.0173112 0.0171595 0.0169747 0.0167576 0.0165087 0.0162288 0.0159188 0.0155795 0.0152123 0.0148182 0.0143984 0.0139544 0.0134876 0.0129995 0.0124914 0.0119653 0.0114225 0.0108649 0.010294 0.00971154 0.00911934 0.00851899 0.00791218 0.0073005 0.00668563 0.00606917 0.00545271 0.00483764 0.00422543 0.00361756 0.00301512 0.0024197 0.00183214 0.00125372 0.000685425 0.000128201 -0.000417094 -0.000919644 -0.00137881 -0.00182274 -0.00209822 -0.00202429 -0.0019452 -0.0018611 -0.00177216 -0.00167859 -0.00158056 -0.00147839 -0.00137222 -0.00126245 -0.00114933 -0.00103311 -0.000914197 -0.0007929 -0.000669547 -0.000544517 -0.000418178 -0.000290873 -0.000163023 -3.49439e-05 9.29545e-05 0.000220261 0.00034666 0.00047175 0.000595222 0.00071666 0.000835761 0.000952206 0.00106569 0.00117587 0.00128251 0.00138536 0.00148412 0.00157861 0.00166864 0.00175401 0.00183457 0.0019102 0.00198073 0.00204608 0.00206359 0.00205403 0.00204069 0.00202363 0.00200291 0.00197858 0.00195076 0.00191954 0.00188503 0.00184735 0.00180662 0.00176303 0.00171666 0.00166769 0.00161631 0.00156265 0.00150691 0.00144919 0.00138978 0.0013288 0.00126638 0.00120278 0.00113815 0.00107263 0.00100642 0.000939677 0.000872558 0.000805238 0.000737856 0.000670559 0.0006035 0.000536799 0.000470576 0.000404962 0.000340067 0.000275993 0.00021285 0.000150691 8.96326e-05 2.97316e-05 -1.64106e-07 -1.68664e-07 -1.72964e-07 -1.77045e-07 -1.80872e-07 -1.84453e-07 -1.8779e-07 -1.90884e-07 -1.9373e-07 -1.96314e-07 -1.98657e-07 -2.00737e-07 -2.02557e-07 -2.04127e-07 -2.05437e-07 -2.06488e-07 -2.07279e-07 -2.07818e-07 -2.08105e-07 -2.08133e-07 -2.07883e-07 -2.07412e-07 -2.06664e-07 -2.0566e-07 -2.04406e-07 -2.02895e-07 -2.01113e-07 -1.99106e-07 -1.96852e-07 -1.9431e-07 -1.9154e-07 -1.8851e-07 -1.8526e-07 -1.81759e-07 -1.78006e-07 -1.74031e-07 -1.69815e-07 -1.59624e-07 -1.36193e-07 -1.12178e-07 -1.10078e-07 -8.94661e-08 -6.82429e-08 -4.64417e-08 -2.41065e-08 -1.27879e-09 2.19989e-08 4.56853e-08 6.9721e-08 9.40531e-08 1.18626e-07 1.43379e-07 1.68248e-07 1.93161e-07 2.18081e-07 2.42908e-07 2.67586e-07 2.9205e-07 3.16223e-07 3.40036e-07 3.63422e-07 3.86309e-07 4.08616e-07 4.3029e-07 4.5126e-07 4.71454e-07 4.90824e-07 5.09292e-07 5.26815e-07 5.43339e-07 5.58807e-07 5.7318e-07 5.86403e-07 5.98453e-07 6.09294e-07 6.18892e-07 6.27224e-07 6.41699e-07 6.29417e-07 6.15152e-07 5.95437e-07 5.72849e-07 5.48767e-07 5.23245e-07 4.96346e-07 4.68124e-07 4.38637e-07 4.07976e-07 3.76164e-07 3.43355e-07 3.09597e-07 2.74977e-07 2.3959e-07 2.03579e-07 1.66987e-07 1.29959e-07 9.2575e-08 5.49773e-08 1.72409e-08 -2.04933e-08 -5.81181e-08 -9.55165e-08 -1.32615e-07 -1.69285e-07 -2.0539e-07 -2.40885e-07 -2.75601e-07 -3.09503e-07 -3.42478e-07 -3.74447e-07 -4.05311e-07 -4.34974e-07 -4.63416e-07 -4.90543e-07 -5.16277e-07 -5.40633e-07 -5.63497e-07 0.000343507 0.00085061 0.00136748 0.00189351 0.00242802 0.00297018 0.00351926 0.00407441 0.00463452 0.00519869 0.00576597 0.00633508 0.00690486 0.00747408 0.00804154 0.00860586 0.00916565 0.00971948 0.0102659 0.0108036 0.0113309 0.0118465 
0.0119933 0.0124669 0.0129246 0.0133651 0.0137871 0.014189 0.0145696 0.0149277 0.0152618 0.0155712 0.0158544 0.0161107 0.0163391 0.0165387 0.0167088 0.0168488 0.0169584 0.0170369 0.017061 0.0170098 0.0169257 0.016809 0.0166599 0.0164788 0.0162662 0.0160226 0.0157489 0.015446 0.0151147 0.014756 0.0143715 0.0139618 0.0135287 0.0130735 0.0125974 0.0121023 0.0115893 0.0110604 0.010517 0.00996079 0.00939335 0.00881646 0.00823175 0.00764083 0.00704522 0.00644659 0.00584648 0.00524644 0.00464783 0.00405209 0.00346064 0.00287456 0.00229539 0.00172396 0.00116148 0.000608954 6.728e-05 -0.000462703 -0.00095035 -0.00139504 -0.0018248 -0.00208762 -0.00201407 -0.00193537 -0.00185169 -0.00176318 -0.00167008 -0.00157254 -0.00147087 -0.00136522 -0.00125601 -0.00114345 -0.00102781 -0.000909486 -0.000788794 -0.000666055 -0.000541646 -0.000415939 -0.000289267 -0.000162055 -3.46148e-05 9.26448e-05 0.000219317 0.000345085 0.000469551 0.000592406 0.000713236 0.000831744 0.000947606 0.00106052 0.00117016 0.00127625 0.00137858 0.00147686 0.00157088 0.00166045 0.0017454 0.00182555 0.0019008 0.00197098 0.002036 0.00205341 0.00204389 0.00203062 0.00201365 0.00199303 0.00196882 0.00194113 0.00191007 0.00187573 0.00183823 0.00179771 0.00175433 0.00170819 0.00165947 0.00160834 0.00155494 0.00149947 0.00144204 0.00138292 0.00132224 0.00126014 0.00119685 0.00113253 0.00106733 0.00100145 0.00093504 0.000868254 0.000801266 0.000734216 0.000667251 0.000600523 0.000534151 0.000468254 0.000402965 0.00033839 0.000274633 0.000211801 0.000149949 8.91912e-05 2.95858e-05 -1.63239e-07 -1.67775e-07 -1.72055e-07 -1.76117e-07 -1.79927e-07 -1.83492e-07 -1.86814e-07 -1.89895e-07 -1.92728e-07 -1.95301e-07 -1.97635e-07 -1.99706e-07 -2.01519e-07 -2.03084e-07 -2.0439e-07 -2.05438e-07 -2.06228e-07 -2.06767e-07 -2.07054e-07 -2.07085e-07 -2.0684e-07 -2.06373e-07 -2.0563e-07 -2.04634e-07 -2.03389e-07 -2.01889e-07 -2.00117e-07 -1.98122e-07 -1.95883e-07 -1.93355e-07 -1.90601e-07 -1.87589e-07 -1.84357e-07 -1.80875e-07 -1.77144e-07 -1.7319e-07 -1.68996e-07 -1.58857e-07 -1.35541e-07 -1.11642e-07 -1.09547e-07 -8.90339e-08 -6.79121e-08 -4.62151e-08 -2.39865e-08 -1.2678e-09 2.18988e-08 4.5472e-08 6.93929e-08 9.36087e-08 1.18064e-07 1.42698e-07 1.67449e-07 1.92244e-07 2.17044e-07 2.41753e-07 2.66312e-07 2.9066e-07 3.14717e-07 3.38417e-07 3.61691e-07 3.84468e-07 4.06668e-07 4.28238e-07 4.49109e-07 4.69207e-07 4.88484e-07 5.06863e-07 5.24302e-07 5.40747e-07 5.56141e-07 5.70446e-07 5.83605e-07 5.95597e-07 6.06387e-07 6.1594e-07 6.24231e-07 6.38645e-07 6.26428e-07 6.12236e-07 5.9262e-07 5.70144e-07 5.46181e-07 5.20786e-07 4.94019e-07 4.65937e-07 4.36596e-07 4.06085e-07 3.7443e-07 3.41783e-07 3.08191e-07 2.7374e-07 2.38527e-07 2.02691e-07 1.66278e-07 1.29432e-07 9.22313e-08 5.48165e-08 1.72638e-08 -2.02855e-08 -5.7728e-08 -9.49436e-08 -1.31862e-07 -1.68353e-07 -2.04283e-07 -2.39606e-07 -2.74153e-07 -3.07891e-07 -3.40707e-07 -3.72521e-07 -4.03235e-07 -4.32755e-07 -4.61061e-07 -4.88058e-07 -5.13667e-07 -5.37906e-07 -5.60662e-07 0.00033052 0.000823139 0.00132524 0.00183626 0.00235552 0.00288221 0.00341562 0.00395492 0.00449905 0.00504713 0.00559823 0.00615111 0.00670465 0.00725763 0.00780891 0.00835714 0.00890097 0.00943902 0.00996992 0.0104922 0.0110045 0.0115054 
0.0116122 0.0120709 0.0125143 0.0129409 0.0133496 0.0137389 0.0141075 0.0144543 0.014778 0.0150775 0.0153519 0.0156001 0.0158212 0.0160146 0.0161794 0.016315 0.016421 0.0164971 0.0165201 0.0164698 0.0163878 0.016274 0.0161289 0.0159528 0.0157461 0.0155095 0.0152437 0.0149495 0.0146278 0.0142798 0.0139065 0.0135091 0.0130889 0.0126472 0.0121854 0.0117051 0.0112076 0.0106946 0.0101676 0.00962818 0.00907797 0.00851859 0.00795167 0.00737874 0.00680133 0.006221 0.00563926 0.00505763 0.00447742 0.00390002 0.00332681 0.00275884 0.0021976 0.0016439 0.00109892 0.000563617 3.88643e-05 -0.000474521 -0.000946169 -0.00137622 -0.00179175 -0.00204225 -0.00197023 -0.00189318 -0.00181126 -0.00172461 -0.00163346 -0.00153798 -0.00143845 -0.00133504 -0.00122812 -0.00111795 -0.00100475 -0.000888932 -0.000770794 -0.000650655 -0.000528884 -0.000405841 -0.000281857 -0.000157345 -3.26107e-05 9.19456e-05 0.000215924 0.000339019 0.000460838 0.000581078 0.000699337 0.00081532 0.000928712 0.00103922 0.00114652 0.00125035 0.0013505 0.00144666 0.00153868 0.00162633 0.00170946 0.00178789 0.00186152 0.0019302 0.00199382 0.00201101 0.00200169 0.00198869 0.00197208 0.00195189 0.00192819 0.00190107 0.00187066 0.00183704 0.00180032 0.00176063 0.00171816 0.00167299 0.00162528 0.00157522 0.00152294 0.00146862 0.00141239 0.00135451 0.00129509 0.00123428 0.00117231 0.00110933 0.0010455 0.000980982 0.000915954 0.000850557 0.000784965 0.000719312 0.00065374 0.000588401 0.000523411 0.000458886 0.000394954 0.000331722 0.000269292 0.000207765 0.0001472 8.77051e-05 2.93378e-05 -1.62375e-07 -1.66881e-07 -1.71132e-07 -1.75166e-07 -1.7895e-07 -1.8249e-07 -1.85789e-07 -1.88847e-07 -1.9166e-07 -1.94214e-07 -1.9653e-07 -1.98585e-07 -2.00384e-07 -2.01935e-07 -2.0323e-07 -2.04268e-07 -2.05049e-07 -2.05581e-07 -2.05863e-07 -2.0589e-07 -2.05643e-07 -2.05175e-07 -2.04434e-07 -2.0344e-07 -2.02199e-07 -2.00704e-07 -1.98942e-07 -1.96955e-07 -1.94725e-07 -1.92211e-07 -1.8947e-07 -1.86473e-07 -1.83259e-07 -1.79796e-07 -1.76084e-07 -1.72152e-07 -1.67982e-07 -1.57908e-07 -1.34743e-07 -1.11e-07 -1.08836e-07 -8.84602e-08 -6.74801e-08 -4.59285e-08 -2.38489e-08 -1.28238e-09 2.1729e-08 4.51444e-08 6.8905e-08 9.29587e-08 1.17251e-07 1.4172e-07 1.66304e-07 1.90934e-07 2.15568e-07 2.40112e-07 2.64507e-07 2.88691e-07 3.12588e-07 3.36129e-07 3.59248e-07 3.81873e-07 4.03925e-07 4.25351e-07 4.46082e-07 4.66046e-07 4.85193e-07 5.03451e-07 5.20774e-07 5.3711e-07 5.524e-07 5.6661e-07 5.79682e-07 5.91594e-07 6.02312e-07 6.118e-07 6.20037e-07 6.34346e-07 6.22209e-07 6.08105e-07 5.88611e-07 5.66277e-07 5.42466e-07 5.17232e-07 4.90637e-07 4.62733e-07 4.33579e-07 4.03263e-07 3.71811e-07 3.39373e-07 3.05998e-07 2.71768e-07 2.36782e-07 2.01178e-07 1.64999e-07 1.28391e-07 9.143e-08 5.42579e-08 1.69483e-08 -2.03575e-08 -5.75566e-08 -9.45311e-08 -1.31209e-07 -1.67463e-07 -2.03159e-07 -2.38252e-07 -2.72574e-07 -3.06092e-07 -3.38693e-07 -3.70299e-07 -4.00812e-07 -4.30139e-07 -4.58258e-07 -4.85077e-07 -5.10517e-07 -5.34596e-07 -5.572e-07 0.000316774 0.000793858 0.00128013 0.00177503 0.00227793 0.00278801 0.00330462 0.00382693 0.00435392 0.00488474 0.00541847 0.00595394 0.00649005 0.00702563 0.00755955 0.00809052 0.00861723 0.00913834 0.0096525 0.0101584 0.0106545 0.0111397 
0.0111946 0.011637 0.0120645 0.0124759 0.01287 0.0132454 0.0136009 0.0139353 0.0142474 0.0145363 0.0148009 0.0150403 0.0152536 0.01544 0.0155989 0.0157297 0.015832 0.0159054 0.0159277 0.0158817 0.015805 0.015698 0.0155607 0.0153934 0.0151969 0.0149714 0.0147178 0.0144369 0.0141295 0.0137967 0.0134395 0.0130591 0.0126566 0.0122335 0.0117909 0.0113304 0.0108534 0.0103613 0.00985561 0.00933807 0.00880996 0.00827294 0.00772857 0.00717831 0.00662363 0.00606603 0.00550699 0.00494792 0.00439013 0.00383489 0.00328357 0.00273717 0.00219713 0.0016642 0.00113953 0.000624053 0.000118591 -0.000376063 -0.000830515 -0.00124724 -0.00165016 -0.00189092 -0.0018241 -0.00175262 -0.00167663 -0.00159626 -0.00151173 -0.00142318 -0.00133088 -0.00123498 -0.00113585 -0.00103369 -0.000928729 -0.000821348 -0.000711816 -0.000600433 -0.000487541 -0.00037347 -0.000258533 -0.000143108 -2.74784e-05 8.79832e-05 0.000202906 0.000317009 0.000429925 0.000541376 0.000650988 0.000758489 0.000863583 0.000966004 0.00106545 0.00116167 0.00125448 0.00134361 0.00142887 0.0015101 0.00158713 0.0016598 0.00172802 0.00179165 0.00185058 0.0018672 0.00185856 0.00184649 0.00183107 0.00181235 0.00179035 0.0017652 0.00173698 0.00170578 0.00167173 0.0016349 0.00159549 0.00155358 0.00150931 0.00146286 0.00141435 0.00136396 0.00131179 0.00125807 0.00120294 0.00114653 0.00108902 0.00103059 0.000971357 0.000911497 0.000851157 0.000790476 0.000729612 0.000668691 0.000607846 0.000547216 0.000486908 0.000427031 0.000367704 0.000309026 0.00025109 0.000193993 0.000137786 8.25718e-05 2.84023e-05 -1.57429e-07 -1.61903e-07 -1.66133e-07 -1.70155e-07 -1.73936e-07 -1.77484e-07 -1.80799e-07 -1.83883e-07 -1.86731e-07 -1.89329e-07 -1.91697e-07 -1.93813e-07 -1.9568e-07 -1.97308e-07 -1.98686e-07 -1.99815e-07 -2.00694e-07 -2.0133e-07 -2.01722e-07 -2.01864e-07 -2.01737e-07 -2.01395e-07 -2.00784e-07 -1.99925e-07 -1.98822e-07 -1.97469e-07 -1.95853e-07 -1.94013e-07 -1.91934e-07 -1.89573e-07 -1.86987e-07 -1.84147e-07 -1.81089e-07 -1.77784e-07 -1.74233e-07 -1.70461e-07 -1.66451e-07 -1.56609e-07 -1.33818e-07 -1.10454e-07 -1.07659e-07 -8.75174e-08 -6.67787e-08 -4.54751e-08 -2.36493e-08 -1.34218e-09 2.14049e-08 4.45513e-08 6.80393e-08 9.1817e-08 1.1583e-07 1.40019e-07 1.64322e-07 1.88668e-07 2.13021e-07 2.37283e-07 2.61399e-07 2.85307e-07 3.08931e-07 3.32202e-07 3.55056e-07 3.77423e-07 3.99223e-07 4.20405e-07 4.409e-07 4.60634e-07 4.79565e-07 4.97614e-07 5.14739e-07 5.30889e-07 5.46005e-07 5.60054e-07 5.72977e-07 5.84755e-07 5.95352e-07 6.04733e-07 6.12877e-07 6.26981e-07 6.14954e-07 6.00981e-07 5.81676e-07 5.59563e-07 5.35991e-07 5.1101e-07 4.84684e-07 4.57065e-07 4.28209e-07 3.98206e-07 3.67078e-07 3.34975e-07 3.01947e-07 2.68074e-07 2.33452e-07 1.98221e-07 1.62423e-07 1.26201e-07 8.96296e-08 5.28502e-08 1.59373e-08 -2.09727e-08 -5.77763e-08 -9.43557e-08 -1.30642e-07 -1.66507e-07 -2.01819e-07 -2.36533e-07 -2.70485e-07 -3.03639e-07 -3.35886e-07 -3.67148e-07 -3.97327e-07 -4.26331e-07 -4.54141e-07 -4.80662e-07 -5.05819e-07 -5.29628e-07 -5.51978e-07 0.000302211 0.000762251 0.00123116 0.00170839 0.00219332 0.0026852 0.00318336 0.00368703 0.0041952 0.00470708 0.00522178 0.00573814 0.00625511 0.00677158 0.00728647 0.0077985 0.00830642 0.00880894 0.00930477 0.00979261 0.0102711 0.0107389 
0.0107059 0.011129 0.0115381 0.0119316 0.0123086 0.0126677 0.0130079 0.0133278 0.0136263 0.0139027 0.0141558 0.0143848 0.0145888 0.0147672 0.0149192 0.0150444 0.0151421 0.0152123 0.0152353 0.0152006 0.0151367 0.0150439 0.0149224 0.0147722 0.0145943 0.0143888 0.0141565 0.0138981 0.0136145 0.0133065 0.0129753 0.0126218 0.0122472 0.0118528 0.0114396 0.0110093 0.010563 0.0101022 0.00962818 0.00914252 0.00864654 0.00814177 0.00762967 0.00711164 0.006589 0.00606321 0.00553561 0.00500758 0.00448031 0.00395502 0.00343298 0.00291515 0.00240286 0.00189685 0.00139817 0.000907715 0.000426264 -4.54254e-05 -0.000482438 -0.000889195 -0.0012835 -0.00152044 -0.0014669 -0.00140961 -0.00134871 -0.00128428 -0.00121652 -0.00114553 -0.00107153 -0.000994635 -0.000915144 -0.000833218 -0.000749052 -0.000662935 -0.000575088 -0.000485753 -0.000395205 -0.000303707 -0.000211509 -0.000118918 -2.61568e-05 6.64715e-05 0.000158675 0.000250224 0.000340825 0.000430253 0.000518214 0.000604485 0.00068883 0.000771036 0.000850856 0.000928103 0.00100261 0.00107417 0.00114264 0.00120787 0.00126974 0.00132812 0.00138293 0.00143406 0.00148144 0.00149663 0.00148972 0.00148005 0.0014677 0.00145271 0.0014351 0.00141496 0.00139236 0.00136738 0.0013401 0.00131061 0.00127906 0.0012455 0.00121005 0.00117285 0.00113401 0.00109365 0.00105187 0.00100886 0.000964708 0.000919528 0.000873481 0.000826682 0.000779249 0.000731311 0.000682988 0.000634392 0.000585648 0.000536857 0.000488127 0.000439569 0.000391267 0.000343311 0.000295794 0.000248795 0.00020239 0.000156656 0.000111635 6.74067e-05 2.40141e-05 -1.22204e-07 -1.26757e-07 -1.31144e-07 -1.35389e-07 -1.39466e-07 -1.43378e-07 -1.47125e-07 -1.50703e-07 -1.54108e-07 -1.57326e-07 -1.6037e-07 -1.6322e-07 -1.65876e-07 -1.68341e-07 -1.70604e-07 -1.72664e-07 -1.74516e-07 -1.76161e-07 -1.77597e-07 -1.78816e-07 -1.79799e-07 -1.80584e-07 -1.81127e-07 -1.8144e-07 -1.81523e-07 -1.81371e-07 -1.80967e-07 -1.80342e-07 -1.7948e-07 -1.78344e-07 -1.76979e-07 -1.75358e-07 -1.73508e-07 -1.71405e-07 -1.69047e-07 -1.66453e-07 -1.6361e-07 -1.55023e-07 -1.33724e-07 -1.1184e-07 -1.05539e-07 -8.57945e-08 -6.5464e-08 -4.45796e-08 -2.31834e-08 -1.31539e-09 2.09839e-08 4.36748e-08 6.67004e-08 9.00101e-08 1.13551e-07 1.37263e-07 1.61088e-07 1.84955e-07 2.08829e-07 2.32613e-07 2.56254e-07 2.79692e-07 3.0285e-07 3.25664e-07 3.48069e-07 3.69996e-07 3.91366e-07 4.1213e-07 4.32222e-07 4.51568e-07 4.70126e-07 4.8782e-07 5.04608e-07 5.2044e-07 5.35259e-07 5.49031e-07 5.617e-07 5.73246e-07 5.83634e-07 5.92831e-07 6.00814e-07 6.14609e-07 6.02788e-07 5.89069e-07 5.7013e-07 5.48437e-07 5.25314e-07 5.0081e-07 4.74987e-07 4.47897e-07 4.19594e-07 3.90166e-07 3.59636e-07 3.2815e-07 2.95756e-07 2.62535e-07 2.28581e-07 1.9403e-07 1.58922e-07 1.23398e-07 8.75335e-08 5.14647e-08 1.5266e-08 -2.09304e-08 -5.70199e-08 -9.2891e-08 -1.28473e-07 -1.63643e-07 -1.98269e-07 -2.32309e-07 -2.656e-07 -2.98109e-07 -3.29727e-07 -3.60379e-07 -3.8997e-07 -4.18407e-07 -4.45672e-07 -4.71674e-07 -4.96337e-07 -5.19678e-07 -5.41588e-07 0.000286075 0.000726137 0.00117469 0.0016312 0.00209508 0.0025656 0.00304214 0.00352395 0.00401007 0.00449974 0.00499211 0.00548605 0.00598061 0.00647466 0.00696722 0.00745704 0.00794294 0.00842366 0.00889798 0.00936467 0.0098224 0.0102699 
0.0102002 0.0106035 0.0109933 0.0113684 0.0117278 0.01207 0.0123941 0.0126991 0.0129836 0.0132471 0.0134883 0.0137065 0.0139011 0.014071 0.014216 0.0143353 0.0144285 0.0144953 0.0145187 0.0144952 0.0144441 0.0143655 0.0142598 0.0141271 0.0139678 0.0137824 0.0135716 0.013336 0.0130764 0.0127938 0.0124888 0.0121627 0.0118164 0.0114512 0.0110681 0.0106684 0.0102533 0.00982435 0.00938257 0.00892947 0.00846628 0.00799444 0.0075153 0.00703017 0.00654028 0.00604701 0.00555159 0.00505534 0.00455934 0.00406474 0.00357273 0.00308421 0.00260042 0.00212206 0.00165011 0.00118542 0.000728708 0.000280705 -0.000138138 -0.000534174 -0.000919123 -0.00115157 -0.00111125 -0.00106809 -0.00102219 -0.000973641 -0.000922565 -0.000869048 -0.00081326 -0.000755288 -0.00069535 -0.000633568 -0.000570094 -0.000505143 -0.00043888 -0.000371493 -0.000303187 -0.000234156 -0.000164593 -9.473e-05 -2.47328e-05 4.51667e-05 0.000114755 0.000183854 0.000252241 0.000319747 0.000386154 0.000451293 0.000514984 0.000577064 0.000637352 0.000695703 0.000751993 0.00080607 0.000857811 0.000907122 0.000953897 0.00099805 0.00103951 0.00107821 0.00111407 0.00112784 0.00112263 0.00111537 0.00110608 0.00109479 0.00108154 0.00106638 0.00104939 0.00103059 0.00101007 0.000987883 0.000964139 0.000938883 0.000912216 0.000884225 0.000854997 0.000824631 0.000793197 0.000760834 0.000727611 0.000693615 0.000658966 0.00062375 0.000588058 0.000551985 0.00051562 0.00047905 0.000442369 0.000405652 0.000368978 0.000332433 0.000296081 0.000259988 0.000224224 0.000188849 0.000153921 0.000119494 8.5605e-05 5.23098e-05 1.96426e-05 -8.70297e-08 -9.16606e-08 -9.62012e-08 -1.00667e-07 -1.05037e-07 -1.09311e-07 -1.13485e-07 -1.17555e-07 -1.21514e-07 -1.25349e-07 -1.29065e-07 -1.32645e-07 -1.36085e-07 -1.39384e-07 -1.42528e-07 -1.45516e-07 -1.48336e-07 -1.50987e-07 -1.53463e-07 -1.55754e-07 -1.57842e-07 -1.5975e-07 -1.61442e-07 -1.62923e-07 -1.64191e-07 -1.65234e-07 -1.66039e-07 -1.66627e-07 -1.66976e-07 -1.67063e-07 -1.66916e-07 -1.66511e-07 -1.65865e-07 -1.6496e-07 -1.63794e-07 -1.62374e-07 -1.60695e-07 -1.53363e-07 -1.33562e-07 -1.13162e-07 -1.0338e-07 -8.40393e-08 -6.41245e-08 -4.36671e-08 -2.27084e-08 -1.28754e-09 2.05558e-08 4.27827e-08 6.53375e-08 8.81706e-08 1.1123e-07 1.34458e-07 1.57795e-07 1.81174e-07 2.04559e-07 2.27858e-07 2.51016e-07 2.73974e-07 2.96659e-07 3.19006e-07 3.40952e-07 3.6243e-07 3.83364e-07 4.03704e-07 4.23385e-07 4.42335e-07 4.60514e-07 4.77846e-07 4.94291e-07 5.09799e-07 5.24315e-07 5.37806e-07 5.50216e-07 5.61525e-07 5.71702e-07 5.8071e-07 5.8853e-07 6.02013e-07 5.90402e-07 5.76942e-07 5.58377e-07 5.37115e-07 5.14449e-07 4.90433e-07 4.65123e-07 4.38572e-07 4.10833e-07 3.81992e-07 3.52071e-07 3.21215e-07 2.89469e-07 2.56914e-07 2.2364e-07 1.8978e-07 1.55377e-07 1.20567e-07 8.54226e-08 5.0079e-08 1.46069e-08 -2.08606e-08 -5.62236e-08 -9.13717e-08 -1.26237e-07 -1.60696e-07 -1.94624e-07 -2.27976e-07 -2.60594e-07 -2.92445e-07 -3.23424e-07 -3.53454e-07 -3.82443e-07 -4.10303e-07 -4.37014e-07 -4.62487e-07 -4.86647e-07 -5.09512e-07 -5.30972e-07 0.000269333 0.000688723 0.00111621 0.00155127 0.00199338 0.00244181 0.00289597 0.00335518 0.00381848 0.00428516 0.00475442 0.0052252 0.00569655 0.00616742 0.00663687 0.00710371 0.00756682 0.00802499 0.00847706 0.00892185 0.00935812 0.00978464 
0.00967827 0.0100611 0.0104312 0.0107872 0.0111283 0.0114533 0.0117609 0.0120504 0.0123206 0.0125705 0.0127995 0.0130067 0.0131913 0.0133527 0.0134902 0.0136034 0.0136919 0.0137554 0.0137793 0.0137668 0.0137285 0.0136642 0.0135743 0.0134589 0.0133185 0.0131534 0.0129643 0.0127518 0.0125165 0.0122592 0.011981 0.0116826 0.0113651 0.0110294 0.0106768 0.0103083 0.00992509 0.00952842 0.00911944 0.00869948 0.00826968 0.00783139 0.00738585 0.00693427 0.0064778 0.00601772 0.00555518 0.00509138 0.00462733 0.00416413 0.00370285 0.00324433 0.00278976 0.00233975 0.00189523 0.00145699 0.0010257 0.000602073 0.000202097 -0.000182486 -0.000557353 -0.000784675 -0.000757484 -0.00072837 -0.000697402 -0.000664634 -0.000630152 -0.000594015 -0.000556336 -0.000517178 -0.000476681 -0.000434929 -0.000392032 -0.00034813 -0.000303331 -0.000257769 -0.000211579 -0.000164892 -0.000117839 -7.05775e-05 -2.32178e-05 2.40793e-05 7.11775e-05 0.000117949 0.000164248 0.000209953 0.000254925 0.000299048 0.000342197 0.000384264 0.000425126 0.000464687 0.000502857 0.000539544 0.000574652 0.000608127 0.000639894 0.000669896 0.000698083 0.000724407 0.000748826 0.000761157 0.000757654 0.000752765 0.000746515 0.000738922 0.000730008 0.000719813 0.000708377 0.00069573 0.000681922 0.000666998 0.000651022 0.000634028 0.000616086 0.000597253 0.000577586 0.000557153 0.000536005 0.000514227 0.000491872 0.000468996 0.000445678 0.000421979 0.000397961 0.000373683 0.00034921 0.000324597 0.000299908 0.000275194 0.000250509 0.000225908 0.000201436 0.000177138 0.00015306 0.000129243 0.000105725 8.2542e-05 5.97202e-05 3.72953e-05 1.52918e-05 -5.19572e-08 -5.66629e-08 -6.13548e-08 -6.60375e-08 -7.06977e-08 -7.53295e-08 -7.99281e-08 -8.44855e-08 -8.89933e-08 -9.344e-08 -9.78242e-08 -1.02129e-07 -1.06349e-07 -1.10477e-07 -1.14497e-07 -1.18406e-07 -1.22189e-07 -1.25839e-07 -1.29351e-07 -1.32708e-07 -1.35895e-07 -1.3892e-07 -1.41756e-07 -1.44399e-07 -1.46844e-07 -1.49078e-07 -1.51087e-07 -1.5288e-07 -1.54436e-07 -1.55741e-07 -1.56806e-07 -1.57611e-07 -1.58166e-07 -1.58454e-07 -1.58474e-07 -1.58226e-07 -1.57706e-07 -1.51627e-07 -1.33326e-07 -1.14414e-07 -1.01181e-07 -8.22515e-08 -6.276e-08 -4.27375e-08 -2.22243e-08 -1.2587e-09 2.01203e-08 4.18748e-08 6.39502e-08 8.6298e-08 1.08867e-07 1.31601e-07 1.54442e-07 1.77325e-07 2.00213e-07 2.23017e-07 2.45681e-07 2.68152e-07 2.90355e-07 3.12226e-07 3.33707e-07 3.54728e-07 3.75217e-07 3.95125e-07 4.14387e-07 4.32935e-07 4.50727e-07 4.67691e-07 4.83786e-07 4.98965e-07 5.13173e-07 5.26376e-07 5.38522e-07 5.49591e-07 5.59551e-07 5.68369e-07 5.76022e-07 5.89188e-07 5.77794e-07 5.64602e-07 5.46418e-07 5.25593e-07 5.03396e-07 4.79876e-07 4.55091e-07 4.2909e-07 4.01927e-07 3.73684e-07 3.44386e-07 3.14171e-07 2.83086e-07 2.51209e-07 2.18629e-07 1.85475e-07 1.51791e-07 1.17707e-07 8.32974e-08 4.86926e-08 1.39636e-08 -2.07608e-08 -5.53835e-08 -8.97948e-08 -1.23928e-07 -1.57665e-07 -1.9088e-07 -2.23531e-07 -2.55463e-07 -2.86644e-07 -3.1697e-07 -3.46367e-07 -3.74745e-07 -4.02017e-07 -4.28162e-07 -4.53096e-07 -4.76744e-07 -4.99123e-07 -5.20128e-07 0.000252016 0.000650077 0.00105582 0.00146877 0.0018884 0.00231404 0.00274512 0.00318098 0.00362074 0.00406371 0.00450913 0.00495599 0.00540339 0.00585035 0.00629595 0.00673909 0.00717868 0.00761357 0.00804269 0.0084649 0.00887901 0.00928388 
0.00914105 0.00950284 0.00985253 0.010189 0.0105113 0.0108183 0.011109 0.0113826 0.0116378 0.0118741 0.0120905 0.0122863 0.0124607 0.0126132 0.0127432 0.0128502 0.0129338 0.0129938 0.013018 0.0130166 0.0129908 0.0129408 0.0128668 0.0127688 0.0126473 0.0125026 0.0123353 0.0121461 0.0119354 0.0117039 0.0114527 0.0111824 0.0108938 0.0105883 0.0102664 0.0099296 0.00957866 0.00921485 0.00883918 0.0084529 0.00805706 0.00765288 0.00724151 0.0068241 0.00640166 0.00597539 0.00554635 0.00511565 0.00468422 0.00425305 0.00382315 0.0033953 0.00297059 0.0025496 0.00213317 0.00172204 0.00131683 0.000918217 0.000537777 0.000165359 -0.000198717 -0.000420276 -0.000406128 -0.000390961 -0.000374813 -0.000357715 -0.000339709 -0.000320828 -0.000301129 -0.00028065 -0.000259457 -0.000237594 -0.000215129 -0.000192125 -0.00016864 -0.000144747 -0.000120519 -9.60167e-05 -7.1315e-05 -4.64957e-05 -2.16141e-05 3.23956e-06 2.80057e-05 5.26083e-05 7.69709e-05 0.000101028 0.000124716 0.000147971 0.000170722 0.000192916 0.000214488 0.000235388 0.000255565 0.000274983 0.000293576 0.000311326 0.000328186 0.000344135 0.000359138 0.000373175 0.000386225 0.000397124 0.000395312 0.000392784 0.000389551 0.000385623 0.000381014 0.000375743 0.000369829 0.000363287 0.000356145 0.000348428 0.000340164 0.000331374 0.000322093 0.000312352 0.000302177 0.000291606 0.000280667 0.000269398 0.000257832 0.000245995 0.000233928 0.000221662 0.000209233 0.000196667 0.000183997 0.000171255 0.000158472 0.000145675 0.000132892 0.000120149 0.000107471 9.48835e-05 8.24063e-05 7.00626e-05 5.78721e-05 4.58518e-05 3.40179e-05 2.23846e-05 1.09679e-05 -1.70328e-08 -2.18107e-08 -2.66506e-08 -3.15471e-08 -3.64933e-08 -4.14786e-08 -4.64969e-08 -5.15367e-08 -5.65885e-08 -6.16418e-08 -6.66878e-08 -7.1712e-08 -7.67053e-08 -8.16547e-08 -8.65443e-08 -9.13687e-08 -9.61075e-08 -1.0075e-07 -1.05289e-07 -1.09706e-07 -1.13984e-07 -1.18119e-07 -1.22091e-07 -1.25889e-07 -1.29503e-07 -1.32921e-07 -1.36126e-07 -1.39117e-07 -1.41873e-07 -1.44389e-07 -1.46659e-07 -1.48668e-07 -1.50416e-07 -1.51892e-07 -1.53093e-07 -1.54009e-07 -1.54642e-07 -1.49815e-07 -1.33014e-07 -1.15591e-07 -9.89426e-08 -8.04311e-08 -6.13706e-08 -4.17906e-08 -2.17309e-08 -1.22887e-09 1.96775e-08 4.09511e-08 6.25384e-08 8.43921e-08 1.06462e-07 1.28694e-07 1.5103e-07 1.73406e-07 1.95788e-07 2.18088e-07 2.40252e-07 2.62225e-07 2.83937e-07 3.05326e-07 3.26331e-07 3.46888e-07 3.66924e-07 3.86391e-07 4.05228e-07 4.23366e-07 4.40764e-07 4.57353e-07 4.73092e-07 4.87935e-07 5.01829e-07 5.1474e-07 5.26618e-07 5.37443e-07 5.47182e-07 5.55804e-07 5.63289e-07 5.76136e-07 5.64965e-07 5.52045e-07 5.34251e-07 5.13874e-07 4.92155e-07 4.69141e-07 4.4489e-07 4.1945e-07 3.92874e-07 3.65243e-07 3.36579e-07 3.07019e-07 2.76608e-07 2.45423e-07 2.13549e-07 1.81116e-07 1.48163e-07 1.14822e-07 8.1161e-08 4.73097e-08 1.33371e-08 -2.06307e-08 -5.44987e-08 -8.81591e-08 -1.21548e-07 -1.54547e-07 -1.87036e-07 -2.18973e-07 -2.50206e-07 -2.80704e-07 -3.10365e-07 -3.39118e-07 -3.66873e-07 -3.93545e-07 -4.19115e-07 -4.435e-07 -4.66626e-07 -4.88512e-07 -5.09051e-07 0.000234153 0.000610258 0.000993628 0.0013838 0.0017803 0.00218247 0.0025898 0.00300164 0.00341716 0.00383572 0.0042566 0.00467884 0.0051016 0.00552393 0.00594499 0.00636372 0.0067791 0.00719005 0.00759554 0.00799449 0.0083858 0.00876838 
0.00858931 0.00892945 0.00925821 0.00957456 0.00987756 0.0101663 0.0104395 0.0106967 0.0109367 0.0111588 0.0113623 0.0115464 0.0117104 0.0118538 0.0119759 0.0120765 0.0121551 0.0122115 0.012236 0.0122455 0.0122323 0.0121966 0.0121384 0.0120578 0.0119554 0.0118313 0.011686 0.01152 0.0113341 0.0111287 0.0109046 0.0106627 0.0104036 0.0101284 0.00983788 0.00953302 0.0092148 0.00888427 0.00854239 0.00819029 0.00782891 0.00745937 0.00708273 0.00670003 0.00631219 0.00592031 0.00552536 0.00512834 0.00473014 0.00433161 0.00393371 0.00353714 0.00314292 0.00275155 0.00236382 0.00198041 0.00160191 0.00122892 0.000868645 0.000509081 0.000156479 -5.87034e-05 -5.74918e-05 -5.61587e-05 -5.47113e-05 -5.3156e-05 -5.14916e-05 -4.97268e-05 -4.78625e-05 -4.5912e-05 -4.38669e-05 -4.17335e-05 -3.95351e-05 -3.72618e-05 -3.49173e-05 -3.25222e-05 -3.00777e-05 -2.75833e-05 -2.50534e-05 -2.24968e-05 -1.99133e-05 -1.73237e-05 -1.4711e-05 -1.21009e-05 -9.49804e-06 -6.91603e-06 -4.34238e-06 -1.79071e-06 7.24537e-07 3.20369e-06 5.6395e-06 8.02686e-06 1.03541e-05 1.26398e-05 1.48465e-05 1.69941e-05 1.90669e-05 2.10731e-05 2.29952e-05 2.48416e-05 2.66124e-05 3.6076e-05 3.59428e-05 3.57563e-05 3.55163e-05 3.52225e-05 3.48824e-05 3.44951e-05 3.40585e-05 3.35717e-05 3.30406e-05 3.24712e-05 3.18558e-05 3.12011e-05 3.05117e-05 2.97867e-05 2.90257e-05 2.82356e-05 2.74229e-05 2.65763e-05 2.57097e-05 2.4823e-05 2.39133e-05 2.29872e-05 2.20507e-05 2.10995e-05 2.01371e-05 1.91688e-05 1.81943e-05 1.72155e-05 1.6236e-05 1.52534e-05 1.42739e-05 1.33e-05 1.23286e-05 1.13643e-05 1.04086e-05 9.45877e-06 8.52257e-06 7.59228e-06 6.6753e-06 1.77067e-08 1.28597e-08 7.87514e-09 2.76876e-09 -2.45908e-09 -7.79317e-09 -1.32259e-08 -1.87425e-08 -2.43326e-08 -2.99863e-08 -3.56875e-08 -4.14239e-08 -4.71834e-08 -5.29473e-08 -5.86984e-08 -6.44298e-08 -7.01164e-08 -7.57435e-08 -8.13008e-08 -8.67683e-08 -9.21299e-08 -9.73653e-08 -1.02466e-07 -1.0741e-07 -1.12184e-07 -1.16777e-07 -1.2117e-07 -1.2535e-07 -1.29298e-07 -1.33015e-07 -1.36483e-07 -1.39687e-07 -1.4262e-07 -1.45276e-07 -1.4765e-07 -1.49723e-07 -1.51503e-07 -1.47921e-07 -1.32622e-07 -1.16689e-07 -9.66636e-08 -7.8578e-08 -5.99559e-08 -4.08266e-08 -2.12284e-08 -1.19801e-09 1.92274e-08 4.00114e-08 6.11021e-08 8.2453e-08 1.04015e-07 1.25735e-07 1.47557e-07 1.69419e-07 1.91286e-07 2.13073e-07 2.34727e-07 2.56194e-07 2.77407e-07 2.98303e-07 3.18825e-07 3.38909e-07 3.58484e-07 3.77504e-07 3.95907e-07 4.13627e-07 4.30625e-07 4.46832e-07 4.6221e-07 4.76711e-07 4.90285e-07 5.029e-07 5.14504e-07 5.25079e-07 5.34595e-07 5.43019e-07 5.50331e-07 5.62854e-07 5.51913e-07 5.39272e-07 5.21876e-07 5.01955e-07 4.80722e-07 4.58225e-07 4.34519e-07 4.09652e-07 3.83675e-07 3.56666e-07 3.28648e-07 2.99756e-07 2.70032e-07 2.39551e-07 2.08399e-07 1.767e-07 1.44493e-07 1.11906e-07 7.90092e-08 4.59247e-08 1.27237e-08 -2.04736e-08 -5.35718e-08 -8.64673e-08 -1.19097e-07 -1.51346e-07 -1.83095e-07 -2.14304e-07 -2.44826e-07 -2.74628e-07 -3.03612e-07 -3.31708e-07 -3.58828e-07 -3.84891e-07 -4.09875e-07 -4.337e-07 -4.56296e-07 -4.77678e-07 -4.97746e-07 0.000215777 0.000569334 0.000929721 0.00129652 0.00166926 0.00204733 0.00243025 0.00281743 0.00320805 0.00360154 0.00399723 0.00439418 0.00479162 0.00518867 0.00558453 0.00597819 0.00636871 0.00675507 0.00713628 0.00751136 0.00787926 0.00823893 
0.00802398 0.00834194 0.00864927 0.00894499 0.00922823 0.00949809 0.00975359 0.00999402 0.0102183 0.010426 0.0106162 0.0107883 0.0109415 0.0110756 0.0111898 0.0112838 0.0113573 0.0114101 0.0114347 0.011455 0.0114543 0.0114327 0.0113903 0.0113272 0.0112438 0.0111404 0.0110172 0.0108748 0.0107137 0.0105345 0.010338 0.0101247 0.00989529 0.00965077 0.00939183 0.00911935 0.00883422 0.0085374 0.00822973 0.00791224 0.00758577 0.00725136 0.00690992 0.00656244 0.00620971 0.00585275 0.00549243 0.00512965 0.00476521 0.00439988 0.00403454 0.00366981 0.00330663 0.00294547 0.00258701 0.0022319 0.00188065 0.00153385 0.00119435 0.000848306 0.000507837 0.00029962 0.000288016 0.000275644 0.000262528 0.000248685 0.000234159 0.000218965 0.00020316 0.000186753 0.000169827 0.000152414 0.000134533 0.000116266 9.76645e-05 7.8761e-05 5.96215e-05 4.03111e-05 2.08731e-05 1.3717e-06 -1.8138e-05 -3.76077e-05 -5.69452e-05 -7.61255e-05 -9.50832e-05 -0.000113779 -0.000132127 -0.000150088 -0.000167623 -0.000184679 -0.000201205 -0.000217161 -0.000232521 -0.000247211 -0.000261241 -0.000274553 -0.000287134 -0.000298944 -0.000309984 -0.000320218 -0.000329626 -0.000321594 -0.000320065 -0.000317932 -0.000315207 -0.000311901 -0.000308012 -0.000303561 -0.000298572 -0.00029306 -0.000287042 -0.00028053 -0.000273569 -0.000266165 -0.000258343 -0.000250136 -0.000241571 -0.000232673 -0.000223454 -0.000213976 -0.000204243 -0.000194283 -0.000184139 -0.000173833 -0.000163383 -0.000152828 -0.000142193 -0.000131498 -0.000120775 -0.000110045 -9.93318e-05 -8.8664e-05 -7.80556e-05 -6.75243e-05 -5.70976e-05 -4.6789e-05 -3.66152e-05 -2.65983e-05 -1.67387e-05 -7.06634e-06 2.41821e-06 5.22057e-08 4.72928e-08 4.21675e-08 3.68556e-08 3.13511e-08 2.56737e-08 1.98324e-08 1.38454e-08 7.7241e-09 1.47745e-09 -4.87134e-09 -1.13118e-08 -1.78287e-08 -2.43981e-08 -3.10017e-08 -3.76305e-08 -4.42548e-08 -5.08563e-08 -5.74222e-08 -6.393e-08 -7.0364e-08 -7.66899e-08 -8.2907e-08 -8.89863e-08 -9.49116e-08 -1.00667e-07 -1.06237e-07 -1.11596e-07 -1.16725e-07 -1.21634e-07 -1.26289e-07 -1.30679e-07 -1.34788e-07 -1.38614e-07 -1.42151e-07 -1.45373e-07 -1.4829e-07 -1.45948e-07 -1.32149e-07 -1.17705e-07 -9.43447e-08 -7.66924e-08 -5.85164e-08 -3.98453e-08 -2.07165e-08 -1.16607e-09 1.87699e-08 3.90561e-08 5.96415e-08 8.04809e-08 1.01527e-07 1.22726e-07 1.44026e-07 1.65364e-07 1.86707e-07 2.07971e-07 2.29106e-07 2.5006e-07 2.70764e-07 2.9116e-07 3.1119e-07 3.30793e-07 3.49899e-07 3.68462e-07 3.86425e-07 4.0372e-07 4.20311e-07 4.3613e-07 4.51139e-07 4.65293e-07 4.78542e-07 4.90854e-07 5.0218e-07 5.12503e-07 5.2179e-07 5.30012e-07 5.37149e-07 5.49347e-07 5.3864e-07 5.26285e-07 5.09295e-07 4.89839e-07 4.69103e-07 4.47134e-07 4.23983e-07 3.997e-07 3.74332e-07 3.47958e-07 3.20599e-07 2.92387e-07 2.63363e-07 2.33601e-07 2.03183e-07 1.72231e-07 1.40785e-07 1.08968e-07 7.68473e-08 4.45459e-08 1.21289e-08 -2.02818e-08 -5.25971e-08 -8.47135e-08 -1.1657e-07 -1.48054e-07 -1.7905e-07 -2.09519e-07 -2.39316e-07 -2.6841e-07 -2.96705e-07 -3.24132e-07 -3.50607e-07 -3.76047e-07 -4.00436e-07 -4.23692e-07 -4.45749e-07 -4.66619e-07 -4.86205e-07 0.000196925 0.000527378 0.000864221 0.00120705 0.00155545 0.00190883 0.00226675 0.00262865 0.00299378 0.00336158 0.00373145 0.00410249 0.00447401 0.00484515 0.00521518 0.00558316 0.00594821 0.00630936 0.00666571 0.00701634 0.00736023 0.00769646 
0.00744597 0.00774125 0.00802666 0.00830129 0.00856434 0.00881495 0.00905222 0.0092755 0.00948384 0.00967666 0.00985328 0.0100131 0.0101555 0.01028 0.010386 0.0104734 0.0105416 0.0105906 0.0106154 0.0106463 0.0106581 0.0106505 0.010624 0.0105784 0.0105139 0.0104311 0.0103301 0.0102114 0.0100754 0.0099226 0.00975368 0.00956922 0.00936978 0.00915622 0.00892916 0.00868938 0.00843768 0.00817492 0.00790183 0.00761934 0.0073282 0.00702934 0.00672356 0.00641174 0.00609458 0.00577302 0.00544779 0.00511975 0.00478958 0.00445796 0.00412569 0.00379333 0.00346172 0.00313127 0.0028026 0.00247632 0.00215286 0.00183278 0.00151462 0.00118272 0.000855017 0.000654331 0.000630044 0.000604109 0.000576581 0.0005475 0.00051695 0.000484975 0.000451682 0.000417107 0.000381405 0.000344647 0.000306893 0.000268299 0.000228967 0.000188984 0.000148482 0.000107591 6.64115e-05 2.50787e-05 -1.62973e-05 -5.76003e-05 -9.86618e-05 -0.000139409 -0.000179706 -0.000219463 -0.000258516 -0.000296781 -0.000334161 -0.000370551 -0.000405845 -0.000439957 -0.000472825 -0.000504318 -0.000534419 -0.000563033 -0.000590118 -0.000615605 -0.000639476 -0.000661667 -0.00068214 -0.000675537 -0.000672363 -0.000667934 -0.000662276 -0.000655407 -0.000647332 -0.000638094 -0.000627736 -0.000616288 -0.00060379 -0.000590271 -0.000575812 -0.000560432 -0.00054419 -0.000527144 -0.00050935 -0.000490863 -0.000471717 -0.000452023 -0.0004318 -0.000411107 -0.000390026 -0.000368603 -0.000346886 -0.000324945 -0.000302834 -0.000280597 -0.000258298 -0.000235984 -0.000213699 -0.000191502 -0.000169427 -0.000147511 -0.000125804 -0.000104341 -8.31537e-05 -6.22844e-05 -4.17418e-05 -2.15773e-05 -1.79975e-06 8.64272e-08 8.14519e-08 7.61901e-08 7.06775e-08 6.49016e-08 5.88869e-08 5.26439e-08 4.61936e-08 3.95487e-08 3.27172e-08 2.57297e-08 1.85943e-08 1.13294e-08 3.96433e-09 -3.48114e-09 -1.09967e-08 -1.85479e-08 -2.61125e-08 -3.36756e-08 -4.1212e-08 -4.87068e-08 -5.6111e-08 -6.34329e-08 -7.06355e-08 -7.76988e-08 -8.46058e-08 -9.13408e-08 -9.78674e-08 -1.04166e-07 -1.10254e-07 -1.16084e-07 -1.21649e-07 -1.26922e-07 -1.31907e-07 -1.36598e-07 -1.40957e-07 -1.45001e-07 -1.43891e-07 -1.31589e-07 -1.18632e-07 -9.1985e-08 -7.47735e-08 -5.70515e-08 -3.88465e-08 -2.01955e-08 -1.13317e-09 1.8305e-08 3.80846e-08 5.8156e-08 7.84749e-08 9.89953e-08 1.19665e-07 1.40433e-07 1.61238e-07 1.82048e-07 2.02781e-07 2.23389e-07 2.43819e-07 2.64006e-07 2.83893e-07 3.03423e-07 3.22535e-07 3.41165e-07 3.59264e-07 3.76779e-07 3.93642e-07 4.09819e-07 4.25243e-07 4.39877e-07 4.53677e-07 4.66595e-07 4.78599e-07 4.89643e-07 4.99707e-07 5.08762e-07 5.16779e-07 5.23738e-07 5.35606e-07 5.25142e-07 5.13079e-07 4.96503e-07 4.77521e-07 4.57291e-07 4.35859e-07 4.13275e-07 3.89587e-07 3.6484e-07 3.39114e-07 3.12426e-07 2.84907e-07 2.56596e-07 2.27566e-07 1.97896e-07 1.67707e-07 1.37034e-07 1.06002e-07 7.46724e-08 4.31676e-08 1.15507e-08 -2.00604e-08 -5.15777e-08 -8.29007e-08 -1.13969e-07 -1.44675e-07 -1.74905e-07 -2.04619e-07 -2.33678e-07 -2.62051e-07 -2.89644e-07 -3.16391e-07 -3.42209e-07 -3.67017e-07 -3.90799e-07 -4.13476e-07 -4.34983e-07 -4.55332e-07 -4.74429e-07 0.00017763 0.000484463 0.000797232 0.00111557 0.00143908 0.00176722 0.00209957 0.00243563 0.00277468 0.00311623 0.00345968 0.00380426 0.00414926 0.0044939 0.00483753 0.00517926 0.00551826 0.00585365 0.00618458 0.00651019 0.00682955 0.0071418 
0.00685448 0.00712656 0.00738954 0.00764259 0.00788497 0.0081159 0.00833452 0.00854026 0.00873223 0.00890989 0.00907265 0.00921991 0.00935112 0.00946579 0.00956354 0.00964401 0.00970689 0.00975203 0.00977754 0.00981964 0.00984429 0.00985153 0.00984138 0.00981387 0.00976933 0.00970789 0.00962989 0.00953567 0.00942558 0.00930011 0.00915979 0.00900514 0.00883664 0.00865505 0.0084609 0.00825487 0.00803767 0.00781003 0.00757261 0.00732622 0.00707149 0.00680925 0.00654019 0.00626511 0.00598458 0.00569946 0.00541036 0.00511805 0.00482312 0.00452615 0.00422788 0.00392877 0.00362959 0.00333068 0.00303261 0.00273588 0.00244092 0.00214823 0.00185079 0.00153235 0.00121667 0.00102264 0.000984267 0.000943316 0.000899872 0.000854001 0.000805833 0.000755439 0.000702988 0.000648538 0.000592324 0.00053446 0.00047505 0.000414329 0.000352455 0.000289575 0.000225893 0.000161605 9.68746e-05 3.19169e-05 -3.31017e-05 -9.79882e-05 -0.000162498 -0.000226501 -0.000289786 -0.000352206 -0.000413522 -0.000473592 -0.00053226 -0.000589368 -0.000644744 -0.000698255 -0.000749799 -0.00079919 -0.000846376 -0.000891224 -0.000933662 -0.000973586 -0.00101096 -0.00104569 -0.00107773 -0.00107304 -0.00106802 -0.00106102 -0.00105207 -0.00104121 -0.00102845 -0.00101384 -0.000997467 -0.000979367 -0.000959604 -0.000938234 -0.000915372 -0.000891054 -0.000865372 -0.00083842 -0.000810283 -0.00078105 -0.00075078 -0.000719633 -0.000687654 -0.000654931 -0.000621589 -0.000587706 -0.00055336 -0.000518657 -0.000483681 -0.000448507 -0.000413231 -0.000377929 -0.000342672 -0.00030755 -0.000272618 -0.000237937 -0.000203585 -0.000169613 -0.000136077 -0.000103038 -7.05154e-05 -3.85841e-05 -7.26307e-06 1.20335e-07 1.15301e-07 1.09907e-07 1.04199e-07 9.81573e-08 9.18118e-08 8.51741e-08 7.82684e-08 7.11082e-08 6.37011e-08 5.60842e-08 4.82639e-08 4.02617e-08 3.21119e-08 2.38358e-08 1.54453e-08 6.97941e-09 -1.53596e-09 -1.00835e-08 -1.86357e-08 -2.71779e-08 -3.56475e-08 -4.40608e-08 -5.23731e-08 -6.05613e-08 -6.86064e-08 -7.64938e-08 -8.41736e-08 -9.16277e-08 -9.88826e-08 -1.05876e-07 -1.12602e-07 -1.19026e-07 -1.25158e-07 -1.3099e-07 -1.36476e-07 -1.41636e-07 -1.41748e-07 -1.3094e-07 -1.19466e-07 -8.9584e-08 -7.28209e-08 -5.55606e-08 -3.783e-08 -1.9665e-08 -1.0994e-09 1.78323e-08 3.70965e-08 5.66448e-08 7.64343e-08 9.64199e-08 1.16551e-07 1.36778e-07 1.57041e-07 1.77309e-07 1.97502e-07 2.17572e-07 2.37469e-07 2.57131e-07 2.765e-07 2.9552e-07 3.14136e-07 3.32278e-07 3.49907e-07 3.66964e-07 3.83389e-07 3.99143e-07 4.14165e-07 4.28418e-07 4.41859e-07 4.5444e-07 4.66132e-07 4.76887e-07 4.86689e-07 4.95509e-07 5.03317e-07 5.10094e-07 5.21629e-07 5.11413e-07 4.99649e-07 4.83495e-07 4.64997e-07 4.45284e-07 4.24399e-07 4.02392e-07 3.79309e-07 3.55197e-07 3.30129e-07 3.04127e-07 2.77314e-07 2.4973e-07 2.21445e-07 1.92538e-07 1.63124e-07 1.33241e-07 1.03006e-07 7.24845e-08 4.17906e-08 1.0988e-08 -1.98085e-08 -5.05125e-08 -8.10274e-08 -1.11294e-07 -1.41207e-07 -1.70656e-07 -1.99603e-07 -2.2791e-07 -2.55549e-07 -2.82428e-07 -3.08482e-07 -3.3363e-07 -3.57796e-07 -3.8096e-07 -4.03048e-07 -4.23995e-07 -4.43815e-07 -4.62413e-07 0.000157864 0.000440527 0.000728663 0.00102194 0.00131997 0.00162228 0.00192848 0.00223809 0.00255047 0.00286515 0.00318159 0.00349906 0.00381692 0.00413446 0.00445108 0.00476594 0.0050783 0.00538731 0.00569223 0.00599225 0.00628651 0.00657421 
0.00625091 0.00649932 0.00673941 0.00697045 0.00719174 0.00740258 0.00760218 0.00779002 0.00796528 0.00812749 0.00827609 0.00841052 0.00853033 0.00863503 0.00872428 0.00879775 0.00885515 0.00889637 0.00892307 0.00897676 0.00901483 0.0090373 0.00904413 0.00903535 0.00901124 0.00897188 0.00891757 0.00884858 0.00876517 0.0086678 0.00855689 0.00843289 0.00829619 0.00814744 0.0079871 0.00781573 0.00763394 0.00744238 0.00724155 0.00703218 0.00681481 0.00659014 0.00635875 0.00612133 0.00587836 0.00563057 0.0053785 0.00512278 0.00486395 0.00460248 0.004339 0.00407393 0.00380794 0.0035413 0.00327449 0.003008 0.00274216 0.00247744 0.00220017 0.00189464 0.00159035 0.00140223 0.00134856 0.00129133 0.00123067 0.00116667 0.0010995 0.00102928 0.000956221 0.000880425 0.000802201 0.00072171 0.000639109 0.000554711 0.000468734 0.000381393 0.000292964 0.000203716 0.00011388 2.37547e-05 -6.64338e-05 -0.000156408 -0.000245847 -0.000334554 -0.000422242 -0.000508701 -0.000593612 -0.000676774 -0.000757969 -0.000836975 -0.000913558 -0.000987531 -0.00105875 -0.00112697 -0.0011921 -0.00125398 -0.00131249 -0.00136749 -0.00141894 -0.00146672 -0.00151072 -0.00150838 -0.00150134 -0.00149153 -0.00147899 -0.00146375 -0.00144586 -0.00142539 -0.00140244 -0.00137707 -0.00134936 -0.0013194 -0.00128735 -0.00125326 -0.00121726 -0.00117947 -0.00114002 -0.00109903 -0.0010566 -0.00101293 -0.000968091 -0.000922213 -0.000875463 -0.000827952 -0.000779795 -0.000731133 -0.000682086 -0.000632762 -0.000583295 -0.000533786 -0.000484341 -0.000435081 -0.000386087 -0.000337444 -0.000289258 -0.000241604 -0.000194558 -0.000148205 -0.000102577 -5.77724e-05 -1.38219e-05 1.53889e-07 1.488e-07 1.43279e-07 1.3738e-07 1.3108e-07 1.24411e-07 1.17386e-07 1.10033e-07 1.02367e-07 9.43938e-08 8.61579e-08 7.76637e-08 6.89356e-08 6.00133e-08 5.0919e-08 4.16663e-08 3.2299e-08 2.28466e-08 1.33284e-08 3.77476e-09 -5.80069e-09 -1.5321e-08 -2.48111e-08 -3.42184e-08 -4.35165e-08 -5.2685e-08 -6.17087e-08 -7.05279e-08 -7.91236e-08 -8.7531e-08 -9.56724e-08 -1.03546e-07 -1.11108e-07 -1.18373e-07 -1.25332e-07 -1.31931e-07 -1.38196e-07 -1.39521e-07 -1.30201e-07 -1.20207e-07 -8.71419e-08 -7.08349e-08 -5.40441e-08 -3.67959e-08 -1.9125e-08 -1.06452e-09 1.73521e-08 3.60922e-08 5.51087e-08 7.43599e-08 9.38017e-08 1.13385e-07 1.33062e-07 1.52773e-07 1.72489e-07 1.92133e-07 2.11657e-07 2.31014e-07 2.5014e-07 2.68981e-07 2.87485e-07 3.05593e-07 3.23243e-07 3.40392e-07 3.56985e-07 3.72963e-07 3.88288e-07 4.02901e-07 4.16766e-07 4.29842e-07 4.4208e-07 4.53454e-07 4.63917e-07 4.73452e-07 4.82032e-07 4.89627e-07 4.9622e-07 5.07418e-07 4.97457e-07 4.85998e-07 4.70273e-07 4.5227e-07 4.33082e-07 4.12755e-07 3.91337e-07 3.68871e-07 3.45405e-07 3.21009e-07 2.95703e-07 2.69609e-07 2.42766e-07 2.1524e-07 1.8711e-07 1.58486e-07 1.29406e-07 9.99845e-08 7.02841e-08 4.04164e-08 1.04432e-08 -1.95238e-08 -4.9401e-08 -7.90934e-08 -1.08544e-07 -1.3765e-07 -1.66304e-07 -1.94469e-07 -2.22012e-07 -2.48904e-07 -2.75056e-07 -3.00405e-07 -3.24872e-07 -3.48382e-07 -3.70919e-07 -3.92407e-07 -4.12786e-07 -4.32067e-07 -4.50159e-07 0.000137681 0.000395679 0.000658681 0.000926373 0.00119842 0.00147438 0.00175388 0.00203652 0.00232167 0.00260892 0.00289781 0.00318762 0.0034778 0.00376768 0.00405673 0.00434418 0.00462935 0.00491144 0.00518983 0.00546373 0.00573237 0.00599504 
0.00563772 0.00586207 0.00607892 0.00628758 0.00648745 0.00667787 0.00685814 0.0070278 0.00718609 0.00733259 0.0074668 0.00758823 0.00769644 0.007791 0.00787161 0.00793797 0.00798981 0.00802704 0.00805487 0.00812 0.00817133 0.0082089 0.00823262 0.00824249 0.00823875 0.00822145 0.00819081 0.00814705 0.00809037 0.00802114 0.00793972 0.00784647 0.00774167 0.0076259 0.00749951 0.00736298 0.00721678 0.00706147 0.00689747 0.00672536 0.00654559 0.00635874 0.00616529 0.00596583 0.0057607 0.00555057 0.00533583 0.00511704 0.00489465 0.00466901 0.00444069 0.00421002 0.00397757 0.00374356 0.00350841 0.00327252 0.00303619 0.00279984 0.00254321 0.00225113 0.00195879 0.00177707 0.00170829 0.00163498 0.0015573 0.00147539 0.00138946 0.00129965 0.00120624 0.00110935 0.00100939 0.000906549 0.00080104 0.000693254 0.00058347 0.000471966 0.000359093 0.000245191 0.000130557 1.55742e-05 -9.94755e-05 -0.00021423 -0.00032829 -0.000441398 -0.00055319 -0.000663393 -0.000771609 -0.000877579 -0.000981022 -0.00108166 -0.00117918 -0.00127336 -0.00136402 -0.00145084 -0.0015337 -0.00161239 -0.00168678 -0.00175668 -0.00182202 -0.00188266 -0.00193849 -0.00193847 -0.00192945 -0.00191686 -0.00190076 -0.00188122 -0.00185826 -0.00183199 -0.00180254 -0.00176998 -0.00173443 -0.00169598 -0.00165485 -0.00161111 -0.00156491 -0.00151642 -0.00146579 -0.0014132 -0.00135874 -0.0013027 -0.00124516 -0.00118628 -0.00112629 -0.00106531 -0.00100351 -0.00094106 -0.000878112 -0.000814809 -0.00075132 -0.000687777 -0.000624316 -0.000561087 -0.000498201 -0.000435764 -0.000373911 -0.000312738 -0.000252347 -0.00019284 -0.000134265 -7.67417e-05 -2.03138e-05 1.87047e-07 1.81908e-07 1.76264e-07 1.70182e-07 1.63629e-07 1.56644e-07 1.49241e-07 1.4145e-07 1.33288e-07 1.24759e-07 1.15916e-07 1.0676e-07 9.73186e-08 8.76368e-08 7.77381e-08 6.76376e-08 5.73834e-08 4.70089e-08 3.65355e-08 2.59958e-08 1.54032e-08 4.8481e-09 -5.70252e-09 -1.61885e-08 -2.65802e-08 -3.68557e-08 -4.69998e-08 -5.69415e-08 -6.66632e-08 -7.62057e-08 -8.54798e-08 -9.44854e-08 -1.03171e-07 -1.11554e-07 -1.19626e-07 -1.27325e-07 -1.34679e-07 -1.37205e-07 -1.29367e-07 -1.20847e-07 -8.46569e-08 -6.88138e-08 -5.25008e-08 -3.57434e-08 -1.85754e-08 -1.02873e-09 1.68639e-08 3.50706e-08 5.3546e-08 7.22494e-08 9.11379e-08 1.10164e-07 1.29281e-07 1.48431e-07 1.67587e-07 1.86671e-07 2.0564e-07 2.24446e-07 2.43027e-07 2.61332e-07 2.79309e-07 2.96903e-07 3.14049e-07 3.30711e-07 3.46831e-07 3.62354e-07 3.77244e-07 3.91441e-07 4.04912e-07 4.17614e-07 4.29505e-07 4.40554e-07 4.5072e-07 4.59983e-07 4.68319e-07 4.75698e-07 4.82103e-07 4.92961e-07 4.83263e-07 4.72114e-07 4.56829e-07 4.39328e-07 4.20677e-07 4.00918e-07 3.801e-07 3.58264e-07 3.35456e-07 3.11744e-07 2.87148e-07 2.61787e-07 2.35698e-07 2.08945e-07 1.81606e-07 1.53789e-07 1.25526e-07 9.6933e-08 6.80689e-08 3.90427e-08 9.91407e-09 -1.92083e-08 -4.82424e-08 -7.70972e-08 -1.05717e-07 -1.34001e-07 -1.61845e-07 -1.89215e-07 -2.15979e-07 -2.4211e-07 -2.67522e-07 -2.92153e-07 -3.15928e-07 -3.38771e-07 -3.60669e-07 -3.81548e-07 -4.01347e-07 -4.2008e-07 -4.37657e-07 0.000117174 0.000350114 0.00058758 0.000829287 0.00107493 0.00132411 0.0015765 0.00183172 0.00208921 0.00234861 0.00260948 0.0028712 0.00313326 0.00339505 0.00365608 0.00391568 0.00417322 0.00442799 0.00467941 0.00492678 0.0051694 0.00540663 
0.00501588 0.00521584 0.00540911 0.00559508 0.00577322 0.00594294 0.00610362 0.00625484 0.00639591 0.00652649 0.00664612 0.00675434 0.0068508 0.00693508 0.00700692 0.00706607 0.00711228 0.00714547 0.00717435 0.00725074 0.00731519 0.00736771 0.00740821 0.00743663 0.00745319 0.00745789 0.00745088 0.00743233 0.00740238 0.00736131 0.00730941 0.00724696 0.00717414 0.00709143 0.00699912 0.00689753 0.00678708 0.00666817 0.00654116 0.0064065 0.00626453 0.00611572 0.00596042 0.00579914 0.0056321 0.00545987 0.00528274 0.00510117 0.00491548 0.00472599 0.00453311 0.00433715 0.00413857 0.00393752 0.00373436 0.00352941 0.00332293 0.00311529 0.00287971 0.0026016 0.00232174 0.00214687 0.00206318 0.001974 0.00187955 0.00177995 0.0016755 0.00156635 0.00145286 0.00133517 0.00121374 0.00108885 0.000960731 0.000829865 0.000696586 0.000561239 0.000424243 0.00028601 0.000146905 7.39013e-06 -0.000132192 -0.0002714 -0.000409758 -0.000546946 -0.000682522 -0.000816155 -0.000947369 -0.00107585 -0.00120124 -0.00132321 -0.00144142 -0.00155554 -0.00166537 -0.00177054 -0.00187089 -0.00196617 -0.00205622 -0.00214082 -0.00221988 -0.00229321 -0.00236071 -0.00236301 -0.00235202 -0.00233668 -0.00231708 -0.00229328 -0.00226532 -0.00223333 -0.00219746 -0.00215781 -0.0021145 -0.00206769 -0.0020176 -0.00196433 -0.00190806 -0.00184901 -0.00178735 -0.0017233 -0.00165698 -0.00158873 -0.00151865 -0.00144694 -0.00137387 -0.00129961 -0.00122434 -0.00114828 -0.00107161 -0.000994508 -0.000917179 -0.000839784 -0.000762487 -0.000685473 -0.000608873 -0.000532821 -0.000457478 -0.000382964 -0.000309399 -0.00023691 -0.000165555 -9.54771e-05 -2.67336e-05 2.19782e-07 2.14597e-07 2.08837e-07 2.02576e-07 1.95778e-07 1.88485e-07 1.80712e-07 1.72494e-07 1.63846e-07 1.54773e-07 1.45334e-07 1.35529e-07 1.25387e-07 1.1496e-07 1.04272e-07 9.33383e-08 8.22126e-08 7.09319e-08 5.95195e-08 4.80104e-08 3.64174e-08 2.48445e-08 1.32506e-08 1.70324e-09 -9.76475e-09 -2.11298e-08 -3.23768e-08 -4.3424e-08 -5.42537e-08 -6.49159e-08 -7.53054e-08 -8.54261e-08 -9.52183e-08 -1.04704e-07 -1.13873e-07 -1.22655e-07 -1.31083e-07 -1.34799e-07 -1.28437e-07 -1.21384e-07 -8.21289e-08 -6.67578e-08 -5.09308e-08 -3.46726e-08 -1.80159e-08 -9.92011e-10 1.63675e-08 3.4032e-08 5.1957e-08 7.0103e-08 8.84289e-08 1.06888e-07 1.25435e-07 1.44016e-07 1.626e-07 1.81116e-07 1.99519e-07 2.17765e-07 2.35793e-07 2.53552e-07 2.70994e-07 2.88063e-07 3.04699e-07 3.20863e-07 3.36504e-07 3.51565e-07 3.66011e-07 3.79784e-07 3.92853e-07 4.05178e-07 4.16714e-07 4.27435e-07 4.37297e-07 4.46284e-07 4.54371e-07 4.6153e-07 4.67745e-07 4.78259e-07 4.68829e-07 4.58001e-07 4.43162e-07 4.26173e-07 4.08068e-07 3.8889e-07 3.68683e-07 3.47487e-07 3.25349e-07 3.02335e-07 2.78463e-07 2.53849e-07 2.28527e-07 2.02563e-07 1.76029e-07 1.49031e-07 1.21602e-07 9.3853e-08 6.58398e-08 3.76705e-08 9.40261e-09 -1.88601e-08 -4.70364e-08 -7.50383e-08 -1.02812e-07 -1.30259e-07 -1.5728e-07 -1.83839e-07 -2.09811e-07 -2.35168e-07 -2.59827e-07 -2.83727e-07 -3.06797e-07 -3.28963e-07 -3.50209e-07 -3.70468e-07 -3.89678e-07 -4.07853e-07 -4.24907e-07 9.63821e-05 0.000303913 0.000515482 0.000730835 0.000949709 0.00117173 0.00139662 0.00162404 0.00185349 0.00208463 0.00231711 0.00255034 0.00278387 0.00301716 0.0032498 0.00348115 0.00371068 0.00393772 0.0041618 0.00438225 0.00459849 0.00480992 
0.00438645 0.00456171 0.00473112 0.00489413 0.00505027 0.00519904 0.00533988 0.00547243 0.00559608 0.00571054 0.0058154 0.00591027 0.00599482 0.0060687 0.00613168 0.00618352 0.00622403 0.00625312 0.006283 0.00637046 0.00644786 0.0065152 0.00657233 0.00661919 0.00665596 0.00668256 0.00669913 0.00670574 0.00670248 0.00668957 0.00666718 0.00663554 0.00659474 0.00654516 0.00648696 0.00642041 0.00634577 0.0062634 0.00617349 0.00607641 0.00597238 0.00586175 0.00574478 0.00562187 0.0054931 0.00535899 0.00521967 0.00507552 0.0049268 0.00477366 0.00461649 0.0044555 0.00429105 0.00412323 0.00395234 0.00377861 0.00360228 0.00342364 0.00320951 0.00294585 0.00267895 0.00251139 0.00241299 0.00230816 0.00219715 0.00208013 0.00195742 0.00182921 0.00169591 0.0015577 0.00141511 0.00126847 0.00111807 0.000964445 0.000808001 0.000649144 0.000488365 0.000326145 0.000162912 -7.88772e-07 -0.00016456 -0.000327876 -0.00049019 -0.000651118 -0.000810144 -0.000966876 -0.00112076 -0.00127143 -0.00141847 -0.00156148 -0.00170006 -0.00183384 -0.00196258 -0.00208585 -0.00220344 -0.00231508 -0.00242056 -0.00251965 -0.00261222 -0.00269808 -0.00277708 -0.00278167 -0.00276873 -0.0027507 -0.00272765 -0.00269964 -0.00266674 -0.00262912 -0.00258693 -0.00254027 -0.00248933 -0.00243427 -0.00237534 -0.00231266 -0.00224647 -0.002177 -0.00210447 -0.00202912 -0.0019511 -0.0018708 -0.00178836 -0.001704 -0.00161803 -0.00153067 -0.00144212 -0.00135263 -0.00126243 -0.00117173 -0.00108075 -0.000989696 -0.000898755 -0.000808145 -0.000718023 -0.000628545 -0.0005399 -0.000452228 -0.000365671 -0.000280379 -0.000196422 -0.000113965 -3.30765e-05 2.52061e-07 2.46834e-07 2.40962e-07 2.34531e-07 2.27495e-07 2.19902e-07 2.1177e-07 2.03133e-07 1.94011e-07 1.84406e-07 1.74384e-07 1.63944e-07 1.53117e-07 1.41959e-07 1.30496e-07 1.18745e-07 1.06765e-07 9.4595e-08 8.22609e-08 6.98e-08 5.72247e-08 4.46522e-08 3.20333e-08 1.9443e-08 6.91739e-09 -5.51868e-09 -1.785e-08 -2.99842e-08 -4.19042e-08 -5.36671e-08 -6.5154e-08 -7.63727e-08 -8.72531e-08 -9.78238e-08 -1.08073e-07 -1.17922e-07 -1.27409e-07 -1.32301e-07 -1.27407e-07 -1.21815e-07 -7.9557e-08 -6.4666e-08 -4.93333e-08 -3.35828e-08 -1.74465e-08 -9.54359e-10 1.5863e-08 3.29756e-08 5.03405e-08 6.79199e-08 8.56732e-08 1.03556e-07 1.21523e-07 1.39523e-07 1.57527e-07 1.75464e-07 1.93293e-07 2.10969e-07 2.28433e-07 2.45639e-07 2.62534e-07 2.7907e-07 2.95186e-07 3.10846e-07 3.25998e-07 3.40588e-07 3.54582e-07 3.67926e-07 3.80586e-07 3.92526e-07 4.03701e-07 4.14087e-07 4.23641e-07 4.32348e-07 4.40182e-07 4.47117e-07 4.53137e-07 4.63304e-07 4.5415e-07 4.43646e-07 4.29265e-07 4.12797e-07 3.9525e-07 3.76661e-07 3.57077e-07 3.36536e-07 3.15081e-07 2.92776e-07 2.69641e-07 2.45787e-07 2.21248e-07 1.96087e-07 1.70373e-07 1.4421e-07 1.17631e-07 9.07403e-08 6.35945e-08 3.62976e-08 8.90484e-09 -1.84813e-08 -4.57842e-08 -7.29178e-08 -9.98297e-08 -1.26426e-07 -1.52607e-07 -1.78342e-07 -2.03507e-07 -2.28076e-07 -2.51968e-07 -2.75126e-07 -2.97477e-07 -3.18953e-07 -3.39538e-07 -3.59164e-07 -3.77775e-07 -3.95383e-07 -4.11904e-07 7.53475e-05 0.000257157 0.000442512 0.000631191 0.000822963 0.0010175 0.00121455 0.00141384 0.00161489 0.00181744 0.00202117 0.00222555 0.00243022 0.00263466 0.00283854 0.00304131 0.00324247 0.00344147 0.00363786 0.00383108 0.00402061 0.00420592 
